fight_id,muay_thai_A,muay_thai_B,boxing_A,boxing_B,wrestling_A,wrestling_B,grappling_A,grappling_B,pace_A,pace_B,td_success_A,td_success_B,ctrl_share_A,ctrl_share_B,n_fights_norm_A,n_fights_norm_B,muay_thai_diff,muay_thai_inter,boxing_diff,boxing_inter,wrestling_diff,wrestling_inter,grappling_diff,grappling_inter,pace_diff,pace_inter,td_success_diff,td_success_inter,ctrl_share_diff,ctrl_share_inter,n_fights_norm_diff,n_fights_norm_inter,y
0005e00b07cee542,0.3522525727748871,0.1822963654994964,0.2930821478366852,0.534711480140686,0.2076544314622879,0.107750192284584,0.1470109522342682,0.175241932272911,8.021578296689656,16.364588607327008,0.0702428006775832,0.0458913649025069,24.16363636363636,2.342250086782772,1.0,0.8,0.16995620727539068,0.06421436375470878,-0.24162933230400085,0.1567143890725653,0.0999042391777039,0.022374804918807494,-0.0282309800386428,0.025762483334813777,-8.343010310637352,131.26982880678912,0.024351435775076306,0.0032235379976690297,21.821386276853588,56.59727936971461,0.19999999999999996,0.8,1
00414fc5519233b4,0.0911438018083572,0.259874165058136,0.2728801667690277,0.185225561261177,0.1645795851945877,0.2135206162929535,0.4713964462280273,0.3413796722888946,5.791461345728589,2.814603827273608,0.1333333333333333,0.1578406966263678,15.876578458340076,14.452937048872602,1.0,0.5,-0.1687303632497788,0.023685919395171052,0.0876546055078507,0.05054438204683674,-0.048941031098365784,0.03514113445998701,0.1300167739391327,0.16092516433147347,2.976857518454981,16.300669269194845,-0.02450736329303449,0.021045426216849034,1.4236414094674732,229.46318900987595,0.5,0.5,0
00494c77d2a88f8c,0.2339681982994079,0.2260682731866836,0.2114022672176361,0.5188727378845215,0.2256755977869033,0.1070126593112945,0.3289538919925689,0.1480463445186615,6.090493138055657,13.81135734072022,0.1497681888457406,0.15,22.48888888888889,13.827008310249308,0.9,0.4,0.007899925112724304,0.052892786570146705,-0.3074704706668854,0.10969087318621007,0.1186629384756088,0.02415014586084261,0.18090754747390742,0.04870042122468642,-7.720864202664562,84.11797711089112,-0.00023181115425938148,0.02246522832686109,8.661880578639582,310.95405355494,0.5,0.36000000000000004,1
00742aea8da72a35,0.275899738073349,0.2104145288467407,0.4047946035861969,0.1606617420911789,0.1801456809043884,0.174391284584999,0.1391600221395492,0.4545325040817261,10.78526315789474,1.9162995594713657,0.1052631578947368,0.0,13.04,1.7841409691629957,0.5,0.2,0.0654852092266083,0.058053313395642896,0.244132861495018,0.06503500620126657,0.005754396319389399,0.03141583670535562,-0.3153724819421769,0.06325275333115774,8.868963598423374,20.66779503825644,0.1052631578947368,0.0,11.255859030837003,23.265198237885464,0.3,0.1,1
0096879f5708526b,0.381472498178482,0.2768195867538452,0.3097749948501587,0.3336286842823028,0.1792846322059631,0.2625260949134826,0.1294677555561065,0.127025619149208,10.428642209572,11.514285714285712,0.0666666666666666,0.0857142857142857,17.433333333333334,27.000000000000004,0.6,0.7,0.10465291142463679,0.10559905930372436,-0.02385368943214411,0.10334982395541557,-0.0832414627075195,0.047066894371031495,0.0024421364068984985,0.016445721809372746,-1.0856435047137118,120.07836601307187,-0.019047619047619105,0.005714285714285707,-9.56666666666667,470.70000000000005,-0.09999999999999998,0.42,1
009feda296ae589c,0.0890786275267601,0.1688339412212371,0.3561877906322479,0.1423830091953277,0.4195263981819153,0.3605446815490722,0.1352071017026901,0.328238308429718,15.440625,9.441698841698845,0.38515625,0.305019305019305,28.25,37.08571428571428,0.8,0.7,-0.079755313694477,0.015039495763921489,0.21380478143692022,0.050715089468854814,0.05898171663284307,0.1512580116339279,-0.19303120672702792,0.044380150350575846,5.998926158301156,145.78573117760624,0.08013694498069496,0.11748009169884169,-8.835714285714282,1047.6714285714284,0.10000000000000009,0.5599999999999999,0
00b1e95f6aea7027,0.2460588067770004,0.2096167504787445,0.4503466486930847,0.3330810070037842,0.1469099372625351,0.1632889658212661,0.1566845327615738,0.2940132617950439,12.070454301693095,9.083176314746956,0.0,0.0894915844090103,1.1876227687121734,18.266022911095703,0.5,0.9,0.03644205629825589,0.0515780475032721,0.11726564168930054,0.15000191524747208,-0.016379028558730996,0.023988771724466437,-0.1373287290334701,0.04606733055006273,2.9872779869461397,109.63806462137423,-0.0894915844090103,0.0,-17.07840014238353,21.693144703035472,-0.4,0.45,0
00b7497b02b3b2bb,0.0813003182411193,0.1774516999721527,0.1927907913923263,0.3456861674785614,0.1907177716493606,0.3396855890750885,0.5351911187171936,0.137176513671875,3.6359293319756425,8.81893063583815,0.1667779632721202,0.2716763005780347,27.052135117909497,19.20809248554913,0.6,0.8,-0.09615138173103341,0.014426879680163636,-0.1528953760862351,0.06664510980157211,-0.1489678174257279,0.06478407860980127,0.3980146050453186,0.07341565181377518,-5.183001303862508,32.06500857550253,-0.10489833730591452,0.04530962007970896,7.844042632360367,519.6199132763771,-0.20000000000000007,0.48,1
00b801e7e1679f2f,0.2664222717285156,0.1885372251272201,0.2767817378044128,0.2463171184062957,0.1534739136695861,0.1959815621376037,0.3033220767974853,0.3691640496253967,4.58362696563774,2.098230088495576,0.1150735294117647,0.1561946902654867,12.731683168316833,19.0,1.0,0.4,0.07788504660129553,0.05023051582378456,0.030464619398117093,0.06817608008346983,-0.042507648468017606,0.030078057348337215,-0.06584197282791138,0.11197560621134524,2.4853968771421644,9.617504013740783,-0.041121160853722014,0.017973874284226962,-6.268316831683167,241.90198019801983,0.6,0.4,0
00bbcd4a6d647fdf,0.1912185698747635,0.079066127538681,0.408816248178482,0.2540755271911621,0.1369628459215164,0.2043004333972931,0.2630023658275604,0.4625579118728637,6.070807279639514,3.0260355029585804,0.0750348675034867,0.3436686390532544,8.544550745911186,22.28,1.0,0.5,0.11215244233608249,0.015118911833482235,0.1547407209873199,0.10387020378026078,-0.0673375874757767,0.027981568781092474,-0.1995555460453033,0.12165382515481936,3.0447717766809332,18.370478359808565,-0.2686337715497677,0.02578713079646454,-13.735449254088815,190.37259061890123,0.5,0.5,1
00be3852000f8fe9,0.5676496028900146,0.0801883339881897,0.143996462225914,0.1281864792108535,0.1622148007154464,0.5831380486488342,0.1261391639709472,0.2084871232509613,6.2804260360772,10.65084564819394,0.0857142857142857,0.4897272861028369,19.10124826629681,42.075,0.7,0.8,0.48746126890182495,0.045518875944807746,0.015809983015060508,0.018458399511558577,-0.42092324793338787,0.09459362235116493,-0.0823479592800141,0.02629839142558409,-4.37041961211674,66.89184831515676,-0.4040130003885512,0.041976624523100296,-22.973751733703192,803.6850208044383,-0.10000000000000009,0.5599999999999999,1
00c6a2ef07ca51da,0.0699122846126556,0.1844404190778732,0.1252536922693252,0.3666366934776306,0.6917452812194824,0.2434365004301071,0.113088734447956,0.2054863423109054,9.992744530774242,9.025974025974026,0.4589103156872159,0.2662337662337662,47.675,17.214285714285715,1.0,1.0,-0.1145281344652176,0.012894651072649744,-0.24138300120830541,0.045922599579490055,0.4483087807893753,0.16839605044911107,-0.0923976078629494,0.023238190398279766,0.9667705048002162,90.19425258296232,0.1926765494534497,0.1221774217089341,30.460714285714282,820.6910714285714,0.0,1.0,0
00ee51bba08b7a08,0.047497671097517,0.1369403302669525,0.1609617173671722,0.2850348949432373,0.5197277069091797,0.3976752460002899,0.2718128561973572,0.1803495734930038,8.720737543057052,10.157174671984482,0.3860240035164112,0.3387959983332225,49.65714285714286,31.690006075334143,0.7,0.8,-0.08944265916943549,0.006504346767005061,-0.12407317757606509,0.04587970619963499,0.12205246090888977,0.2066828436982746,0.09146328270435339,0.04902133268510854,-1.4364371289274303,88.57805449336327,0.047228005183188704,0.13078338765192993,17.967136781808716,1573.6351588265927,-0.10000000000000009,0.5599999999999999,0
00f4b6184f6315d0,0.2133933156728744,0.1042238995432853,0.2874189913272857,0.3540977537631988,0.1931299269199371,0.1819395720958709,0.3060577511787414,0.3597387671470642,8.459999999999999,8.072370766488413,0.08,0.1868092691622103,9.06,31.33333333333333,1.0,0.3,0.1091694161295891,0.02224068349589823,-0.06667876243591309,0.10177441921787618,0.011190354824066218,0.03513797626272017,-0.05368101596832281,0.11010083808484337,0.3876292335115856,68.29225668449197,-0.1068092691622103,0.014944741532976825,-22.273333333333326,283.88,0.7,0.3,0
00fbeda449926c13,0.1515099257230758,0.0612171776592731,0.430613249540329,0.1593060791492462,0.2682288587093353,0.5440393090248108,0.1496479511260986,0.2354374229907989,2.4117117117117117,6.617705570291777,0.1801801801801802,0.3093501326259947,30.1,60.0,0.2,0.2,0.09029274806380272,0.009275010040132804,0.27130717039108276,0.06859930841398575,-0.27581045031547546,0.1459270429527404,-0.08578947186470029,0.03523272796898168,-4.205993858580065,15.959998028532512,-0.1291699524458145,0.05573876263531437,-29.9,1806.0,0.0,0.04000000000000001,1
01100a90b584215d,0.0906692892313003,0.218973234295845,0.5889277458190918,0.4760341346263885,0.1292745023965835,0.1230005100369453,0.1911284625530243,0.1819920986890792,11.55,5.175959933222036,0.1,0.0751252086811352,15.95,3.604841402337229,0.4,0.4,-0.1283039450645447,0.019854147514283257,0.1128936111927033,0.280349709838461,0.0062739923596382,0.015900829729552077,0.00913636386394509,0.03478387001924198,6.374040066777964,59.782337228714525,0.024874791318864803,0.00751252086811352,12.34515859766277,57.4972203672788,0.0,0.16000000000000003,1
0111e6a64b5184c6,0.0161049347370862,0.1771134734153747,0.0442482009530067,0.2667076587677002,0.0570589713752269,0.1641909778118133,0.8825879096984863,0.3919878900051117,8.885423728813558,7.379498022812256,0.2277966101694915,0.1178408264222319,32.2,17.896076768490072,0.5,1.0,-0.16100853867828852,0.002852400930413261,-0.2224594578146935,0.011801334080859139,-0.10713200643658641,0.00936856830303477,0.49060001969337463,0.3459637724667317,1.5059257060013023,65.56996683862876,0.10995578374725959,0.026843740798555872,14.30392323150993,576.2536719453803,-0.5,0.5,1
0133019a4f1055ee,0.0986678600311279,0.0179705470800399,0.1464790105819702,0.0286920350044965,0.5226514935493469,0.10882518440485,0.2322016358375549,0.8445122838020325,6.047091100012705,4.133394263217099,0.4663402695736877,0.3475417135358081,33.92941176470588,49.333333333333336,1.0,0.6,0.08069731295108801,0.0017731154239761712,0.11778697557747368,0.004202780899041902,0.4138263091444969,0.05687764516497795,-0.6123106479644775,0.19609713378374136,1.913696836795606,24.99501166194369,0.11879855603787959,0.16207269637839009,-15.403921568627453,1673.850980392157,0.4,0.6,1
01432891260084a4,0.1281036436557769,0.283572643995285,0.5459136366844177,0.4097062647342682,0.1760649383068084,0.1122995615005493,0.149917796254158,0.1944215297698974,12.954761904761906,13.814939024390243,0.16,0.0707317073170731,15.555714285714284,9.575,1.0,0.8,-0.15546900033950808,0.03632668893689847,0.13620737195014954,0.22366423695347315,0.06376537680625909,0.01977201536747585,-0.04450373351573941,0.02914724728746519,-0.8601771196283376,178.96924578977934,0.08926829268292691,0.011317073170731695,5.980714285714285,148.94596428571427,0.19999999999999996,0.8,1
01468f766dd7385c,0.2385188788175583,0.1460250616073608,0.192850574851036,0.1268448233604431,0.2843351066112518,0.5995935201644897,0.2842954397201538,0.1275365650653839,4.327272727272728,7.066793742132711,0.2909090909090909,0.255364143139723,15.672727272727276,37.84,1.0,0.5,0.09249381721019748,0.03482973397385258,0.0660057514905929,0.024462097101939567,-0.31525841355323797,0.17048548747938594,0.1567588746547699,0.036258063845661326,-2.7395210148599833,30.579943829592466,0.035544947769367896,0.07428775073155577,-22.167272727272728,593.0560000000002,0.5,0.5,0
0149e875b31e57f8,0.2182821482419967,0.2538740336894989,0.5070666670799255,0.1522555649280548,0.1250637620687484,0.2146467417478561,0.1495873481035232,0.3792236447334289,6.245075528700906,4.57410019372716,0.0362537764350453,0.1386278407110192,10.580000000000002,11.47959338027222,1.0,1.0,-0.03559188544750219,0.055416169456604866,0.3548111021518707,0.07720372185243995,-0.08958297967910772,0.02684452903878596,-0.2296362966299057,0.05672705935382624,1.670975334973746,28.56560118567156,-0.1023740642759739,0.005025782744810361,-0.8995933802722185,121.4540979632801,0.0,1.0,1
014f1da2083ca174,0.1458103209733963,0.2283428609371185,0.5018468499183655,0.1798229068517685,0.1655365079641342,0.1231742948293685,0.1868063807487487,0.4686599373817444,10.463607433085812,7.825128243274683,0.1204605209699699,0.1121200009973961,17.07445652173913,14.60833466075018,1.0,1.0,-0.0825325399637222,0.03329474584522484,0.322023943066597,0.09024355934672368,0.042362213134765694,0.02038984263699837,-0.2818535566329957,0.08754866670421886,2.638479189811129,81.8790700511787,0.008340519972573804,0.013506033731299877,2.4661218609889506,249.42937501999367,0.0,1.0,1
014f7dc96c90c199,0.1019766628742218,0.1488382369279861,0.1979214549064636,0.1984483301639557,0.4137317538261413,0.2012092173099517,0.2863701581954956,0.4515042603015899,5.310472624455779,7.120000000000001,0.242101716589584,0.12,28.838998908467172,19.32,1.0,0.5,-0.04686157405376429,0.015178026709998788,-0.0005268752574920932,0.039277182229808354,0.2125225365161896,0.08324664236363151,-0.1651341021060943,0.12929734644850652,-1.8095273755442216,37.81056508612515,0.12210171658958399,0.029052205990750077,9.518998908467172,557.1694589115858,0.5,0.5,0
01619207a811ef01,0.1925946623086929,0.2455833107233047,0.4846662878990173,0.2601533234119415,0.1282123625278473,0.1791940033435821,0.1945267766714096,0.3150693774223327,7.715604395604397,5.940553541785149,0.04,0.1284177097512351,9.348383045525903,15.7019366374508,0.5,0.7,-0.05298864841461179,0.047298034797405665,0.2245129644870758,0.1260875455426582,-0.05098164081573481,0.022974886519503628,-0.1205426007509231,0.061289430417834176,1.7750508538192484,45.834961019320765,-0.08841770975123509,0.005136708390049404,-6.353553591924896,146.78771824346705,-0.19999999999999996,0.35,0
0165bd3c26f0c076,0.2929023802280426,0.3714229762554168,0.4508479237556457,0.379345566034317,0.1192364022135734,0.1037795096635818,0.1370133608579635,0.1454518884420395,12.2,1.6,0.0,0.0,8.8,7.1000000000000005,0.2,0.2,-0.07852059602737421,0.10879067381659534,0.07150235772132868,0.171027160832482,0.015456892549991594,0.012374295355774268,-0.008438527584075983,0.01992885207858141,10.6,19.52,0.0,0.0,1.7000000000000002,62.48000000000001,0.0,0.04000000000000001,1
017a825c7820d12e,0.3475313484668731,0.2080115526914596,0.2733262181282043,0.1761430352926254,0.2128607034683227,0.2498695999383926,0.1662817001342773,0.3659758269786834,12.505609799613667,9.479132791327912,0.1614050681748941,0.1981029810298103,16.424175824175823,25.72249322493225,1.0,0.9,0.1395197957754135,0.07229053540355099,0.09718318283557889,0.04814450968615611,-0.03700889647006991,0.05318741881823461,-0.19969412684440613,0.060855082718063586,3.026477008285756,118.54233592706959,-0.03669791285491619,0.03197482515876629,-9.298317400756428,422.47075136245866,0.09999999999999998,0.9,1
017e0b7e864b0aa3,0.2936632931232452,0.1595502942800521,0.118642583489418,0.5146593451499939,0.3215076625347137,0.1178147941827774,0.2661864459514618,0.2079755961894989,9.618333133556298,18.2466852367688,0.1910434078560882,0.0734261838440111,32.98013552506169,3.5946518105849576,1.0,0.5,0.13411299884319308,0.04685406483706297,-0.39601676166057587,0.06106051432556735,0.20369286835193628,0.03787835908971315,0.05821084976196289,0.05536028479431909,-8.628352103212503,175.5026971903859,0.1176172240120771,0.014027588387427526,29.385483714476734,118.55210387850029,0.5,0.5,1
0197a61472fc351d,0.0832449868321418,0.0584587082266807,0.2736764252185821,0.084594503045082,0.1554737389087677,0.1329919099807739,0.4876048862934112,0.7239549160003662,2.893845396356475,11.924935732647814,0.1035286394222878,0.2,25.65356967011325,42.93333333333334,0.3,0.3,0.024786278605461107,0.004866394396554055,0.18908192217350012,0.023151521186520498,0.022481828927993802,0.02067674948932918,-0.236350029706955,0.3530039544979146,-9.031090336291339,34.508920371769705,-0.09647136057771222,0.02070572788445756,-17.279763663220088,1101.3932578368622,0.0,0.09,1
01983cba42704c49,0.2240698039531707,0.0830229520797729,0.4131302535533905,0.1792022585868835,0.0987221375107765,0.2646369636058807,0.2640778422355652,0.4731378257274627,2.5626016260162605,8.353848466970462,0.0,0.3031020683433553,3.6592264104459225,32.31428571428572,0.9,1.0,0.1410468518733978,0.018602936596128196,0.233927994966507,0.07403387452733942,-0.16591482609510416,0.02612552671153411,-0.20905998349189753,0.12494521609813523,-5.7912468409542015,21.40758566495195,-0.3031020683433553,0.0,-28.655059303839796,118.24528772040968,-0.09999999999999998,0.9,1
019b4d006800504b,0.0927692949771881,0.1955047845840454,0.1809790879487991,0.4175113439559936,0.2515853941440582,0.1153797283768653,0.4746662080287933,0.2716041207313537,3.8862101344942417,13.725427937756129,0.2296136542815832,0.025,34.91829268292683,12.133610870817051,1.0,1.0,-0.10273548960685731,0.018136841030528924,-0.2365322560071945,0.07556082223743307,0.13620566576719292,0.029027854439928037,0.20306208729743958,0.12892129807254624,-9.839217803261887,53.33989715197826,0.2046136542815832,0.0057403413570395806,22.78468181210978,423.68497568793254,0.0,1.0,1
01a4827b3596d111,0.0310948155820369,0.1329300105571746,0.0688725635409355,0.3596395850181579,0.507716178894043,0.2559387683868408,0.3923163712024688,0.2514915764331817,8.606656637456952,11.30290939721371,0.5163963288965999,0.1921189992677336,54.14545454545455,26.24057796508128,1.0,1.0,-0.1018351949751377,0.004133434163593562,-0.2907670214772224,0.024769300170998754,0.25177741050720215,0.1299442535162143,0.1408247947692871,0.09866426265425417,-2.6962527597567583,97.28026018610394,0.32427732962886635,0.0992095459331462,27.90487658037327,1420.8080214547647,0.0,1.0,1
01aa5949ac6851f3,0.181936115026474,0.2626093626022339,0.2313831150531768,0.2841995656490326,0.3401067554950714,0.3013387322425842,0.2465739995241165,0.1518523544073104,15.886265693006486,9.543814812895638,0.1838970475155449,0.2053325388593413,39.65007974481659,28.339943861837742,0.6,0.6,-0.08067324757575989,0.047778127201429044,-0.052816450595855796,0.06575898079663298,0.03876802325248724,0.10248733852802337,0.09472164511680609,0.03744284236336412,6.342450880110848,151.6155778425111,-0.02143549134379641,0.037760047655103754,11.310135882978845,1123.6810340854918,0.0,0.36,0
01c9acf719298187,0.2409966140985489,0.3348879814147949,0.2077745199203491,0.23573037981987,0.2841444611549377,0.2900870442390442,0.267084389925003,0.1392945051193237,7.116960244795297,8.259416661769604,0.1906971816062725,0.1649150849150849,28.81526125649837,23.51151515151515,0.9,1.0,-0.09389136731624603,0.08070686962326334,-0.027955859899520902,0.048978766497715036,-0.005942583084106501,0.08242662687333178,0.1277898848056793,0.03720338791969978,-1.1424564169743077,58.78194002701416,0.02578209669118761,0.031448841897665794,5.303746104983219,677.490451627029,-0.09999999999999998,0.9,0
01e8868086004dd8,0.1051560938358306,0.2762644588947296,0.626689612865448,0.2087696939706802,0.090604081749916,0.2782414257526397,0.177550196647644,0.236724391579628,6.666666666666667,6.712605042016806,0.0333333333333333,0.08,5.133333333333333,21.37210084033613,0.6,0.5,-0.171108365058899,0.029050891363039153,0.41791991889476776,0.13083379869252362,-0.18763734400272372,0.02520980888510535,-0.059174194931984,0.04203046227625683,-0.045938375350139005,44.75070028011204,-0.046666666666666703,0.002666666666666664,-16.238767507002798,109.7101176470588,0.09999999999999998,0.3,1
01f7c28804746979,0.1905066221952438,0.1021284461021423,0.1367483735084533,0.1587135344743728,0.1716095060110092,0.5270510315895081,0.501135528087616,0.2121070176362991,4.886775575087583,8.632002807280294,0.191360545835601,0.352181370785721,18.54492689307903,37.75297002724796,1.0,1.0,0.0883781760931015,0.019456145296968146,-0.021965160965919495,0.021703817693148313,-0.35544152557849884,0.09044696717366828,0.28902851045131683,0.10629436229425603,-3.745227232192711,42.18266048270479,-0.16082082495011998,0.06739361934668575,-19.208043134168932,700.1260691519172,0.0,1.0,0
0221982930283140,0.1718475073575973,0.2646607756614685,0.2699550688266754,0.1677121222019195,0.3431251347064972,0.3134231567382812,0.215072363615036,0.2542038857936859,10.740693118162092,11.061859561237664,0.2001423360915206,0.2941351051842681,29.97728478418134,25.77431582600206,1.0,1.0,-0.09281326830387121,0.04548129459275162,0.10224294662475591,0.04527473749208698,0.029701977968215998,0.10754336287595832,-0.0391315221786499,0.054672230557774704,-0.3211664430755725,118.81203886346093,-0.09399276909274751,0.05886888707810455,4.20296895817928,772.6440056334958,0.0,1.0,0
022bdd58cc6e571d,0.2032140791416168,0.1576110124588012,0.4245386123657226,0.1265597939491272,0.1525547504425048,0.1417558789253235,0.2196925729513168,0.574073314666748,13.830919453524434,5.07734256800754,0.1212737127371273,0.1297334611370882,12.319512195121952,19.829855233202967,1.0,0.8,0.04560306668281561,0.032028776759393175,0.2979788184165954,0.053729519304454236,0.010798871517181313,0.02162553273321065,-0.3543807417154312,0.12611964356182878,8.753576885516893,70.22431609606319,-0.0084597483999609,0.0157332584983325,-7.5103430380810146,244.2941433729468,0.19999999999999996,0.8,1
0230a9dd2739add4,0.1550828516483307,0.0749340578913688,0.6100121736526489,0.2804602086544037,0.0761510133743286,0.3156339526176452,0.1587539762258529,0.3289717435836792,4.75,10.777133328140122,0.0,0.2425239774531145,1.7000000000000002,34.63385598141696,0.4,1.0,0.08014879375696189,0.011620987383374571,0.32955196499824524,0.17108414150434825,-0.2394829392433166,0.0240358453471785,-0.1702177673578263,0.052225572359860785,-6.027133328140122,51.19138330866558,-0.2425239774531145,0.0,-32.933855981416954,58.87755516840883,-0.6,0.4,1
024beecfd3f0ed7a,0.180864006280899,0.1849609911441803,0.4227826297283172,0.1182427182793617,0.1159005612134933,0.4981816709041595,0.2804527580738067,0.1986146569252014,6.9,12.123907455012851,0.0666666666666666,0.3771208226221079,4.4,38.9,1.0,0.2,-0.0040969848632813055,0.03345278586402233,0.30453991144895554,0.0499909673803731,-0.3822811096906662,0.05773953524406791,0.08183810114860532,0.05570202832855562,-5.223907455012851,83.65496143958867,-0.3104541559554413,0.025141388174807166,-34.5,171.16,0.8,0.2,0
0261adcfc6e49150,0.0411806814372539,0.1803266853094101,0.1538493186235427,0.5608029365539551,0.4213747978210449,0.0855623632669448,0.3835951685905456,0.1733079999685287,4.306319977219057,6.366666666666666,0.4470465417724278,0.0166666666666666,45.08,6.716666666666668,0.5,1.0,-0.1391460038721562,0.0074259757823627506,-0.4069536179304124,0.08627914967090784,0.33581243455410015,0.03605382352269967,0.2102871686220169,0.06648011146601804,-2.0603466894476092,27.416903854961326,0.4303798751057612,0.0074507756962071,38.36333333333333,302.7873333333334,-0.5,0.5,1
026bb9fd1b3f239d,0.284821093082428,0.5824975371360779,0.4560645520687103,0.1903827935457229,0.1138849183917045,0.1081522032618522,0.1452294290065765,0.1189675629138946,6.171428571428572,10.599277848269812,0.0,0.0222222222222222,4.028571428571429,4.527961840312045,0.7,0.9,-0.2976764440536499,0.1659075852449199,0.2656817585229874,0.08682684346001987,0.005732715129852309,0.012316904842359075,0.026261866092681913,0.01727759123228888,-4.427849276841241,65.41268614932227,-0.0222222222222222,0.0,-0.4993904117406158,18.241217699542815,-0.20000000000000007,0.63,1
02713b2d25f74d43,0.1636787354946136,0.2084436118602752,0.5061815977096558,0.1730945110321045,0.0958136767148971,0.3782050013542175,0.2343260049819946,0.2402569502592086,6.990476190476191,6.2895302013422825,0.0333333333333333,0.1873825503355704,6.614285714285714,25.432307692307692,0.6,0.5,-0.04476487636566162,0.03411778681121989,0.33308708667755127,0.08761725614900229,-0.2823913246393204,0.03623721173171021,-0.005930945277213995,0.05629845132339814,0.7009459891339089,43.96681112176415,-0.15404921700223712,0.006246085011185674,-18.818021978021978,168.21654945054945,0.09999999999999998,0.3,0
02732ebb104793d2,0.1679803282022476,0.2260473221540451,0.0648941397666931,0.1067647114396095,0.5835288166999817,0.4453920423984527,0.183596670627594,0.2217959761619568,7.049352993362023,6.0,0.3806270411623281,0.3333333333333333,44.16562084701913,14.933333333333335,1.0,0.3,-0.05806699395179751,0.03797150336467569,-0.0418705716729164,0.0069284041063126765,0.138136774301529,0.25989909146835716,-0.03819930553436279,0.04072100278193247,1.0493529933620227,42.29611796017214,0.04729370782899478,0.12687568038744268,29.23228751368579,659.5399379821524,0.7,0.3,1
0273dbd5dedbdbe0,0.2261068969964981,0.2075913995504379,0.2493603080511093,0.2426428943872451,0.2079637795686721,0.0861063152551651,0.3165690302848816,0.4636594355106354,5.732325286234638,3.95,0.1472391669913158,0.0,15.989816700610998,0.85,0.7,0.4,0.01851549744606021,0.046937847195509745,0.006717413663864191,0.06050550689081621,0.121857464313507,0.017906994765195743,-0.14709040522575378,0.14678021788203743,1.782325286234638,22.64268488062682,0.1472391669913158,0.0,15.139816700610998,13.591344195519348,0.29999999999999993,0.27999999999999997,0
02822c35ffef5a50,0.2415906637907028,0.1077848449349403,0.0679249241948127,0.1678918153047561,0.5901091694831848,0.3724105954170227,0.1003753021359443,0.3519127964973449,11.150697122026054,9.320482564401642,0.559086657627562,0.4570127148168978,35.06731873410019,26.054180602006685,1.0,0.6,0.13380581885576248,0.026039812234410195,-0.0999668911099434,0.011404038827505054,0.2176985740661621,0.21976290716827762,-0.2515374943614006,0.03532335327392608,1.8302145576244122,103.9298781067674,0.10207394281066423,0.2555097112202776,9.013138132093506,913.6502555263788,0.4,0.6,1
0292b9c31c0089ac,0.0820885822176933,0.1933692097663879,0.083426646888256,0.46697598695755,0.3943298161029815,0.1540799438953399,0.4401549696922302,0.1855748742818832,4.090844491740122,7.701960784313725,0.2980432121949824,0.0666666666666666,39.22863336402701,7.307843137254903,0.9,0.3,-0.11128062754869461,0.015873404274278517,-0.383549340069294,0.03895824076920237,0.2402498722076416,0.0607583159414071,0.254580095410347,0.08168170316518174,-3.6111162925736027,31.50752385010823,0.23137654552831582,0.019869547479665475,31.92079022677211,286.6766991131935,0.6000000000000001,0.27,1
029a12d36a4687e1,0.242182195186615,0.1417577117681503,0.2682937979698181,0.2088180631399154,0.1932865232229232,0.432352066040039,0.2962375283241272,0.2170721590518951,5.290784625455308,5.781865598659792,0.1288342711174013,0.3407969659757196,13.991089613034625,30.16432989690722,0.8,1.0,0.10042448341846469,0.034331193820642085,0.059475734829902704,0.05602459124450919,-0.2390655428171158,0.08356782765312683,0.07916536927223208,0.06430491986551522,-0.4910809732044834,30.59060561583818,-0.2119626948583183,0.04390632871050365,-16.173240283872595,422.0318427047684,-0.19999999999999996,0.8,1
029f5c36820fdc09,0.0795530974864959,0.0855388715863227,0.2185735553503036,0.6020383834838867,0.301255464553833,0.0847320184111595,0.4006178677082062,0.2276906371116638,5.288236733769133,6.52,0.2678357269281323,0.04,41.01389720234222,1.6799999999999995,1.0,0.5,-0.005985774099826799,0.006804882190191585,-0.3834648281335831,0.13158966993542262,0.2165234461426735,0.025525983569037788,0.1729272305965424,0.0912169375367977,-1.2317632662308666,34.479303504174744,0.22783572692813228,0.010713429077125292,39.33389720234222,68.90334729993491,0.5,0.5,1
02b39d683f027517,0.4230105876922607,0.1513544470071792,0.3094192445278168,0.1001039817929267,0.1045581251382827,0.5539474487304688,0.1630119830369949,0.1945941001176834,4.8500000000000005,4.740802652292187,0.0,0.3889715782138729,0.35,28.325347116145792,0.4,1.0,0.2716561406850815,0.064024533578344,0.20931526273489007,0.030974098420593708,-0.44938932359218603,0.05791970666439279,-0.031582117080688504,0.031721170147483095,0.10919734770781364,22.992892863617108,-0.3889715782138729,0.0,-27.97534711614579,9.913871490651026,-0.6,0.4,1
02ec66f311dce539,0.1951469182968139,0.1484064161777496,0.4604590535163879,0.5247811079025269,0.1426886171102523,0.1000822782516479,0.2017053961753845,0.2267301082611084,9.071492067918832,9.885714285714286,0.0644210489620191,0.0857142857142857,13.875916901769685,5.714285714285714,1.0,0.7,0.0467405021190643,0.028961054772562264,-0.06432205438613897,0.24164021224807894,0.0426063388586044,0.014280601880971118,-0.025024712085723905,0.045732686311694686,-0.8142222177954537,89.67817872856904,-0.021293236752266603,0.005521804196744493,8.16163118748397,79.29095372439821,0.30000000000000004,0.7,0
02f5621f480ad1d4,0.1853818744421005,0.1101250648498535,0.3231557309627533,0.6192982196807861,0.2106207311153412,0.09715536236763,0.2808416783809662,0.1734213531017303,7.070585480461735,11.1,0.1370552466215129,0.0666666666666666,20.40743169769654,1.9,1.0,0.6,0.075256809592247,0.020415190944923715,-0.29614248871803284,0.2001297688648762,0.11346536874771118,0.020462933453646137,0.1074203252792359,0.04870394387218811,-4.029414519538265,78.48349883312525,0.07038857995484629,0.009137016441434182,18.507431697696543,38.77412022562343,0.4,0.6,0
0308bcdd00cc72e2,0.0928837060928344,0.546476423740387,0.5235527157783508,0.2380501627922058,0.1804137378931045,0.0941280946135521,0.2031498104333877,0.1213452666997909,14.67424607064553,11.9,0.1943888560768666,0.0,18.09333333333333,8.1,1.0,0.2,-0.45359271764755255,0.05075875552936534,0.285502552986145,0.12463180922133787,0.0862856432795524,0.016982001389986727,0.0818045437335968,0.024651267927051395,2.77424607064553,174.62352824068182,0.1943888560768666,0.0,9.99333333333333,146.55599999999995,0.8,0.2,0
0344687c9852b1d2,0.0687281042337417,0.1850268989801406,0.0992456674575805,0.3273853063583374,0.4051905274391174,0.1395254284143448,0.4268357455730438,0.3480623662471771,8.88988162529365,3.914285714285714,0.4063593903237556,0.0857142857142857,41.07977323344807,11.22857142857143,1.0,0.7,-0.1162987947463989,0.0127165479991531,-0.2281396389007569,0.03249157324533767,0.2656650990247726,0.05653438193037718,0.0787733793258667,0.1485654596030317,4.975595911007936,34.797536647578,0.32064510460946993,0.03483080488489333,29.851201804876645,461.2671680212884,0.30000000000000004,0.7,1
034cbbec91f67852,0.1430994868278503,0.1672792136669159,0.1115094348788261,0.303726464509964,0.4195843935012817,0.3140152394771576,0.3258066177368164,0.2149791419506073,4.088603553706695,5.631165841657425,0.3051546214157608,0.3006606246783325,35.92466604253169,34.12068107737176,1.0,0.8,-0.024179726839065607,0.023937569632701983,-0.1922170296311379,0.033868366415249915,0.10556915402412409,0.13175589380618288,0.1108274757862091,0.0700416271228903,-1.5425622879507301,23.0236046717123,0.004493996737428285,0.09174797909834269,1.803984965159927,1225.774072848311,0.19999999999999996,0.8,0
0366e183296fea07,0.3469789922237396,0.1536582708358764,0.2662398815155029,0.5969827771186829,0.1459225416183471,0.1222793161869049,0.2408585250377655,0.1270796358585357,14.456675864996816,16.88538961038961,0.0222882615156017,0.0,8.194576523031204,13.300649350649351,0.4,0.8,0.19332072138786321,0.053316191961474836,-0.33074289560318,0.158940623846874,0.02364322543144222,0.017843308605346653,0.11377888917922979,0.030608213655223246,-2.428713745392793,244.10660445158746,0.0222882615156017,0.0,-5.1060728276181475,108.9931889099014,-0.4,0.32000000000000006,1
037c68d03c970609,0.1321549117565155,0.3563334941864013,0.4360310733318329,0.3608280420303345,0.1153896301984787,0.1333873569965362,0.3164244294166565,0.1494511216878891,5.536185791340816,12.243942577030811,0.04,0.0333333333333333,10.760000000000002,14.923844537815128,0.5,0.6,-0.2241785824298858,0.047091221480094696,0.07520303130149841,0.15733223845471045,-0.0179977267980575,0.015391517796982772,0.1669733077287674,0.047289985905769605,-6.707756785689996,67.78474092495082,0.006666666666666703,0.001333333333333332,-4.163844537815127,160.5805672268908,-0.09999999999999998,0.3,0
037d2f426c916ffc,0.0549779646098613,0.2083136439323425,0.0734829008579254,0.5154216885566711,0.6392743587493896,0.0946134403347969,0.2322647720575332,0.1816511750221252,6.925317394149026,10.063072265349811,0.6748152559236196,0.05,44.92,4.135143317628705,1.0,1.0,-0.1533356793224812,0.011452660143863574,-0.4419387876987457,0.03787468084023437,0.5446609184145927,0.06048394639910093,0.05061359703540802,0.04219116876049698,-3.1377548712007854,69.6899693978057,0.6248152559236195,0.03374076279618098,40.7848566823713,185.75063782788143,0.0,1.0,1
039c645e8f3ac00f,0.2507869303226471,0.2570244669914245,0.3227784037590027,0.3488781750202179,0.142854169011116,0.0956819206476211,0.2835804224014282,0.2984154820442199,6.001795161329073,6.24386855901389,0.0872322193658954,0.0187622240849399,8.704383634048481,6.438336206116273,1.0,1.0,-0.00623753666877741,0.06445837709459389,-0.02609977126121521,0.1126103404393799,0.0471722483634949,0.013668561263503454,-0.014835059642791693,0.0846247884492257,-0.24207339768481706,37.4744201054643,0.0684699952809555,0.0016366704471695633,2.2660474279322083,56.04174830302028,0.0,1.0,1
03aec9073946907f,0.1407056003808975,0.0789712071418762,0.3477120101451874,0.0825583115220069,0.1045733019709587,0.3921844065189361,0.407009094953537,0.4462861120700836,10.263485196701366,7.044881406727503,0.0923076923076923,0.3711743237012429,6.764472083277004,41.52727272727272,1.0,1.0,0.06173439323902129,0.011111691113701912,0.2651536986231805,0.028706516453509606,-0.2876111045479774,0.041012018371205924,-0.03927701711654663,0.1816425065639775,3.218603789973862,72.30503603046442,-0.2788666313935506,0.03426224526473011,-34.76280064399571,280.9100770582668,0.0,1.0,1
03b9922d777e430c,0.0800088942050933,0.0726899579167366,0.715628981590271,0.2191227078437805,0.0773915201425552,0.1673528403043747,0.1269705593585968,0.5408344864845276,7.558178053830227,4.177152959610746,0.031055900621118,0.1780704286332804,5.12815734989648,24.83658536585365,0.6,0.7,0.007318936288356698,0.005815843152732863,0.4965062737464905,0.1568105602575471,-0.0899613201618195,0.012951690711329837,-0.4138639271259308,0.06867005726935993,3.3810250942194813,31.57166582682192,-0.14701452801216242,0.005530137535195042,-19.70842801595717,127.36591779023375,-0.09999999999999998,0.42,0
03bc32bdb5a33496,0.2977942228317261,0.1820748597383499,0.4046847522258758,0.576579213142395,0.1005576774477958,0.0810449942946434,0.1969633996486663,0.1603008657693863,11.888474576271186,6.297614107883817,0.0,0.0,7.097627118644068,2.3625,1.0,1.0,0.11571936309337619,0.05422084135297744,-0.17189446091651922,0.23333281600912056,0.019512683153152396,0.008149696395039202,0.03666253387928001,0.03157340348856284,5.590860468387369,74.8690252127435,0.0,0.0,4.735127118644068,16.76814406779661,0.0,1.0,0
03c2707563915d7d,0.1818174123764038,0.1660583615303039,0.3804738223552704,0.4721783995628357,0.3035492599010467,0.0915265157818794,0.134159430861473,0.2702367305755615,3.489108910891089,7.923964497041419,0.1782178217821782,0.0,30.000000000000004,2.2032544378698224,0.2,0.4,0.01575905084609991,0.030192301596905214,-0.09170457720756531,0.17965152051526623,0.2120227441191673,0.02778280612691096,-0.13607729971408852,0.036254805971882555,-4.434855586150331,27.64757513621184,0.1782178217821782,0.0,27.79674556213018,66.09763313609469,-0.2,0.08000000000000002,0
03c2a836d033be8f,0.1206703260540962,0.1352314800024032,0.1228879913687706,0.0453755781054496,0.2800802290439605,0.382829874753952,0.4763615131378174,0.436563104391098,12.43709744615769,5.238844373951479,0.2870704837807714,0.4921940513945918,28.563636363636363,46.34285714285714,1.0,0.7,-0.01456115394830701,0.016318426784667984,0.077512413263321,0.0055761136505754665,-0.10274964570999151,0.1072230790059576,0.03979840874671936,0.20796186098788638,7.198253072206211,65.15601798408952,-0.20512356761382045,0.14129438444786332,-17.77922077922078,1323.7205194805194,0.30000000000000004,0.7,1
03eecf1926d9c77c,0.1675460934638977,0.2257075011730194,0.3425692617893219,0.2825672030448913,0.1078939586877822,0.2233104705810547,0.3819907307624817,0.2684148848056793,8.245611968804711,14.568558222102556,0.08,0.1612898073457662,12.944380073213432,19.41908927193208,1.0,1.0,-0.058161407709121704,0.03781641008703751,0.0600020587444306,0.09679883815296185,-0.11541651189327248,0.02409385068742152,0.11357584595680237,0.10253199799444879,-6.322946253297845,120.12667804439712,-0.0812898073457662,0.012903184587661296,-6.474709198718648,251.36807221155036,0.0,1.0,1
0408a452fb5c3e14,0.0946092307567596,0.03559285774827,0.1037094518542289,0.099319539964199,0.3943824768066406,0.6348717212677002,0.4072988927364349,0.2302159368991851,3.6038260151473054,6.713588501782832,0.3346565801010031,0.4662120941828377,36.83192660550459,60.0,1.0,0.3,0.0590163730084896,0.0033674128919985954,0.004389911890029907,0.01030037504810126,-0.24048924446105957,0.2503822818880508,0.17708295583724978,0.09376669618931906,-3.1097624866355265,24.19460489771879,-0.13155551408183463,0.1560209450409552,-23.16807339449541,2209.9155963302755,0.7,0.3,1
040f227553de7838,0.209720492362976,0.2452486306428909,0.389051616191864,0.5258503556251526,0.0883229747414588,0.1262525171041488,0.312904953956604,0.1026484444737434,10.786868686868686,6.9,0.0888888888888888,0.1,6.629292929292928,6.9,0.9,0.2,-0.03552813827991491,0.05143366356977272,-0.13679873943328857,0.20458293073103206,-0.037929542362690014,0.01115099787923533,0.21025650948286062,0.0321192067917737,3.886868686868686,74.42939393939395,-0.01111111111111121,0.00888888888888888,-0.270707070707072,45.742121212121205,0.7,0.18000000000000002,1
044d210d7b1eb519,0.480122447013855,0.0762622952461242,0.2412004917860031,0.1568019986152649,0.1283250749111175,0.3576777875423431,0.1503520309925079,0.4092579185962677,10.379244463742944,6.273262292648822,0.0285714285714285,0.3442043222003929,13.213808076422056,30.65,0.7,0.8,0.40386015176773077,0.03661523980846223,0.08439849317073822,0.03782071917903007,-0.22935271263122559,0.045899028880413945,-0.25890588760375977,0.06153275926071532,4.105982171094122,65.11172292058266,-0.31563289362896435,0.009834409205725486,-17.436191923577944,405.003217542336,-0.10000000000000009,0.5599999999999999,0
0459297e86a14981,0.108209304511547,0.105680339038372,0.1199196502566337,0.6450849771499634,0.2389405518770218,0.1014615520834922,0.5329304933547974,0.1477730870246887,4.150879783080647,10.46,0.200269585726921,0.08,32.25,12.240000000000002,0.8,1.0,0.002528965473175007,0.011435595987886724,-0.5251653268933296,0.07735836484563215,0.1374789997935296,0.024243279249128814,0.38515740633010864,0.07875278417262875,-6.309120216919354,43.418202531023574,0.120269585726921,0.01602156685815368,20.009999999999998,394.74000000000007,-0.19999999999999996,0.8,0
0462bcc27498f7c4,0.0872271358966827,0.0945789590477943,0.2310539335012436,0.282792866230011,0.1262979358434677,0.3526442050933838,0.555420994758606,0.2699839770793915,7.933454045954046,10.989535945852865,0.2203466987557897,0.3130586757995751,23.03763736263737,32.184615384615384,1.0,1.0,-0.007351823151111603,0.008249851713828742,-0.051738932728767395,0.06534040410853503,-0.22634626924991608,0.044538235190454856,0.2854370176792145,0.14995476911832029,-3.0560818998988184,87.18497841278383,-0.09271197704378539,0.0689814457292954,-9.146978021978015,741.4574978867289,0.0,1.0,0
047d6739aa1d5c1e,0.2484364360570907,0.2117625325918197,0.2546027302742004,0.2879050672054291,0.3154526650905609,0.1628385186195373,0.1815082132816314,0.3374937772750854,8.238466453674121,6.645492195037172,0.0958466453674121,0.05859375,18.98,23.37480988593156,1.0,0.8,0.036673903465270996,0.0526095288875352,-0.03330233693122869,0.0733014161702794,0.15261414647102362,0.05136784467793196,-0.155985563993454,0.061257892506869596,1.592974258636949,54.74866451696694,0.037252895367412095,0.005616014376996803,-4.394809885931558,443.653891634981,0.19999999999999996,0.8,1
049ad6d87b42eba8,0.1181883811950683,0.1208347454667091,0.1142828986048698,0.1606392115354538,0.5047272443771362,0.2707127034664154,0.2628014683723449,0.4478133618831634,9.483298751843453,5.999623292156179,0.478063604958914,0.300426733522341,44.48655444278712,44.67550561797753,1.0,0.5,-0.0026463642716407915,0.014281262958828466,-0.046356312930583995,0.018358314723872497,0.23401454091072083,0.13663607683848866,-0.18501189351081848,0.11768600905965161,3.483675459687274,56.8962200780356,0.17763687143657297,0.14362308725372136,-0.18895117519041094,1987.459312933199,0.5,0.5,1
04a1c5b7993fe4d5,0.2454742491245269,0.2731144428253174,0.3095166385173797,0.3038622438907623,0.1240106299519538,0.2430896162986755,0.3209984302520752,0.1799337267875671,2.80099730114974,11.520414201183431,0.05,0.122189349112426,11.89682114605895,18.17988165680473,0.8,0.8,-0.02764019370079049,0.06704256277760831,0.005654394626617432,0.09405042030141694,-0.1190789863467217,0.030145696451977486,0.14106470346450808,0.05775844384821482,-8.719416900033691,32.26864908564193,-0.072189349112426,0.006109467455621301,-6.283060510745781,216.28280052752376,0.0,0.6400000000000001,0
04a788abbbd1f256,0.2460323125123977,0.2166762501001358,0.2658720314502716,0.2407113015651703,0.1231802329421043,0.2111368775367736,0.3649154603481293,0.3314756155014038,6.178542883483801,7.5196883293421,0.0613507882738988,0.0737101839389861,11.80586577299142,27.933333333333334,1.0,0.6,0.029356062412261907,0.053309358878651056,0.02516072988510132,0.06399840274017077,-0.0879566445946693,0.026007889757648322,0.033439844846725464,0.12096057682487427,-1.3411454458582988,46.460716813272825,-0.012359395665087293,0.004522177888470872,-16.127467560341913,329.77718392556034,0.4,0.6,0
04e2d50c24a88dbd,0.2664918899536133,0.1352585703134536,0.455863356590271,0.6774991750717163,0.1461164355278015,0.0849590376019477,0.1315282434225082,0.102283239364624,6.720000000000001,4.242851948197254,0.08,0.0444444444444444,10.52,5.34973940122887,0.5,0.9,0.1312333196401597,0.03604531203525594,-0.2216358184814453,0.30884704803533225,0.06115739792585381,0.012413911740269056,0.029245004057884216,0.013453134805192939,2.4771480518027467,28.51196509188555,0.035555555555555604,0.003555555555555552,5.170260598771129,56.27925850092771,-0.4,0.45,1
04f27a78e4ffce47,0.0994419902563095,0.2162362933158874,0.1217744424939155,0.2260841429233551,0.6628691554069519,0.3898091912269592,0.1159143969416618,0.1678703725337982,7.8308581724020225,6.312094933820173,0.3952769109267664,0.136923779096303,40.3,22.37142857142857,0.6,0.7,-0.1167943030595779,0.021502967372978958,-0.1043097004294396,0.027531270461206278,0.27305996417999273,0.2583924893584814,-0.0519559755921364,0.019458592996627323,1.5187632385818493,49.42912019748311,0.25835313183046343,0.0541228084336056,17.928571428571427,901.5685714285713,-0.09999999999999998,0.42,1
04f32bb0c0d3a8cc,0.2087392807006836,0.5025857090950012,0.5639902353286743,0.286227285861969,0.0838981121778488,0.0915308967232704,0.1433723866939544,0.1196561604738235,13.543494889634376,9.6,0.0,0.0,3.057358795963921,5.6000000000000005,1.0,0.3,-0.2938464283943176,0.10490937940693357,0.2777629494667053,0.16142939431077963,-0.0076327845454216,0.007679269441028033,0.023716226220130907,0.017155389309766886,3.943494889634376,130.01755094049,0.0,0.0,-2.5426412040360797,17.121209257397958,0.7,0.3,0
052f53e006b28132,0.2238896489143371,0.0974787175655365,0.4388172626495361,0.144312784075737,0.1378899961709976,0.1709567159414291,0.1994031220674514,0.5872518420219421,12.098626373626375,12.0666873092405,0.075,0.175,10.083869701726844,27.626619336193805,1.0,0.8,0.1264109313488006,0.02182447585236779,0.2945044785737991,0.06332694087344846,-0.03306671977043152,0.023573220906569985,-0.3878487199544908,0.117099850739037,0.03193906438587568,145.99034132187978,-0.09999999999999999,0.013125,-17.54274963446696,278.5832296853857,0.19999999999999996,0.8,0
054794810817c1cc,0.2066687047481537,0.249374583363533,0.1807592809200287,0.1191787719726562,0.1981802731752395,0.3805574178695678,0.4143917560577392,0.250889241695404,5.244887397484023,5.943621111483146,0.1622979419630575,0.3385556713944237,19.543657334746836,27.2,1.0,0.7,-0.042705878615379306,0.05153792214085184,0.06158050894737249,0.021542669122709402,-0.1823771446943283,0.07541897303225473,0.1635025143623352,0.10396643344215302,-0.6987337139991228,31.17362346303793,-0.17625772943136622,0.054946888707236144,-7.656342665253163,531.587479505114,0.30000000000000004,0.7,0
0548a24a9bf8d7a0,0.1432488858699798,0.059719793498516,0.4005282819271087,0.6769663095474243,0.2774321436882019,0.0622568018734455,0.1787907630205154,0.2010571360588073,11.110063507858865,11.1,0.2666634876734538,0.0,25.86362781954887,7.7,1.0,0.2,0.0835290923714638,0.00855479388304768,-0.2764380276203156,0.2711441528855651,0.2151753418147564,0.01727203800292165,-0.022266373038291903,0.03594715876667373,0.010063507858864895,123.32170493723339,0.2666634876734538,0.0,18.16362781954887,199.1499342105263,0.8,0.2,0
0549b655619774c5,0.1039375886321067,0.231034517288208,0.315550684928894,0.211372822523117,0.2232820242643356,0.187568724155426,0.3572297692298889,0.3700238764286041,8.843201754385964,6.222066747504468,0.2162280701754386,0.14205125350257,16.166666666666668,17.108127677630407,1.0,0.4,-0.1270969286561013,0.024013170617719105,0.10417786240577698,0.06669883892252312,0.03571330010890961,0.0418807244181023,-0.01279410719871521,0.13218354398613918,2.621135006881496,55.02299157743808,0.0741768166728686,0.030715468410862725,-0.9414610109637387,276.5813974550249,0.6,0.4,1
054f1423ba7c121e,0.1309760361909866,0.2081516534090042,0.0672453790903091,0.1469617187976837,0.3106445968151092,0.2446655482053756,0.4911339282989502,0.4002210199832916,2.2298928805071005,5.977170029197146,0.304943676102854,0.1513425514046501,39.00124223602485,30.009,0.7,0.8,-0.0771756172180176,0.027262878490111435,-0.07971633970737459,0.009882496492313644,0.06597904860973361,0.07600403057680656,0.09091290831565857,0.19656212173220666,-3.7472771486900456,13.328448893687135,0.1536011246982039,0.04615095397611915,8.99224223602485,1170.3882782608698,-0.10000000000000009,0.5599999999999999,1
058c2724dec1add1,0.1401265263557434,0.1797647476196289,0.3868432641029358,0.4312690794467926,0.2568756639957428,0.1268656402826309,0.2161545008420944,0.2621006071567535,7.756410650112392,5.862477011446631,0.1392719188140544,0.0662072360324883,33.93333333333333,8.715780069921635,0.9,1.0,-0.0396382212638855,0.025189809645155492,-0.04442581534385681,0.1668335383998656,0.1300100237131119,0.032588695585845866,-0.04594610631465909,0.05665422591037792,1.8939336386657608,45.47177912762372,0.0730646827815661,0.009220808801619648,25.217553263411695,295.75547037267415,-0.09999999999999998,0.9,1
0599f35e6679de02,0.1098679825663566,0.1693003326654434,0.1453448832035064,0.1605371385812759,0.4419547021389007,0.2497273236513137,0.3028323948383331,0.4204351902008056,7.439659141505341,5.329708494121415,0.3043701157612817,0.1706608138971516,32.793597974098674,24.66452629735567,1.0,1.0,-0.05943235009908679,0.018600685997765307,-0.015192255377769526,0.023333251656920666,0.192227378487587,0.1103681649402612,-0.11760279536247253,0.12732139552282004,2.1099506473839256,39.65121451984905,0.1337093018641301,0.05194405168179059,8.129071676743003,808.8385596170664,0.0,1.0,1
059f5cf0e9e37627,0.0302795823663473,0.2088515758514404,0.0751214027404785,0.405595451593399,0.8593799471855164,0.1829797774553299,0.0352190360426902,0.202573224902153,9.044691967294186,9.911580543411334,0.7500244704266565,0.0881160964250548,32.95555555555556,20.78095238095238,0.9,1.0,-0.17857199348509312,0.0063239384933351205,-0.3304740488529205,0.030468899268853978,0.6764001697301865,0.15724915148557894,-0.1673541888594628,0.007134433709112914,-0.8668885761171481,89.64719292418184,0.6619083740016017,0.06608922855726593,12.174603174603181,684.8478306878309,-0.09999999999999998,0.9,0
05c8aeb2806be99c,0.1427563577890396,0.1933462470769882,0.0919047743082046,0.2729530334472656,0.355261743068695,0.1613434106111526,0.410077154636383,0.3723572790622711,10.916606375151742,3.888688690426435,0.3773290211983053,0.1055530932131338,37.087500000000006,14.307798225842925,1.0,0.9,-0.05058988928794858,0.02760140602489058,-0.18104825913906103,0.02508568693571077,0.19391833245754242,0.057319141286366254,0.03771987557411188,0.15269521350600176,7.027917684725308,42.4512837488897,0.2717759279851715,0.03982824534656526,22.779701774157083,530.6404667009496,0.09999999999999998,0.9,1
05cceae674c81b86,0.1709065735340118,0.2292395383119583,0.1273431330919265,0.4761539399623871,0.4223165214061737,0.1336017549037933,0.2794338464736938,0.1610047668218612,8.850083786783959,13.119033938558186,0.349077385081072,0.0,40.79168975069252,1.9922642304451084,0.9,0.8,-0.0583329647779465,0.03917854401141562,-0.3488108068704606,0.06063493454887543,0.28871476650238037,0.0564222283847302,0.11842907965183258,0.04499018129363283,-4.268950151774227,116.1045495579023,0.349077385081072,0.0,38.79942552024741,81.26782438971905,0.09999999999999998,0.7200000000000001,1
060987bb3025a0a8,0.3411092460155487,0.1672168672084808,0.3410571813583374,0.5641669034957886,0.1492341458797454,0.1256062239408493,0.1685993820428848,0.1430099606513977,15.101379310344829,18.96015118790497,0.02,0.05,13.015172413793104,5.614794816414687,1.0,0.4,0.1738923788070679,0.05703921949456702,-0.22310972213745117,0.1924131739219348,0.023627921938896096,0.018744737546992674,0.025589421391487094,0.024111390991802924,-3.858771877560141,286.32443487003803,-0.030000000000000002,0.001,7.400377597378418,73.07752260370896,0.6,0.4,0
060dfbc982c6c4ef,0.2285673171281814,0.0771512314677238,0.2291515469551086,0.1318246573209762,0.377051293849945,0.1841598153114318,0.1652298271656036,0.606864333152771,8.692020373514433,4.946641556811048,0.2546689303904924,0.2542372881355932,30.0,30.0,0.2,0.2,0.1514160856604576,0.017634249989712955,0.09732688963413239,0.030207824151928776,0.1928914785385132,0.06943769663834228,-0.44163450598716736,0.10027208887980164,3.7453788167033855,42.99630919227478,0.0004316422548991672,0.06474633823487094,0.0,900.0,0.0,0.04000000000000001,1
061990783b9bdb36,0.1462754011154174,0.1437582671642303,0.5957180857658386,0.5955249667167664,0.1036196500062942,0.1020810529589653,0.1543868631124496,0.158635675907135,14.965737631336678,14.857963536291711,0.0411877061989928,0.0789473684210526,5.199629456109714,4.12359821121431,1.0,0.4,0.002517133951187106,0.021028298193105123,0.00019311904907226562,0.3547649931982768,0.0015385970473288935,0.010577602979881967,-0.004248812794685419,0.02449126438102577,0.1077740950449666,222.36038402010905,-0.0377596622220598,0.0032516610157099566,1.076031244895404,21.441182724191254,0.6,0.4,1
06287b822837a616,0.2557194232940674,0.2685847282409668,0.3094113767147064,0.2203510105609893,0.2707872986793518,0.3192959725856781,0.1640819907188415,0.1917682886123657,11.693811659192823,7.467637842446027,0.12,0.2684304509112694,23.86008968609865,20.05563063063063,0.5,0.8,-0.012865304946899414,0.06868233181137384,0.08906036615371712,0.06817910953815251,-0.048508673906326294,0.08646129389567214,-0.027686297893524198,0.03146572255226231,4.226173816746797,87.32515046862488,-0.14843045091126938,0.032211654109352325,3.804459055468019,478.52914555811407,-0.30000000000000004,0.4,0
063e7ce759c52f81,0.0981389284133911,0.0978999286890029,0.6424011588096619,0.2529056370258331,0.0897916257381439,0.3230633437633514,0.1696683019399643,0.3261311650276184,3.2,13.745459729151817,0.0,0.2853701252418287,0.2,30.2,0.2,1.0,0.00023899972438820583,0.009607794093286149,0.3894955217838288,0.1624668742948909,-0.2332717180252075,0.02900838285291217,-0.1564628630876541,0.055334120979938284,-10.545459729151816,43.98547113328581,-0.2853701252418287,0.0,-30.0,6.04,-0.8,0.2,0
06641a8c62e45661,0.1984419822692871,0.1601557284593582,0.4920979738235473,0.3628433644771576,0.1404221951961517,0.1170862019062042,0.1690378785133361,0.3599147498607635,15.451006711409397,4.05,0.1045759609517998,0.1,11.669585112873705,8.6,1.0,0.4,0.03828625380992892,0.03178162022725672,0.12925460934638971,0.17855448447452812,0.02333599328994751,0.016441501498849036,-0.1908768713474274,0.06083922576212149,11.401006711409398,62.57657718120805,0.004575960951799796,0.010457596095179982,3.069585112873705,100.35843197071385,0.6,0.4,0
066756ea40b134a7,0.0606174021959304,0.2460374534130096,0.0768098607659339,0.2856764793395996,0.6532233953475952,0.2906229496002197,0.2093493342399597,0.1776631027460098,7.151318843740462,6.495238095238096,0.6592150186590942,0.1619047619047619,43.24444444444445,16.685714285714287,0.9,0.7,-0.1854200512170792,0.01491415126879889,-0.20886661857366573,0.021942770602176837,0.3626004457473755,0.18984170990378857,0.03168623149394989,0.0371936522788827,0.6560807485023661,46.449518585057106,0.49731025675433227,0.10673005064004382,26.55873015873016,721.5644444444446,0.20000000000000007,0.63,1
0673d8ab0add7a05,0.2379266917705536,0.1494988650083542,0.3813760876655578,0.2122518271207809,0.1553450524806976,0.3672242760658264,0.2253522276878357,0.271025002002716,6.703757225433526,9.18423236514523,0.1,0.2489626556016597,12.23670520231214,32.6,0.4,0.2,0.0884278267621994,0.035569770374890286,0.16912426054477692,0.08094777142718976,-0.2118792235851288,0.05704647443763199,-0.045672774314880316,0.06107608796041218,-2.4804751397117037,61.56886407790277,-0.1489626556016597,0.02489626556016597,-20.363294797687864,398.91658959537574,0.2,0.08000000000000002,1
06910bddb0745856,0.2413495779037475,0.1148468106985092,0.2260677814483642,0.1867656856775283,0.2920298278331756,0.4973591268062591,0.2405527830123901,0.2010283470153808,14.304870277651345,4.4399959105177205,0.2136549840691852,0.3048604505334755,25.003004096495214,31.07747747747748,1.0,0.7,0.1265027672052383,0.027718229285676788,0.039302095770835904,0.04222170421180135,-0.2053292989730835,0.1452437001724904,0.039524435997009305,0.04835792833893036,9.864874367133623,63.51356553325846,-0.09120546646429029,0.06513495470205433,-6.0744733809822655,777.0302966781072,0.30000000000000004,0.7,1
0697d5520b74a8df,0.130937784910202,0.1844393014907837,0.5420845746994019,0.4937265813350677,0.1751904338598251,0.1241284981369972,0.151787132024765,0.1977055668830871,11.31018606160134,7.371375807940907,0.123076923076923,0.0471837488457987,10.137332392378264,13.583333333333334,1.0,1.0,-0.05350151658058169,0.024150073587588135,0.04835799336433416,0.2676415638608098,0.05106193572282791,0.021746125442989032,-0.045918434858322116,0.030009160982514146,3.938810253660434,83.37163191779857,0.0758931742311243,0.005807230627175221,-3.44600094095507,137.69876499647143,0.0,1.0,0
069df63733dcf697,0.2586207389831543,0.2506707012653351,0.1970877349376678,0.4772922992706299,0.2545476257801056,0.139021098613739,0.2897439002990722,0.1330158710479736,9.222989607219048,21.15,0.0750869867780097,0.05,22.92185792349727,0.7000000000000001,0.6,0.4,0.007950037717819214,0.06482864200266647,-0.2802045643329621,0.09406845816643991,0.11552652716636658,0.035387490585469195,0.1567280292510986,0.03854053727911831,-11.92701039278095,195.06623019268287,0.025086986778009704,0.0037543493389004855,22.22185792349727,16.04530054644809,0.19999999999999996,0.24,1
069e3e704cbf6337,0.1204035729169845,0.0401987172663211,0.0967794582247734,0.0283776503056287,0.3830971717834472,0.9074249267578124,0.3997198045253753,0.0239987317472696,3.814201085672152,8.129850746268657,0.3290537413502205,0.826865671641791,34.68795107033639,46.5,1.0,0.2,0.0802048556506634,0.0048400691855447365,0.06840180791914469,0.0027463736222708207,-0.5243277549743652,0.34763192304671964,0.37572107277810574,0.009592768362875523,-4.315649660596504,31.008885542770468,-0.49781193029157056,0.2720832428477942,-11.81204892966361,1612.9897247706422,0.8,0.2,0
06c0c7dda5a5909d,0.1269186437129974,0.1715570837259292,0.2428071945905685,0.5854601263999939,0.3403646945953369,0.1163583248853683,0.2899095118045807,0.1266244351863861,13.79234820666889,12.713852813852814,0.3,0.0,13.161836566732529,12.4008658008658,0.6,0.6,-0.044638440012931796,0.021773792385852076,-0.3426529318094254,0.14215393083582215,0.22400636970996862,0.039604265713233375,0.16328507661819458,0.036709628187415966,1.0784953928160768,175.3538850569951,0.3,0.0,0.7609707658667286,163.21816895697836,0.0,0.36,1
06cd9812e2b9b747,0.176684021949768,0.101886935532093,0.302177757024765,0.643951952457428,0.2581404447555542,0.0970464497804641,0.2629978060722351,0.1571146845817566,7.865441176470588,10.509090909090908,0.2786764705882353,0.0727272727272727,19.15,11.581818181818184,0.8,1.0,0.074797086417675,0.018001793553946918,-0.34177419543266296,0.1945879566253037,0.16109399497509008,0.02505161370827656,0.10588312149047852,0.04132081734673321,-2.64364973262032,82.65863636363635,0.2059491978609626,0.020267379679144378,7.568181818181815,221.7918181818182,-0.19999999999999996,0.8,0
06d9fb9c995f1e4f,0.050418559461832,0.1264455616474151,0.2732616364955902,0.5065587162971497,0.1704677641391754,0.1631235033273697,0.5058519840240479,0.2038722187280655,3.4,10.027568922305766,0.0666666666666666,0.1964912280701754,31.933333333333337,24.107769423558896,0.3,0.7,-0.07602700218558311,0.006375203068604942,-0.23329707980155945,0.13842306379646452,0.007344260811805697,0.02780729889076605,0.30197976529598236,0.10312916633097657,-6.627568922305766,34.093734335839606,-0.12982456140350881,0.013099415204678347,7.825563909774441,769.8414369256475,-0.39999999999999997,0.21,1
06f37329b223b451,0.0756622478365898,0.079976886510849,0.1273905485868454,0.3581227958202362,0.5954173803329468,0.1408248394727707,0.2015298306941986,0.4210755527019501,12.115006329786624,8.499526963103122,0.3969568771820754,0.1421002838221381,30.259713527851464,15.914285714285713,1.0,0.7,-0.0043146386742592,0.006051231008382673,-0.2307322472333908,0.045621459420994714,0.4545925408601761,0.08384955700468488,-0.21954572200775146,0.0848592848454901,3.615479366683502,102.97182295818641,0.25485659335993727,0.05640768491272253,14.34542781356575,481.5617267146647,0.30000000000000004,0.7,0
0716a38768a34789,0.3955732583999634,0.158636525273323,0.3307120203971863,0.3369886577129364,0.1001180484890937,0.2879479527473449,0.1735966652631759,0.2164268940687179,10.04,3.5536636499917447,0.0,0.1755404132793218,0.2799999999999999,18.16923076923077,0.5,1.0,0.23693673312664038,0.06275236720361652,-0.006276637315750122,0.11144619984318105,-0.18782990425825122,0.028828787095493937,-0.04283022880554199,0.037570987083596054,6.486336350008255,35.678783045917115,-0.1755404132793218,0.0,-17.889230769230767,5.087384615384614,-0.5,0.5,0
0730c4e6fb247fa1,0.2520714104175567,0.1466490626335144,0.4655837118625641,0.1958212256431579,0.1093818619847297,0.1638381332159042,0.1729629188776016,0.4936915934085846,6.699999999999999,7.528817733990148,0.009090909090909,0.1142857142857143,7.081818181818182,24.53965517241379,1.0,0.7,0.1054223477840423,0.03696603605444259,0.2697624862194062,0.09117117309641817,-0.05445627123117451,0.017920920075257793,-0.32072867453098297,0.08539033902128289,-0.8288177339901486,50.44307881773398,-0.1051948051948053,0.0010389610389610288,-17.45783699059561,173.78537617554858,0.30000000000000004,0.7,0
07468b6347ac5e3d,0.2942130863666534,0.1647952198982238,0.2317419052124023,0.2340893894433975,0.1289610564708709,0.2566111087799072,0.3450839221477508,0.3445043265819549,5.424439461883408,4.469294605809129,0.0336322869955156,0.3112033195020747,15.35,30.3,0.4,0.2,0.1294178664684296,0.04848491026472775,-0.002347484230995206,0.054248321099620946,-0.12765005230903634,0.03309283969041841,0.0005795955657958984,0.11888290421377064,0.9551448560742797,24.24341802653369,-0.2775710325065591,0.010466479355450913,-14.950000000000001,465.105,0.2,0.08000000000000002,0
0769ab47fcf0bf6b,0.1783584952354431,0.3428955078125,0.4305199980735779,0.1664223372936248,0.1023778989911079,0.2172611504793167,0.2887436151504516,0.2734209895133972,4.6,5.12173579109063,0.0,0.1831797235023041,5.6000000000000005,21.166666666666668,0.3,0.6,-0.1645370125770569,0.06115832679643062,0.2640976607799531,0.07164814433105167,-0.11488325148820881,0.02224274011846338,0.015322625637054388,0.07894856497011203,-0.52173579109063,23.559984639016893,-0.1831797235023041,0.0,-15.566666666666666,118.53333333333335,-0.3,0.18,1
076c98ac0561521f,0.08405302464962,0.0357497967779636,0.1876063644886016,0.1002852544188499,0.5339879989624023,0.1000876501202583,0.1943525671958923,0.7638772130012512,11.126142050040354,3.062162162162162,0.4180548829701372,0.2216216216216216,29.52293785310735,26.5,0.5,0.4,0.048303227871656404,0.0030048785497970797,0.0873211100697517,0.018814151993334898,0.433900348842144,0.05344560400856578,-0.5695246458053589,0.1484614973692366,8.063979887878192,34.07005119647492,0.1964332613485156,0.09265000109067906,3.0229378531073507,782.3578531073448,0.09999999999999998,0.2,1
07a378b257aad5a9,0.3153298199176788,0.2268827706575393,0.3910704553127289,0.1996129602193832,0.1471894681453704,0.3056921064853668,0.1464102566242218,0.2678121924400329,4.557142857142857,6.844284428442843,0.0840336134453781,0.1696969696969697,6.050420168067227,22.828822882288232,0.2,0.9,0.08844704926013947,0.07154290321386589,0.19145749509334567,0.07806273123931583,-0.15850263833999642,0.044994658569819074,-0.1214019358158111,0.03921045182224069,-2.287141571299986,31.190381895332383,-0.0856633562515916,0.014260249554367194,-16.778402714221006,138.12397038023133,-0.7,0.18000000000000002,0
07b98dbf5d2c62a2,0.2426272332668304,0.2022836953401565,0.1897841244935989,0.3366270661354065,0.3400148451328277,0.2547284364700317,0.2275738269090652,0.2063607722520828,6.084888650459268,9.95614713842894,0.1848847250935545,0.1710956882659062,30.15,26.577777777777776,0.4,0.9,0.04034353792667389,0.0490795333353726,-0.14684294164180758,0.06388647302735694,0.08528640866279602,0.08661144987728517,0.021213054656982394,0.04696231066531651,-3.8712584879696728,60.58204672492878,0.013789036827648288,0.03163297928973457,3.572222222222223,801.3199999999999,-0.5,0.36000000000000004,0
07c00213ec388e07,0.1111010313034057,0.1774164736270904,0.3102005124092102,0.1413718909025192,0.2571559846401214,0.3831592202186584,0.3215425014495849,0.298052430152893,9.019826732673266,13.39885273184272,0.2597524752475247,0.3697740863478306,24.419306930693068,34.21884627000906,0.8,1.0,-0.06631544232368469,0.019711153190183222,0.168828621506691,0.04385363299822042,-0.126003235578537,0.0985316865492702,0.023490071296691895,0.09583652395448891,-4.379025999169453,120.85533005782719,-0.1100216111003059,0.09604973421124093,-9.799539339315992,835.6005098815529,-0.19999999999999996,0.8,0
07cb64236ae7aaea,0.158759519457817,0.2798211872577667,0.1641660928726196,0.2322915196418762,0.3836539685726166,0.279914528131485,0.2934204339981079,0.207972764968872,9.761486486486486,8.427556869456218,0.2968918918918919,0.166500256016385,39.95,23.2593941665602,0.8,0.9,-0.12106166779994973,0.04442427722315887,-0.06812542676925659,0.038134391187050184,0.10373944044113159,0.10739031957877554,0.08544766902923592,0.06102345895695291,1.3339296170302681,82.26548249529323,0.13039163587550692,0.0494325760091889,16.690605833439804,929.21279695408,-0.09999999999999998,0.7200000000000001,0
07e39fd5f4f23270,0.1260020285844802,0.0422717556357383,0.3412204384803772,0.0898160263895988,0.2324523478746414,0.1633043587207794,0.3003252446651459,0.7046079039573669,6.828798461633894,7.892307692307692,0.2057006389181812,0.2564102564102564,24.88516717325228,31.5,1.0,0.2,0.0837302729487419,0.00532632696193046,0.2514044120907784,0.030647063907224034,0.069147989153862,0.037960481602807836,-0.40428265929222107,0.21161154114899183,-1.063509230673798,53.89497862797211,-0.0507096174920752,0.0527437535687644,-6.614832826747719,783.8827659574468,0.8,0.2,1
07f234a488661125,0.0196321010589599,0.2501161098480224,0.0429508388042449,0.2616409063339233,0.2499593943357467,0.148019790649414,0.6874577403068542,0.3402231633663177,16.201098901098902,5.55813953488372,0.5648351648351648,0.04,58.0,15.218689217758987,0.2,0.5,-0.2304840087890625,0.004910304745010291,-0.2186900675296784,0.011237696392544877,0.1019396036863327,0.03699893722043155,0.34723457694053655,0.2338890470878585,10.642959366215182,90.047968310759,0.5248351648351648,0.022593406593406595,42.781310782241015,882.6839746300212,-0.3,0.1,0
0810cdbeb9dd4d02,0.0618034377694129,0.0849906802177429,0.2306454330682754,0.422151118516922,0.5550296902656555,0.1375315189361572,0.1525214314460754,0.3553267121315002,4.822037990014296,3.840277335834268,0.3163561959128052,0.1445964730116729,46.65,17.83186682520809,0.4,0.4,-0.02318724244833001,0.005252716215817345,-0.1915056854486466,0.09736722755059232,0.4174981713294983,0.07633407635690047,-0.20280528068542478,0.054194938765323976,0.9817606541800283,18.51796320558373,0.17175972290113234,0.04574399014438144,28.81813317479191,831.8565873959573,0.0,0.16000000000000003,0
0823f97be9c3a62e,0.1024337410926818,0.1398820281028747,0.4101803302764892,0.5520422458648682,0.1093737035989761,0.1025585681200027,0.3780122399330139,0.2055171132087707,5.000000000000001,7.6,0.04,0.0,1.4,4.88,0.5,0.5,-0.0374482870101929,0.014328639450209107,-0.14186191558837896,0.22643687073542648,0.006815135478973389,0.011217210431092575,0.17249512672424322,0.0776879843086142,-2.5999999999999988,38.00000000000001,0.04,0.0,-3.48,6.832,0.0,0.25,0
08244974cf39ae38,0.0851829200983047,0.1275007575750351,0.0847035720944404,0.2068742960691452,0.1978020220994949,0.4287407994270324,0.6323114633560181,0.2368841469287872,3.4466390423572744,9.471785041700295,0.1838541666666666,0.348379069141781,31.7525667587477,24.60244821092279,0.3,0.6,-0.04231783747673039,0.010860886844987533,-0.1221707239747048,0.01752299185157945,-0.2309387773275375,0.08480579708322097,0.39542731642723083,0.14978456159038342,-6.025145999343021,32.64582412553986,-0.16452490247511442,0.06405094344117117,7.15011854782491,781.1908792459589,-0.3,0.18,1
083a0283b7bc503b,0.2153207957744598,0.1004784926772117,0.2249768674373626,0.1144041270017623,0.2255605459213256,0.4347138106822967,0.3341418206691742,0.3504036068916321,6.060960177887666,7.516626013343855,0.1521353909264894,0.3703852500179352,26.944802852562773,40.06666666666667,1.0,0.6,0.1148423030972481,0.021635109001475458,0.11057274043560028,0.025738282114762673,-0.2091532647609711,0.09805428445703862,-0.016261786222457886,0.11708449917581554,-1.4556658354561893,45.557970938951634,-0.2182498590914458,0.05634870480488408,-13.121863814103897,1079.5884342926818,0.4,0.6,0
08426f06239d903c,0.240593284368515,0.1506972163915634,0.4658286571502685,0.1815840154886245,0.1667437702417373,0.1816750466823578,0.1268342435359954,0.4860437214374542,9.413913043478262,6.875822050290135,0.144927536231884,0.2107027724049,7.278840579710145,27.6,1.0,0.3,0.0898960679769516,0.036256738236839045,0.284244641661644,0.0845870380950195,-0.014931276440620478,0.030293182242659967,-0.35920947790145885,0.061646987733939576,2.538090993188127,64.72839088386175,-0.065775236173016,0.030536633681869558,-20.321159420289856,200.89600000000002,0.7,0.3,1
08489fdfb56ee19c,0.2140666246414184,0.1391717046499252,0.4398442804813385,0.3847167789936065,0.1484698206186294,0.2981979250907898,0.1976192593574524,0.1779135465621948,12.563328267975642,8.363098252868074,0.1209968186638388,0.2885201639677343,11.450053022269357,18.78083538083538,1.0,1.0,0.0748949199914932,0.029792017060001882,0.05512750148773199,0.16921547484554098,-0.1497281044721604,0.04427339244707705,0.019705712795257596,0.035159143301278555,4.200230015107568,105.06834868811518,-0.16752334530389548,0.03491002196046498,-7.330782358566024,215.0415609130774,0.0,1.0,0
08763e87e10b9709,0.1393803358078003,0.0953598544001579,0.2410627156496048,0.7223703265190125,0.3739310801029205,0.0753555819392204,0.2456258088350296,0.1069142520427703,7.28118360365752,10.2,0.3925502489397012,0.0,18.426864508121877,0.2,1.0,0.2,0.04402048140764239,0.013291288528876951,-0.48130761086940765,0.17413655261536487,0.2985754981637001,0.028177794146316812,0.1387115567922593,0.02626089963399767,-2.9188163963424794,74.2680727573067,0.3925502489397012,0.0,18.226864508121878,3.6853729016243757,0.8,0.2,1
088b47d890b389e9,0.0684518441557884,0.158235028386116,0.2860284149646759,0.2664112448692322,0.4684131741523742,0.3450105190277099,0.1771065443754196,0.2303432673215866,8.781842285265519,9.878626317013396,0.1896811628585499,0.175231296148721,42.7248227592924,35.31308777429467,0.7,0.8,-0.0897831842303276,0.010831479503073164,0.019617170095443726,0.07620118609871263,0.1234026551246643,0.1616074723337277,-0.05323672294616702,0.040795300095469715,-1.0967840317478768,86.75253831108502,0.014449866709828924,0.03323807602270033,7.411734984997729,1508.7454162400752,-0.10000000000000009,0.5599999999999999,0
089388c9f00ce9c6,0.1953703314065933,0.1373764127492904,0.3471162617206573,0.4256309568881988,0.1718185395002365,0.1223561242222786,0.2856948673725128,0.3146365582942962,11.961065573770492,6.722754491017964,0.1237704918032786,0.075,16.075,11.519311377245508,0.8,0.8,0.057993918657302884,0.026839275286277817,-0.0785146951675415,0.1477434266276178,0.049462415277957916,0.02102305056278142,-0.028941690921783392,0.08989004979243286,5.238311082752528,80.41130730342594,0.04877049180327861,0.009282786885245895,4.5556886227544915,185.17293038922153,0.0,0.6400000000000001,0
089a17e450cc98aa,0.0698251947760582,0.1192468032240867,0.1179147884249687,0.6549044847488403,0.4611921906471252,0.08879966288805,0.3510677814483642,0.1370490342378616,8.013878880603752,16.666666666666668,0.3822773022014832,0.0333333333333333,44.4,2.8000000000000003,1.0,0.6,-0.04942160844802851,0.00832643126154414,-0.5369896963238716,0.07722292375772265,0.37239252775907516,0.040953711056066,0.2140187472105026,0.04811350039952698,-8.652787786062916,133.56464801006254,0.34894396886814993,0.012742576740049427,41.6,124.32000000000001,0.4,0.6,0
08c04f18b0f58d71,0.0778427124023437,0.1853638589382171,0.208894744515419,0.3067873418331146,0.1029563620686531,0.1849467754364013,0.6103061437606812,0.3229020237922668,6.1,2.3517884214310505,0.1,0.143603701687534,12.2,10.295787292860595,0.2,1.0,-0.10752114653587341,0.01442922556111624,-0.09789259731769562,0.064086263392793,-0.0819904133677482,0.01904144717526001,0.28740411996841436,0.19706908895317807,3.748211578568949,14.345909370729407,-0.043603701687534,0.014360370168753401,1.9042127071394042,125.60860497289926,-0.8,0.2,1
08c6b88ac22717ed,0.0896592065691948,0.2122702449560165,0.5270400643348694,0.3556487560272217,0.1082770153880119,0.0946297273039817,0.2750237882137298,0.3374513387680053,5.257758620689655,11.348181818181818,0.15,0.1,10.458620689655174,9.026363636363635,0.8,1.0,-0.12261103838682172,0.019031981741005063,0.1713913083076477,0.18744114325720318,0.013647288084030207,0.010246224439456596,-0.06242755055427551,0.09280714552577149,-6.0904231974921625,59.666000783699054,0.04999999999999999,0.015,1.4322570532915382,94.40331347962383,-0.19999999999999996,0.8,0
08e7a39eb7482ebf,0.1059737876057624,0.2666046321392059,0.1434715390205383,0.3082002997398376,0.4607715606689453,0.2078548073768615,0.2897830903530121,0.2173402309417724,7.451610879452907,9.576232839099395,0.30966822443074,0.1866666666666666,33.73174976809527,13.698693025809996,1.0,1.0,-0.16063084453344348,0.02825310266103262,-0.1647287607192993,0.04421797133026571,0.25291675329208385,0.09577358398757947,0.07244285941123968,0.06298152378034415,-2.124621959646489,71.35836080800725,0.1230015577640734,0.05780473522707144,20.033056742285275,462.08088529657465,0.0,1.0,0
08ef2ed7393efd24,0.2836302518844604,0.1160503178834915,0.3412787318229675,0.1139369681477546,0.1408432573080063,0.2944296002388,0.2342477142810821,0.4755831658840179,10.847462075383657,10.809912343448032,0.0257289879931389,0.3115389884463185,7.358010349414624,37.5,1.0,0.8,0.16757993400096888,0.0329153808925664,0.22734176367521286,0.03888426399721953,-0.1535863429307937,0.04146842394552674,-0.2413354516029358,0.11140426955889189,0.037549731935625275,117.26011418377419,-0.2858100004531796,0.008015582893129966,-30.141989650585376,275.92538810304836,0.19999999999999996,0.8,1
08f7a60bd84a6b3c,0.1393193453550338,0.0486509278416633,0.4003895819187164,0.1666998416185379,0.2908857762813568,0.2734691798686981,0.1694052517414093,0.51118004322052,10.956059274001609,3.3490610802624934,0.2488859218285569,0.2107470974255426,25.872719298245613,43.16,1.0,0.5,0.09066841751337049,0.0067780154178155175,0.23368974030017847,0.06674487989156262,0.01741659641265869,0.07954829467513225,-0.3417747914791107,0.08659658390695668,7.606998193739115,36.692511707607736,0.038138824403014304,0.05245198561544886,-17.287280701754383,1116.6665649122806,0.5,0.5,1
093ebd3375591101,0.487177163362503,0.2621599435806274,0.1486230492591858,0.4853469133377075,0.101644791662693,0.1062867045402526,0.2625550627708435,0.1462063640356063,4.953859417901494,7.979999999999999,0.0307692307692307,0.06,12.097019464052432,8.459999999999999,1.0,1.0,0.2250172197818756,0.1277183376608839,-0.33672386407852173,0.07213373820878388,-0.004641912877559606,0.01080348993950818,0.1163486987352372,0.03838722108686541,-3.0261405820985043,39.53179815485392,-0.029230769230769296,0.001846153846153842,3.6370194640524325,102.34078466588356,0.0,1.0,0
095a351dd6f09f7e,0.1841250360012054,0.1418992578983307,0.3535401821136474,0.1961375772953033,0.1860894411802292,0.2029076516628265,0.2762453556060791,0.459055483341217,4.181675585973176,9.445045045045044,0.1673366834170854,0.1333333333333333,13.975406032482596,24.343543543543547,0.6,0.3,0.0422257781028747,0.026127205969074467,0.15740260481834412,0.06934251479631112,-0.016818210482597323,0.037758971509127985,-0.18281012773513788,0.126811945238515,-5.263369459071868,39.496114273281776,0.034003350083752104,0.022311557788944718,-10.36813751106095,340.21090529044125,0.3,0.18,0
0976778a6e6cf8a8,0.2318769246339798,0.102720983326435,0.3486783802509308,0.7295776009559631,0.0995987653732299,0.0717877075076103,0.3198458850383758,0.0959137380123138,8.268256061757778,4.084684684684684,0.0285714285714285,0.0,4.418316016408659,0.0666666666666666,1.0,0.3,0.1291559413075448,0.023818625709112064,-0.38089922070503235,0.25438793616868516,0.027811057865619604,0.007149967036732532,0.223932147026062,0.030677614421887416,4.183571377073094,33.7732189045133,0.0285714285714285,0.0,4.351649349741993,0.2945544010939103,0.7,0.3,0
0987b3f785e26d1c,0.0509358495473861,0.2689767181873321,0.1077872961759567,0.3268113434314728,0.7935906648635864,0.1232433766126632,0.0476862303912639,0.280968576669693,10.80831578030268,7.150395970949965,0.674497624575268,0.0643908981424035,41.400000000000006,5.6641080617495705,0.3,0.4,-0.21804086863994598,0.013700557649339619,-0.21902404725551608,0.03522611106811046,0.6703472882509233,0.09780479318607677,-0.2332823462784291,0.013398332279776475,3.6579198093527143,77.2837376082312,0.6101067264328645,0.04343150784131919,35.73589193825043,234.49407375643224,-0.10000000000000003,0.12,1
0990ac7065412e76,0.1721560806035995,0.1370506882667541,0.0861801654100418,0.2246287614107132,0.5276299715042114,0.2720605731010437,0.2140338271856308,0.3662599921226501,6.553957266692748,16.0,0.3460245828748437,0.2,40.186928042744654,49.400000000000006,1.0,0.2,0.0351053923368454,0.023594109336030105,-0.1384485960006714,0.019358543814228076,0.2555693984031677,0.14354731243272312,-0.1522261649370193,0.07839202785898979,-9.446042733307252,104.86331626708397,0.1460245828748437,0.06920491657496874,-9.213071957255352,1985.2342453115862,0.8,0.2,1
0992795fd0fa06d0,0.2978778481483459,0.1032940670847892,0.2870687842369079,0.1865312606096267,0.1448916494846344,0.1281788647174835,0.2701616585254669,0.5819957852363586,13.10855375291964,6.931908831908832,0.0453452613922281,0.0284900284900284,17.664285714285715,19.0,0.7,0.6,0.19458378106355667,0.03076901442970789,0.10053752362728122,0.05354730220538336,0.016712784767150907,0.01857204713798399,-0.3118341267108917,0.1572329465942861,6.1766449210108085,90.8672995334153,0.0168552329021997,0.0012918877889523635,-1.3357142857142854,335.62142857142857,0.09999999999999998,0.42,0
09a29fb09fe07559,0.2051045000553131,0.2614848911762237,0.4479279220104217,0.1248819902539253,0.1311473399400711,0.4189819991588592,0.2158202528953552,0.1946511268615722,6.475864942470907,6.450769943050656,0.0661087866108786,0.2724961546538562,8.040590084904842,34.30378426171529,1.0,1.0,-0.05638039112091059,0.053631727876717314,0.32304593175649643,0.05593813039096649,-0.2878346592187881,0.054948374672457494,0.021169126033782987,0.04200965542563038,0.02509499942025073,41.77431492614679,-0.20638736804297758,0.01801439014029675,-26.26319417681045,275.82266760946277,0.0,1.0,1
09ab925c4cfe0cc5,0.1597443670034408,0.0706929489970207,0.0806259140372276,0.3470976650714874,0.5652090311050415,0.1873063594102859,0.194420725107193,0.3949029743671417,6.555739366614471,11.385558354324097,0.3970978767676935,0.3511335012594458,40.15993518073511,40.13333333333333,1.0,0.3,0.08905141800642011,0.011292800389135596,-0.2664717510342598,0.027985066506576162,0.3779026716947556,0.10586724592210037,-0.20048224925994873,0.07677732262344694,-4.829818987709626,74.64075311432876,0.04596437550824767,0.13943436781213217,0.0266018474017784,1611.7520652535025,0.7,0.3,1
09afa6ce4747a1a2,0.0827079936861991,0.3219900131225586,0.146134614944458,0.3764640986919403,0.573785126209259,0.1353469789028167,0.1973722726106643,0.1661989241838455,12.230177870505711,11.71567060546382,0.3766869630879961,0.0703252032520325,28.94802890332023,10.475813008130082,1.0,0.8,-0.2392820194363595,0.026631147972359742,-0.2303294837474823,0.055014436102759134,0.43843814730644237,0.0776600833717946,0.03117334842681882,0.03280305937161308,0.5145072650418907,143.28473537707788,0.3063617598359636,0.026490587241554186,18.472215895190146,303.25413774512765,0.19999999999999996,0.8,0
09f5fb0bec3c948a,0.0874288156628608,0.2328815758228302,0.4444787800312042,0.5004414319992065,0.1931890845298767,0.0998983159661293,0.2749033570289612,0.1667787879705429,10.52151128606308,5.016806722689076,0.2147112462006079,0.0,19.26,0.4571428571428572,1.0,0.7,-0.14545276015996939,0.02036056036389076,-0.05596265196800232,0.22243559717207617,0.0932907685637474,0.019299264207572886,0.10812456905841827,0.04584804869432357,5.504704563374004,52.78438855277024,0.2147112462006079,0.0,18.802857142857146,8.80457142857143,0.30000000000000004,0.7,1
0a3df9b1918cfc2f,0.1140112876892089,0.6352772116661072,0.1298094540834427,0.0572026409208774,0.1162618994712829,0.1686365753412246,0.6399173736572266,0.1388835459947586,6.346022155085598,6.986813782511071,0.0,0.0712741668867496,35.0,36.40172847265871,0.3,0.6,-0.5212659239768983,0.072428772941663,0.07260681316256529,0.007425443590070295,-0.052374675869941684,0.01960600856950288,0.501033827662468,0.08887399399716855,-0.6407916274254726,44.33847505727267,-0.0712741668867496,0.0,-1.4017284726587107,1274.0604965430548,-0.3,0.18,0
0a4247ba4ae1cca5,0.1796614676713943,0.1767069101333618,0.2308612018823623,0.2255043387413025,0.4349983930587768,0.3014652729034424,0.1544789969921112,0.2963235080242157,8.958282067233476,4.422298431657632,0.3952221461172868,0.251336073830426,24.004095004095007,29.30909090909091,1.0,1.0,0.002954557538032504,0.031747422822236956,0.00535686314105982,0.05206020267150445,0.13353312015533442,0.13113690927602303,-0.1418445110321045,0.04577575830476466,4.535983635575844,39.61619673627329,0.1438860722868608,0.09933358249595381,-5.304995904995902,703.5382026654754,0.0,1.0,1
0a444f30cae13d8f,0.0286739487200975,0.2335121482610702,0.0898425877094268,0.2621646821498871,0.1025922074913978,0.079486109316349,0.7788913249969482,0.4248371422290802,8.842717258261935,6.915732357537162,0.3,0.0,21.566666666666663,3.777438692098092,0.6,0.5,-0.2048381995409727,0.0066957153647577315,-0.1723220944404603,0.02355355345036523,0.0231060981750488,0.008154655419666805,0.35405418276786804,0.33090196461872523,1.926984900724773,61.15386587151436,0.3,0.0,17.789227974568572,81.46676112624883,0.09999999999999998,0.3,0
0a46cb2887890502,0.1595696210861206,0.2278868854045868,0.218532845377922,0.3324138820171356,0.4691370725631714,0.0929907038807869,0.1527605503797531,0.3467085361480713,7.939417178625066,6.6,0.3912077674690067,0.0,31.529999999999998,2.0,1.0,0.2,-0.06831726431846619,0.0363638239545061,-0.11388103663921362,0.07264335148032551,0.3761463686823845,0.043625386594221105,-0.19394798576831818,0.0529633868033379,1.339417178625066,52.40015337892543,0.3912077674690067,0.0,29.529999999999998,63.059999999999995,0.8,0.2,0
0a667143584a2d96,0.26156947016716,0.5818594694137573,0.1322128027677536,0.1904171705245971,0.2922105193138122,0.1100442931056022,0.3140072226524353,0.117679089307785,10.102561929217805,5.879677419354839,0.2122704531734313,0.0,29.977928361179654,11.73516129032258,0.9,0.5,-0.32028999924659735,0.15219667312630134,-0.05820436775684351,0.025175587810162263,0.18216622620821,0.03215610003590938,0.1963281333446503,0.03695208399780547,4.222884509862966,59.399805252855785,0.2122704531734313,0.0,18.242767070857074,351.79582446817886,0.4,0.45,0
0a7517a16d2d9db6,0.1553705334663391,0.2594915330410003,0.4064733982086181,0.2876466810703277,0.3161136209964752,0.1907472014427185,0.1220424622297287,0.2621145844459533,8.342857142857143,5.911068702290076,0.3142857142857143,0.1048346055979643,18.4,18.7,0.7,1.0,-0.1041209995746612,0.04031733791857838,0.1188267171382904,0.11692072393808668,0.1253664195537567,0.06029778854300183,-0.14007212221622461,0.03198910927210629,2.4317884405670673,49.315201744820065,0.20945110868774997,0.03294801890221735,-0.3000000000000007,344.08,-0.30000000000000004,0.7,0
0a9f22de8600c762,0.1944480091333389,0.3048069179058075,0.5590341091156006,0.2777934074401855,0.1193015202879905,0.1170317083597183,0.1272163391113281,0.3003679513931274,12.536623376623377,13.23148148148148,0.0,0.0333333333333333,13.04103896103896,12.17314814814815,0.5,0.6,-0.1103589087724686,0.05926909835685334,0.2812407016754151,0.15529599004651115,0.0022698119282722057,0.013962060729215119,-0.1731516122817993,0.03821171116260301,-0.6948581048581026,165.8781000481,-0.0333333333333333,0.0,0.8678908128908116,158.7504992784993,-0.09999999999999998,0.3,0
0aa335dbc4cb3473,0.2333570271730423,0.2071692794561386,0.3555712103843689,0.5656582713127136,0.1240538209676742,0.1003393083810806,0.2870180010795593,0.1268331110477447,9.63173184357542,9.22222222222222,0.12,0.0,3.003575418994413,0.8444444444444446,0.5,0.9,0.026187747716903687,0.04834440717546573,-0.21008706092834473,0.20113179619459132,0.0237145125865936,0.012447474597926824,0.16018489003181463,0.03640338600362546,0.4095096213531999,88.82597144630662,0.12,0.0,2.1591309745499685,2.536352576039727,-0.4,0.45,1
0aad210fbaa1db6c,0.0501844808459281,0.2486191987991333,0.1231712028384208,0.149186223745346,0.1151949241757392,0.1855159997940063,0.711449384689331,0.4166786670684814,4.979033915724564,3.0823529411764707,0.1634121274409044,0.1781512605042017,21.20719424460432,16.77142857142857,0.7,0.7,-0.1984347179532052,0.012476825420065096,-0.026015020906925215,0.018375446625636043,-0.07032107561826709,0.021370501529657006,0.29477071762084966,0.2964457812990417,1.8966809745480933,15.34713983435101,-0.0147391330632973,0.029112076485270363,4.4357656731757515,355.6749434737924,0.0,0.48999999999999994,1
0aae15358d8606b9,0.1694360971450805,0.3096621632575989,0.2015329450368881,0.42568039894104,0.5000138282775879,0.1041528508067131,0.1290170699357986,0.1605044901371002,9.55889423076923,13.263157894736842,0.3651442307692307,0.0,27.4,2.4,0.8,1.0,-0.14022606611251837,0.05246794837587031,-0.2241474539041519,0.0857886244430652,0.3958609774708748,0.05207786565788908,-0.0314874202013016,0.02070781902902795,-3.7042636639676125,126.78112348178136,0.3651442307692307,0.0,25.0,65.75999999999999,-0.19999999999999996,0.8,1
0ad57af26ddc7930,0.2668885290622711,0.1444671005010604,0.2524654567241668,0.2114304453134536,0.2030767947435379,0.4956326782703399,0.2775692641735077,0.1484697461128235,5.40258985810654,8.252018082763227,0.1621353496038208,0.4117976499673755,14.287017421809711,33.18947368421052,1.0,1.0,0.12242142856121072,0.0385566119506193,0.041035011410713224,0.053378883941455034,-0.292555883526802,0.10065149567329577,0.1290995180606842,0.04121063818056392,-2.8494282246566867,44.58226920284839,-0.2496623003635547,0.06676695594349226,-18.902456262400808,474.1785887470106,0.0,1.0,1
0af90a49f0ca1879,0.2988192737102508,0.1020833626389503,0.1903588622808456,0.159697026014328,0.1145492866635322,0.3874447345733642,0.396272599697113,0.3507748246192932,5.981578947368421,7.533333333333333,0.0,0.4666666666666666,16.286184210526315,25.133333333333336,0.8,0.3,0.1967359110713005,0.030504476281671283,0.030661836266517584,0.030399744181722078,-0.272895447909832,0.04438151796692044,0.04549777507781977,0.13900245166018618,-1.5517543859649123,45.06122807017544,-0.4666666666666666,0.0,-8.847149122807021,409.3260964912281,0.5,0.24,0
0b21755eb0897396,0.2484850436449051,0.2567406594753265,0.339048683643341,0.2188024222850799,0.1865086108446121,0.2800185680389404,0.2259577065706253,0.2444383651018142,11.386825913861744,13.530276134122287,0.1777777777777777,0.1814595660749507,9.996959826275788,24.003254437869817,0.9,1.0,-0.008255615830421392,0.06379621397514822,0.12024626135826111,0.07418467325373077,-0.09350995719432828,0.05222587413564026,-0.01848065853118888,0.055232732376279105,-2.1434502202605437,154.06689890572875,-0.003681788297173,0.032259478413324556,-14.00629461159403,239.95957031526058,-0.09999999999999998,0.9,0
0b2ae6c368369d1b,0.3724976480007171,0.2284206748008728,0.3443145155906677,0.2503065764904022,0.1350445300340652,0.3600598573684692,0.1481433808803558,0.1612128615379333,21.971448338290443,12.66661188669016,0.0305263157894736,0.1371357413933315,12.806256950730637,34.272465437788014,1.0,0.8,0.1440769731998443,0.08508616411806179,0.0940079391002655,0.08618418763345126,-0.225015327334404,0.048624114222457465,-0.013069480657577487,0.023882618349626114,9.304836451600284,278.3038086895885,-0.10660942560385792,0.004186248947796424,-21.46620848705738,438.90199873134827,0.19999999999999996,0.8,1
0b2c3c4306620d6d,0.1062759160995483,0.347861111164093,0.090665727853775,0.2126917988061905,0.5549744963645935,0.2817193269729614,0.2480839043855667,0.1577277332544326,6.273192008850796,13.568228251675452,0.2645701133054414,0.1972477064220183,60.0,19.72624113475177,0.2,0.6,-0.24158519506454473,0.036969258264370794,-0.1220260709524155,0.01928385674729193,0.2732551693916321,0.1563470416029915,0.09035617113113412,0.03912971189564483,-7.295036242824655,85.11610104267406,0.06732240688342309,0.05218584803731182,40.273758865248226,1183.5744680851062,-0.39999999999999997,0.12,1
0b47788da6de735e,0.150735318660736,0.1727490723133087,0.3323218822479248,0.3710804283618927,0.2115215063095092,0.1023964062333107,0.3054212629795074,0.3537740707397461,9.889921155794388,4.866666666666666,0.132991234638594,0.0666666666666666,24.403086816720258,14.333333333333334,1.0,0.3,-0.022013753652572687,0.026039386463493113,-0.038758546113967896,0.1233181464185904,0.1091251000761985,0.021659042087150297,-0.0483528077602387,0.10805012349473485,5.023254489127722,48.13094962486602,0.0663245679719274,0.00886608230923959,10.069753483386924,349.7775777063237,0.7,0.3,1
0b557aeb2169b59f,0.2366591840982437,0.1544477939605713,0.2505722939968109,0.3507060706615448,0.2189954668283462,0.1685222387313842,0.2937730252742767,0.3263238966464996,7.371428571428571,8.52,0.1714285714285714,0.16,6.142857142857143,13.04,0.7,0.5,0.08221139013767242,0.036551488904482454,-0.10013377666473389,0.08787722464427095,0.050473228096962,0.036905606341937486,-0.0325508713722229,0.09586515833713258,-1.1485714285714286,62.80457142857142,0.011428571428571399,0.027428571428571424,-6.897142857142856,80.10285714285715,0.19999999999999996,0.35,1
0b633295d9e017a3,0.0899754539132118,0.1259045600891113,0.216334655880928,0.0645332112908363,0.1957228183746338,0.2972274422645569,0.4979670643806457,0.5123347640037537,7.710896355268431,5.731007156041888,0.2216765335343872,0.2954203513184633,24.150023980815345,46.18144059510597,1.0,0.8,-0.035929106175899506,0.01132831994376104,0.1518014445900917,0.013960770057494291,-0.1015046238899231,0.05817419269830282,-0.014367699623107966,0.2551258384111001,1.9798891992265428,44.19120219154069,-0.07374381778407607,0.06548775941578777,-22.031416614290624,1115.2828978404084,0.19999999999999996,0.8,0
0b88d0c76f9cd7e4,0.1436101198196411,0.1519106328487396,0.3025090396404266,0.3484585285186767,0.3277561664581299,0.2332718819379806,0.2261247783899307,0.2663590013980865,5.48583171226794,3.1304020100502514,0.1948011375650188,0.2510050251256281,21.7125,16.95,1.0,0.4,-0.008300513029098483,0.021815904185285003,-0.04594948887825012,0.10541185481670108,0.09448428452014929,0.076456297766466,-0.040234223008155795,0.06023037016330555,2.3554297022176884,17.172858618880973,-0.05620388756060932,0.04889606442900848,4.762499999999999,368.02687499999996,0.6,0.4,1
0b89c88d506da083,0.0483983866870403,0.0886131003499031,0.1523015648126602,0.2778365612030029,0.3883116543292999,0.253462940454483,0.410988450050354,0.3800873756408691,7.266666666666666,1.9333333333333331,0.6,0.2481481481481481,41.13333333333333,31.7,0.3,0.2,-0.040214713662862805,0.004288731096272117,-0.12553499639034268,0.042314943033385774,0.13484871387481695,0.09842261371904912,0.03090107440948492,0.15621152139834746,5.333333333333332,14.048888888888886,0.35185185185185186,0.14888888888888885,9.433333333333334,1303.9266666666667,0.09999999999999998,0.06,1
0b9cd718d7e329e8,0.1781462877988815,0.1230773776769638,0.1794941127300262,0.57907634973526,0.4709399342536926,0.1189368590712547,0.1714197099208831,0.1789094060659408,12.248739305307014,11.800738007380073,0.2618874161321661,0.0526315789473684,28.923809523809524,8.79654301806176,1.0,1.0,0.0550689101219177,0.021925777945172028,-0.3995822370052338,0.10394079559867284,0.3520030751824379,0.056012116591357394,-0.007489696145057706,0.030668598489941055,0.44800129792694143,144.54416346262667,0.2092558371847977,0.01378354821748242,20.127266505747762,254.4295347224149,0.0,1.0,0
0bc7e4852f75a06d,0.1661320179700851,0.2440478801727295,0.1888571977615356,0.2469291538000106,0.2696189284324646,0.3183657824993133,0.3753919005393982,0.1906571239233017,8.988765132170506,6.277777777777779,0.2201148634628778,0.1888888888888888,31.99931972789116,19.466666666666665,0.7,0.6,-0.0779158622026444,0.04054416681441707,-0.05807195603847501,0.04663434803229724,-0.0487468540668487,0.08583744112702794,0.1847347766160965,0.07157114010094379,2.710987354392728,56.42946999640374,0.031225974573989013,0.04157725198743246,12.532653061224494,622.9200907029478,0.09999999999999998,0.42,0
0be6540982a5b0cd,0.0594950728118419,0.1497782617807388,0.145422875881195,0.2097894698381424,0.245807871222496,0.4360115230083465,0.5492741465568542,0.2044207155704498,7.601801801801803,6.670199634257848,0.3267267267267267,0.4406430966168851,27.41741741741741,28.425,0.3,0.8,-0.0902831889688969,0.008911068590276173,-0.06436659395694738,0.030508188033453888,-0.1902036517858505,0.10717506429915999,0.3448534309864044,0.11228301408350026,0.9316021675439545,50.70553559807904,-0.11391636989015841,0.14396987661236366,-1.0075825825825895,779.3400900900899,-0.5,0.24,1
0bf8bb9b4ef329f9,0.2355125695466995,0.2206066995859146,0.0687667950987815,0.2429249584674835,0.3027315139770508,0.2419387698173523,0.3929890990257263,0.2945295572280884,6.874904196988719,9.700127409937975,0.2506042213853259,0.0662251655629139,45.39,31.445947850599016,0.4,0.3,0.014905869960784884,0.05195565067869556,-0.174158163368702,0.016705170843313445,0.060792744159698486,0.07324249007655226,0.09845954179763794,0.11574690533151255,-2.8252232129492567,66.6874466419079,0.18437905582241199,0.016596306052008337,13.944052149400985,1427.3315729386893,0.10000000000000003,0.12,1
0bfb221a0944f8e0,0.1387364119291305,0.1599598228931427,0.2236557900905609,0.3526711165904999,0.1386260837316513,0.1890731751918792,0.498981773853302,0.2982958555221557,1.7398790764992875,13.770292207792208,0.0305343511450381,0.0,6.727884772509746,35.710227272727266,0.3,0.2,-0.0212234109640122,0.022192251881013803,-0.12901532649993896,0.07887693722316858,-0.05044709146022788,0.026210473815558622,0.2006859183311463,0.14884419512153355,-12.03041313129292,23.95864328961884,0.0305343511450381,0.0,-28.98234250021752,240.25429429104403,0.09999999999999998,0.06,0
0c27552ea7bc8c8a,0.0868480801582336,0.124020367860794,0.4958703517913818,0.2866549789905548,0.0865291059017181,0.4062090814113617,0.3307523727416992,0.1831156611442566,16.4,9.1,0.1,0.2,22.0,25.0,0.2,0.2,-0.0371722877025604,0.010770930849227856,0.20921537280082697,0.14214370527479755,-0.3196799755096436,0.03514890862368335,0.14763671159744263,0.060565939409627845,7.299999999999999,149.23999999999998,-0.1,0.020000000000000004,-3.0,550.0,0.0,0.04000000000000001,0
0c2e3988793b418c,0.5078208446502686,0.1608217060565948,0.1268959641456604,0.2484446913003921,0.1187118291854858,0.2108123153448104,0.2465714216232299,0.3799213171005249,1.2999999999999998,1.991293349130616,0.1,0.1974550898203592,15.2,12.831145729930514,0.2,0.8,0.34699913859367376,0.08166861460775718,-0.1215487271547317,0.03152662863943422,-0.0921004861593246,0.0250259155694099,-0.133349895477295,0.09367773926244635,-0.6912933491306161,2.5886813538698004,-0.09745508982035919,0.01974550898203592,2.3688542700694857,195.0334150949438,-0.6000000000000001,0.16000000000000003,1
0c3622569cd8062a,0.0636870637536048,0.1895182430744171,0.0836150646209716,0.4343638718128204,0.6280031204223633,0.1812836825847625,0.2246948182582855,0.194834217429161,6.913924903771841,18.416666666666668,0.6134684144760177,0.1833333333333333,41.18181818181819,16.475,1.0,0.6,-0.12583117932081228,0.012069860429151574,-0.35074880719184875,0.0363193632106444,0.4467194378376008,0.11384671834488808,0.029860600829124506,0.04377823907574061,-11.502741762894827,127.33145031113142,0.43013508114268445,0.11246920932060323,24.706818181818186,678.4704545454547,0.4,0.6,1
0c6e3c1f03cd4061,0.1716084629297256,0.2777605056762695,0.4444052577018738,0.3620593249797821,0.1741183400154113,0.1065268442034721,0.2098679840564727,0.253653347492218,9.2,14.736623376623374,0.1,0.02,7.800000000000001,13.494805194805195,0.2,1.0,-0.10615204274654388,0.04766605344168792,0.08234593272209167,0.16090106762100653,0.0675914958119392,0.0185482772797889,-0.04378536343574532,0.05323371668736774,-5.536623376623375,135.57693506493504,0.08,0.002,-5.694805194805195,105.25948051948053,-0.8,0.2,0
0c703bf17c04fee4,0.1444280743598938,0.3395147621631622,0.4370515346527099,0.1967952102422714,0.2459080666303634,0.3035776019096374,0.1726122945547104,0.1601124256849289,3.176096591119824,6.7,0.1704382400174474,0.2,26.225,24.0,0.8,0.2,-0.19508668780326838,0.049035463315982845,0.2402563244104385,0.0860096486486874,-0.05766953527927399,0.07465218115788105,0.012499868869781494,0.027637373184196123,-3.523903408880176,21.279847160502822,-0.029561759982552616,0.03408764800348948,2.2250000000000014,629.4000000000001,0.6000000000000001,0.16000000000000003,1
0c80eef2f4570543,0.2932952046394348,0.1864585131406784,0.3319375514984131,0.245906189084053,0.2283774018287658,0.2608940899372101,0.1463899165391922,0.3067412376403808,8.815629799291932,5.748370175390198,0.1069490509490509,0.1975576533722428,17.658979783103497,18.71301919556953,1.0,1.0,0.10683669149875641,0.05468738776836002,0.08603136241436007,0.08162549830286635,-0.03251668810844427,0.059582314412340395,-0.1603513211011886,0.04490382417730387,3.067259623901734,50.67550341553082,-0.0906086024231919,0.02112860353588293,-1.0540394124660324,330.45282765538997,0.0,1.0,1
0ccd16201ac41ef8,0.0779890418052673,0.1332668960094452,0.3370207548141479,0.17314213514328,0.1466396152973175,0.1540291458368301,0.4383505880832672,0.5395618081092834,6.019337748344371,9.62196856691718,0.1989403973509934,0.206670812369269,18.92,16.23809146927469,0.5,0.7,-0.055277854204177884,0.010393357524138832,0.1638786196708679,0.05835249307612143,-0.0073895305395126065,0.022586774690087182,-0.10121122002601624,0.23651723589197537,-3.60263081857281,57.917878608227575,-0.0077304150182756215,0.04111517353359498,2.6819085307253125,307.22469059867717,-0.19999999999999996,0.35,0
0ccd2593c88209e4,0.1109762489795684,0.029712539166212,0.3335242867469787,0.0276000257581472,0.2852327525615692,0.8925973176956177,0.2702666819095611,0.0500901453197002,17.180089200382284,12.1178304691486,0.386046511627907,0.9214254403131024,28.46642946095001,51.78,1.0,1.0,0.0812637098133564,0.0032973861443247204,0.3059242609888315,0.009205278905184286,-0.6073645651340485,0.2545979898553945,0.22017653658986092,0.013537697371923105,5.062258731233683,208.18540837508326,-0.5353789286851953,0.3557130769580814,-23.31357053904999,1473.9917174879915,0.0,1.0,0
0cdca4c22b8d3ab5,0.1353984326124191,0.0381394140422344,0.1987290680408477,0.065726600587368,0.2547812163829803,0.4966616928577423,0.4110913276672363,0.3994723856449127,7.589883692853043,7.436960672004719,0.1920668067278269,0.5478534730335872,33.20727031589101,40.888888888888886,1.0,0.9,0.09725901857018471,0.005164016882074626,0.1330024674534797,0.013061786080220674,-0.24188047647476202,0.12654007023712574,0.011618942022323553,0.16421963338116538,0.15292302084832343,56.445666528838025,-0.35578666630576034,0.10522446712031072,-7.681618572997877,1357.8083862497656,0.09999999999999998,0.9,0
0cf7a4593fd44e59,0.2351477444171905,0.088257797062397,0.3135555684566498,0.2066889852285385,0.1884600073099136,0.4104349315166473,0.2628366649150848,0.2946183085441589,5.500277925293093,10.48319378486776,0.1173126292636485,0.2717864577736332,13.751511885014011,40.06496481371402,1.0,1.0,0.1468899473547935,0.020753621906452798,0.10686658322811127,0.06480848225706248,-0.22197492420673368,0.07735057019387123,-0.0317816436290741,0.07743649364067015,-4.982915859574667,57.6604793614779,-0.1544738285099847,0.03188398395967849,-26.31345292870001,550.9538398084566,0.0,1.0,0
0d077813b6164fe1,0.1681995689868927,0.0885718539357185,0.1991236358880996,0.1032847240567207,0.3333189487457275,0.4822510778903961,0.2993578612804413,0.3258923590183258,8.139792447851848,7.674632864411616,0.2557102913150977,0.3946662534082038,29.91463702982612,51.575,1.0,0.8,0.0796277150511742,0.014897747656357867,0.09583891183137888,0.020566429785873294,-0.14893212914466863,0.16074342231392078,-0.02653449773788452,0.09755843960336374,0.465159583440232,62.46991862977327,-0.13895596209310612,0.10092022263124997,-21.660362970173882,1542.8474048132823,0.19999999999999996,0.8,0
0d1d7cfb2a48d5ec,0.2380654215812683,0.076178453862667,0.3429352641105652,0.1507521271705627,0.1200540736317634,0.4354189932346344,0.2989453077316284,0.3376504778861999,7.7200000000000015,7.048139360639359,0.04,0.4627247752247753,8.84,36.410389610389615,0.5,1.0,0.1618869677186013,0.018135455734225016,0.1921831369400025,0.051698220546466424,-0.315364919602871,0.05227382387445909,-0.03870517015457148,0.10093902601742143,0.6718606393606423,54.41163586413587,-0.4227247752247753,0.018508991008991012,-27.570389610389615,321.8678441558442,-0.5,0.5,1
0d33d43bee65d98f,0.0870540812611579,0.4387165904045105,0.1873789131641388,0.1033682078123092,0.2062703371047973,0.095300443470478,0.5192967057228088,0.3626147508621216,5.683113858661134,1.534622823984526,0.1599610450099504,0.0,27.33333333333333,11.779497098646036,0.6,0.2,-0.3516625091433526,0.03819206971169239,0.0840107053518296,0.019369022435595337,0.1109698936343193,0.019657654600892176,0.15668195486068726,0.1883046455691968,4.148491034676608,8.721436238804147,0.1599610450099504,0.0,15.553836234687292,321.97292069632493,0.39999999999999997,0.12,0
0d6d212fcdf47f2e,0.2135633826255798,0.0935192331671714,0.4042212069034576,0.7325649261474609,0.1535244882106781,0.0684718266129493,0.228690892457962,0.1054439768195152,12.323740556863877,9.4,0.0778220580129017,0.0,21.883333333333336,0.5333333333333333,1.0,0.6,0.12004414945840841,0.019972283775731438,-0.32834371924400335,0.2961182785824689,0.0850526615977288,0.01051210213760333,0.12324691563844681,0.02411407716317159,2.9237405568638763,115.84316123452045,0.0778220580129017,0.0,21.35,11.671111111111113,0.4,0.6,1
