fight_id,muay_thai_A,muay_thai_B,boxing_A,boxing_B,wrestling_A,wrestling_B,grappling_A,grappling_B,pace_A,pace_B,td_success_A,td_success_B,ctrl_share_A,ctrl_share_B,n_fights_norm_A,n_fights_norm_B,muay_thai_diff,muay_thai_inter,boxing_diff,boxing_inter,wrestling_diff,wrestling_inter,grappling_diff,grappling_inter,pace_diff,pace_inter,td_success_diff,td_success_inter,ctrl_share_diff,ctrl_share_inter,n_fights_norm_diff,n_fights_norm_inter,y
0005e00b07cee542,0.3521961271762848,0.1808868646621704,0.2930644750595093,0.5315638184547424,0.2077360898256302,0.1088903844356536,0.1470033675432205,0.178658902645111,8.042612164782348,16.775000000000002,0.0702428006775832,0.05,24.181818181818183,2.7,1.0,0.8,0.17130926251411438,0.06370765319107718,-0.23849934339523315,0.15578247141606738,0.09884570538997658,0.02262046268227234,-0.03165553510189051,0.0262634603304077,-8.732387835217654,134.9148190642239,0.020242800677583203,0.0035121400338791603,21.481818181818184,65.2909090909091,0.19999999999999996,0.8,1
00414fc5519233b4,0.0853427052497863,0.2180669903755188,0.2581039071083069,0.1618247181177139,0.1675473600625991,0.2906811535358429,0.4890061020851135,0.3294271528720855,6.050000000000001,3.8,0.1333333333333333,0.2,17.933333333333334,19.68,1.0,0.5,-0.1327242851257325,0.018610426884325886,0.09627918899059298,0.041767592012882375,-0.1231337934732438,0.048702859894881524,0.159578949213028,0.16109188794697535,2.250000000000001,22.990000000000002,-0.06666666666666671,0.02666666666666666,-1.7466666666666661,352.928,0.5,0.5,0
00494c77d2a88f8c,0.2339681982994079,0.2246217876672744,0.2114022672176361,0.5129671692848206,0.2256755977869033,0.1089001521468162,0.3289538919925689,0.1535109430551529,6.090493138055657,14.2,0.1497681888457406,0.15,22.48888888888889,14.9,0.9,0.4,0.009346410632133512,0.05255435495930435,-0.30156490206718445,0.10844242259502401,0.1167754456400871,0.024576106934817467,0.17544294893741602,0.05049802218144216,-8.109506861944343,86.48500256039033,-0.00023181115425938148,0.02246522832686109,7.58888888888889,335.0844444444445,0.5,0.36000000000000004,1
00742aea8da72a35,0.275899738073349,0.1995885223150253,0.4047946035861969,0.1570130884647369,0.1801456809043884,0.1661575436592102,0.1391600221395492,0.4772408306598663,10.78526315789474,2.9,0.1052631578947368,0.0,13.04,2.7,0.5,0.2,0.0763112157583237,0.05506642102916225,0.24778151512146,0.06355805090292764,0.013988137245178195,0.029932563839889067,-0.3380808085203171,0.06641284456052385,7.885263157894739,31.277263157894744,0.1052631578947368,0.0,10.34,35.208,0.3,0.1,1
007e8e0d4a39d82c,0.1972115337848663,0.1668716818094253,0.5236015319824219,0.4942764639854431,0.095836341381073,0.1525754481554031,0.1833505779504776,0.1862763911485672,14.985714285714286,11.565255797271458,0.0428571428571428,0.0894647282651198,1.7285714285714284,16.040000000000003,1.0,1.0,0.030339851975441007,0.03290902031489694,0.02932506799697876,0.2588039137656324,-0.05673910677433011,0.014622272735791416,-0.0029258131980895996,0.034153883975619026,3.4204584884428275,173.31361901911086,-0.04660758540797699,0.0038342026399337007,-14.311428571428575,27.726285714285716,0.0,1.0,1
0096879f5708526b,0.3813724815845489,0.2768195867538452,0.3097431361675262,0.3336286842823028,0.1794166266918182,0.2625260949134826,0.1294678002595901,0.127025619149208,10.467204301075268,11.514285714285712,0.0666666666666666,0.0857142857142857,17.466666666666665,27.000000000000004,0.6,0.7,0.10455289483070368,0.10557137275152327,-0.02388554811477661,0.10333919498504592,-0.0831094682216644,0.04710154636795315,0.00244218111038208,0.016445727487860426,-1.047081413210444,120.52238095238093,-0.019047619047619105,0.005714285714285707,-9.533333333333339,471.6,-0.09999999999999998,0.42,1
009feda296ae589c,0.0890786275267601,0.1688339412212371,0.3561877906322479,0.1423830091953277,0.4195263981819153,0.3605446815490722,0.1352071017026901,0.328238308429718,15.440625,9.441698841698845,0.38515625,0.305019305019305,28.25,37.08571428571428,0.8,0.7,-0.079755313694477,0.015039495763921489,0.21380478143692022,0.050715089468854814,0.05898171663284307,0.1512580116339279,-0.19303120672702792,0.044380150350575846,5.998926158301156,145.78573117760624,0.08013694498069496,0.11748009169884169,-8.835714285714282,1047.6714285714284,0.10000000000000009,0.5599999999999999,0
00b1e95f6aea7027,0.2384299337863922,0.2050907611846923,0.4659470021724701,0.3260530829429626,0.1427396535873413,0.1685210764408111,0.1528833955526352,0.3003350794315338,12.6,9.526469638242892,0.0,0.0936854005167958,1.36,19.73333333333333,0.5,0.9,0.03333917260169991,0.04889977660946696,0.1398939192295075,0.15192345654636516,-0.025781422853469793,0.024054640073327242,-0.14745168387889862,0.045916246747063294,3.0735303617571077,120.03351744186044,-0.0936854005167958,0.0,-18.37333333333333,26.837333333333333,-0.4,0.45,0
00b7497b02b3b2bb,0.071082979440689,0.175006553530693,0.1717466413974762,0.3460239768028259,0.1774267554283142,0.3433820903301239,0.5797435641288757,0.1355873048305511,4.033889816360602,9.025,0.1667779632721202,0.275,27.933333333333334,19.700000000000003,0.6,0.8,-0.103923574090004,0.01243998724660809,-0.17427733540534973,0.059428455858883567,-0.1659553349018097,0.06092517015946619,0.44415625929832464,0.07860586735309202,-4.991110183639399,36.40585559265443,-0.10822203672787983,0.045863939899833055,8.23333333333333,550.2866666666667,-0.20000000000000007,0.48,1
00b801e7e1679f2f,0.2663655579090118,0.1885372251272201,0.2767620086669922,0.2463171184062957,0.1534910202026367,0.1959815621376037,0.303381472826004,0.3691640496253967,4.591176470588235,2.098230088495576,0.1150735294117647,0.1561946902654867,12.7375,19.0,1.0,0.4,0.07782833278179169,0.050219823157628934,0.030444890260696494,0.06817122045919174,-0.04249054193496701,0.030081409913407228,-0.0657825767993927,0.11199753308976486,2.492946382092659,9.633344612181158,-0.041121160853722014,0.017973874284226962,-6.262499999999999,242.01250000000002,0.6,0.4,0
00bbcd4a6d647fdf,0.1870180517435073,0.079066127538681,0.40402951836586,0.2540755271911621,0.1413147896528244,0.2043004333972931,0.2676376700401306,0.4625579118728637,7.08,3.0260355029585804,0.08,0.3436686390532544,8.88,22.28,1.0,0.5,0.1079519242048263,0.014786793131187791,0.14995399117469788,0.10265401287959719,-0.06298564374446869,0.028870672771519335,-0.1949202418327331,0.12379792179228132,4.05396449704142,21.42433136094675,-0.2636686390532544,0.027493491124260354,-13.4,197.84640000000002,0.5,0.5,1
00be3852000f8fe9,0.5669282674789429,0.0801883339881897,0.1442476511001587,0.1281864792108535,0.1622273027896881,0.5831380486488342,0.1265967637300491,0.2084871232509613,6.324531445231153,10.65084564819394,0.0857142857142857,0.4897272861028369,19.142857142857142,42.075,0.7,0.8,0.4867399334907532,0.045461033259947214,0.016061171889305198,0.018490598528964942,-0.4209107458591461,0.0946009127863423,-0.0818903595209122,0.026393795082959574,-4.326314202962787,67.36160822030595,-0.4040130003885512,0.041976624523100296,-22.93214285714286,805.4357142857143,-0.10000000000000009,0.5599999999999999,1
00c6a2ef07ca51da,0.0699122846126556,0.1844404190778732,0.1252536922693252,0.3666366934776306,0.6917452812194824,0.2434365004301071,0.113088734447956,0.2054863423109054,9.992744530774242,9.025974025974026,0.4589103156872159,0.2662337662337662,47.675,17.214285714285715,1.0,1.0,-0.1145281344652176,0.012894651072649744,-0.24138300120830541,0.045922599579490055,0.4483087807893753,0.16839605044911107,-0.0923976078629494,0.023238190398279766,0.9667705048002162,90.19425258296232,0.1926765494534497,0.1221774217089341,30.460714285714282,820.6910714285714,0.0,1.0,0
00ee51bba08b7a08,0.047497671097517,0.1309555768966674,0.1609617173671722,0.2702592313289642,0.5197277069091797,0.4271881878376007,0.2718128561973572,0.1715970486402511,8.720737543057052,10.729106628242077,0.3860240035164112,0.3546829971181556,49.65714285714286,32.675,0.7,0.8,-0.0834579057991504,0.006220084919823504,-0.10929751396179196,0.04350139000904195,0.09253951907157898,0.22202153728352414,0.10021580755710607,0.04664228390594348,-2.0083690851850253,93.56572297637294,0.0313410063982556,0.13691615052675016,16.98214285714286,1622.5471428571427,-0.10000000000000009,0.5599999999999999,0
00f4b6184f6315d0,0.2133933156728744,0.1042238995432853,0.2874189913272857,0.3540977537631988,0.1931299269199371,0.1819395720958709,0.3060577511787414,0.3597387671470642,8.459999999999999,8.072370766488413,0.08,0.1868092691622103,9.06,31.33333333333333,1.0,0.3,0.1091694161295891,0.02224068349589823,-0.06667876243591309,0.10177441921787618,0.011190354824066218,0.03513797626272017,-0.05368101596832281,0.11010083808484337,0.3876292335115856,68.29225668449197,-0.1068092691622103,0.014944741532976825,-22.273333333333326,283.88,0.7,0.3,0
00fbeda449926c13,0.1515099257230758,0.0612171776592731,0.430613249540329,0.1593060791492462,0.2682288587093353,0.5440393090248108,0.1496479511260986,0.2354374229907989,2.4117117117117117,6.617705570291777,0.1801801801801802,0.3093501326259947,30.1,60.0,0.2,0.2,0.09029274806380272,0.009275010040132804,0.27130717039108276,0.06859930841398575,-0.27581045031547546,0.1459270429527404,-0.08578947186470029,0.03523272796898168,-4.205993858580065,15.959998028532512,-0.1291699524458145,0.05573876263531437,-29.9,1806.0,0.0,0.04000000000000001,1
01100a90b584215d,0.0906692892313003,0.2041931599378585,0.5889277458190918,0.4334352016448974,0.1292745023965835,0.1635796129703521,0.1911284625530243,0.1987919509410858,11.55,5.75,0.1,0.15,15.95,6.5,0.4,0.4,-0.1135238707065582,0.018514048677458855,0.1554925441741944,0.2552620162633729,-0.03430511057376859,0.021146673068967982,-0.007663488388061496,0.037994799951285955,5.800000000000001,66.41250000000001,-0.04999999999999999,0.015,9.45,103.675,0.0,0.16000000000000003,1
0111e6a64b5184c6,0.0161049347370862,0.1624038368463516,0.0442482009530067,0.2438672631978988,0.0570589713752269,0.1700811386108398,0.8825879096984863,0.4236477613449096,8.885423728813558,8.48,0.2277966101694915,0.1333333333333333,32.2,20.90666666666667,0.5,1.0,-0.14629890210926538,0.0026155031934628876,-0.19961906224489212,0.010790687667840403,-0.1130221672356129,0.009704654819461906,0.4589401483535767,0.37390639213384697,0.4054237288135578,75.34839322033898,0.09446327683615818,0.03037288135593219,11.293333333333333,673.1946666666669,-0.5,0.5,1
0133019a4f1055ee,0.0986678600311279,0.0179705470800399,0.1464790105819702,0.0286920350044965,0.5226514935493469,0.10882518440485,0.2322016358375549,0.8445122838020325,6.047091100012705,4.133394263217099,0.4663402695736877,0.3475417135358081,33.92941176470588,49.333333333333336,1.0,0.6,0.08069731295108801,0.0017731154239761712,0.11778697557747368,0.004202780899041902,0.4138263091444969,0.05687764516497795,-0.6123106479644775,0.19609713378374136,1.913696836795606,24.99501166194369,0.11879855603787959,0.16207269637839009,-15.403921568627453,1673.850980392157,0.4,0.6,1
01432891260084a4,0.1280861794948578,0.283572643995285,0.5456674098968506,0.4097062647342682,0.1761830896139145,0.1122995615005493,0.1500632613897323,0.1944215297698974,12.990000000000002,13.814939024390243,0.16,0.0707317073170731,15.6,9.575,1.0,0.8,-0.1554864645004272,0.03632173657861148,0.1359611451625824,0.2235633562960615,0.06388352811336519,0.01978528370745458,-0.0443582683801651,0.029175528841651734,-0.8249390243902415,179.4560579268293,0.08926829268292691,0.011317073170731695,6.025,149.36999999999998,0.19999999999999996,0.8,1
01468f766dd7385c,0.2385188788175583,0.1460250616073608,0.192850574851036,0.1268448233604431,0.2843351066112518,0.5995935201644897,0.2842954397201538,0.1275365650653839,4.327272727272728,7.066793742132711,0.2909090909090909,0.255364143139723,15.672727272727276,37.84,1.0,0.5,0.09249381721019748,0.03482973397385258,0.0660057514905929,0.024462097101939567,-0.31525841355323797,0.17048548747938594,0.1567588746547699,0.036258063845661326,-2.7395210148599833,30.579943829592466,0.035544947769367896,0.07428775073155577,-22.167272727272728,593.0560000000002,0.5,0.5,0
0149e875b31e57f8,0.2182821482419967,0.2390224635601043,0.5070666670799255,0.1431022137403488,0.1250637620687484,0.2374416887760162,0.1495873481035232,0.3804336786270141,6.245075528700906,4.98,0.0362537764350453,0.16,10.580000000000002,13.24,1.0,1.0,-0.020740315318107577,0.05217433682399394,0.3639644533395767,0.07256236257307778,-0.11237792670726782,0.029695350870285495,-0.2308463305234909,0.056908065115083034,1.2650755287009057,31.100476132930513,-0.12374622356495471,0.005800604229607248,-2.6599999999999984,140.07920000000001,0.0,1.0,1
014f1da2083ca174,0.145704373717308,0.2258975207805633,0.5013374090194702,0.1778392195701599,0.1660626083612442,0.1279992759227752,0.1868956238031387,0.4682640731334686,10.487230209765654,7.993959484346224,0.1204605209699699,0.1177163904235727,17.2375,15.08,1.0,1.0,-0.08019314706325531,0.03291425678962454,0.3234981894493103,0.08915745356134863,0.03806333243846899,0.021255893628086654,-0.2813684493303299,0.08751650605287817,2.49327072541943,83.83449339987838,0.0027441305463972027,0.014180177717127943,2.1575000000000006,259.9415,0.0,1.0,1
014f7dc96c90c199,0.0971927642822265,0.1488382369279861,0.1916425079107284,0.1984483301639557,0.4218802452087402,0.2012092173099517,0.2892845273017883,0.4515042603015899,5.401591814915946,7.120000000000001,0.2461034564764914,0.12,29.86315789473684,19.32,1.0,0.5,-0.051645472645759596,0.01446599967792393,-0.006805822253227289,0.038031135683316716,0.22067102789878848,0.08488619393698112,-0.16221973299980164,0.13061319651608902,-1.718408185084055,38.45933372220154,0.1261034564764914,0.029532414777178967,10.54315789473684,576.9562105263158,0.5,0.5,0
01619207a811ef01,0.1915781199932098,0.2303737699985504,0.4839081764221191,0.2552163600921631,0.1288965344429016,0.1876409202814102,0.1956172883510589,0.3267689645290375,8.16,7.4135516657255796,0.04,0.1534726143421795,9.56,16.857142857142858,0.5,0.7,-0.038795650005340576,0.0441345737520704,0.228691816329956,0.12350128340528953,-0.05874438583850858,0.024186264343950544,-0.13115167617797857,0.06392165875845367,0.7464483342744206,60.49458159232073,-0.11347261434217948,0.00613890457368718,-7.297142857142857,161.15428571428572,-0.19999999999999996,0.35,0
0165bd3c26f0c076,0.2929023802280426,0.3714229762554168,0.4508479237556457,0.379345566034317,0.1192364022135734,0.1037795096635818,0.1370133608579635,0.1454518884420395,12.2,1.6,0.0,0.0,8.8,7.1000000000000005,0.2,0.2,-0.07852059602737421,0.10879067381659534,0.07150235772132868,0.171027160832482,0.015456892549991594,0.012374295355774268,-0.008438527584075983,0.01992885207858141,10.6,19.52,0.0,0.0,1.7000000000000002,62.48000000000001,0.0,0.04000000000000001,1
017a825c7820d12e,0.3471508026123047,0.2058066576719284,0.2729839384555816,0.1745905429124832,0.213535651564598,0.2529235184192657,0.1663296222686767,0.3666792511940002,12.56788086188473,9.577777777777776,0.1621376689074948,0.2,16.507692307692306,26.022222222222226,1.0,0.9,0.14134414494037628,0.07144594639376578,0.09839339554309842,0.047660414021347894,-0.03938786685466769,0.0540081883016685,-0.2003496289253235,0.060989621344859274,2.990103084106954,120.37237003271817,-0.037862331092505225,0.03242753378149896,-9.51452991452992,429.5668376068376,0.09999999999999998,0.9,1
017e0b7e864b0aa3,0.2764910757541656,0.1578992456197738,0.1121223270893096,0.5063347220420837,0.3362439274787903,0.1203922107815742,0.2751427292823791,0.2153738886117935,10.162217029515482,18.72,0.2137584081846377,0.08,34.760000000000005,4.159999999999999,1.0,0.5,0.11859183013439178,0.04365773228218248,-0.39421239495277416,0.05677142732147717,0.2158517166972161,0.040481149791050865,0.059768840670585605,0.059258559528807965,-8.557782970484517,190.2367027925298,0.1337584081846377,0.017100672654771016,30.600000000000005,144.6016,0.5,0.5,1
0197a61472fc351d,0.0506024695932865,0.0584587082266807,0.1785177737474441,0.084594503045082,0.1311419755220413,0.1329919099807739,0.6397377252578735,0.7239549160003662,3.9333333333333336,11.924935732647814,0.1777777777777777,0.2,28.066666666666663,42.93333333333334,0.3,0.3,-0.0078562386333942,0.0029581550055034177,0.0939232707023621,0.015101622354879418,-0.001849934458732605,0.01744082180332817,-0.08421719074249268,0.4631412711513292,-7.9916023993144805,46.90474721508141,-0.02222222222222231,0.03555555555555554,-14.866666666666674,1204.9955555555555,0.0,0.09,1
01983cba42704c49,0.217877447605133,0.0830229520797729,0.4045051336288452,0.1792022585868835,0.0983610898256301,0.2646369636058807,0.2792562544345855,0.4731378257274627,2.888888888888889,8.353848466970462,0.0,0.3031020683433553,3.688888888888889,32.31428571428572,0.9,1.0,0.1348544955253601,0.018088828891784186,0.22530287504196173,0.07248823355627818,-0.16627587378025058,0.026029980148420034,-0.1938815712928772,0.1321266970439749,-5.464959578081572,24.133340015692443,-0.3031020683433553,0.0,-28.625396825396827,119.20380952380954,-0.09999999999999998,0.9,1
019b4d006800504b,0.0914254337549209,0.1893038004636764,0.178620845079422,0.4138051271438598,0.2598721385002136,0.1142719835042953,0.4700815379619598,0.2826190590858459,3.909467974215497,14.4,0.2373662675220013,0.025,35.95714285714286,12.925,1.0,1.0,-0.0978783667087555,0.017307182068846613,-0.2351842820644378,0.0739142215086339,0.14560015499591833,0.029696104723922354,0.1874624788761139,0.1328540019524364,-10.490532025784503,56.296338828703156,0.2123662675220013,0.005934156688050033,23.032142857142862,464.7460714285715,0.0,1.0,1
01a4827b3596d111,0.0310948155820369,0.1329091936349868,0.0688725635409355,0.3595858514308929,0.507716178894043,0.2560506761074066,0.3923163712024688,0.2514542639255523,8.606656637456952,11.306521678971686,0.5163963288965999,0.1921189992677336,54.14545454545455,26.25454545454545,1.0,1.0,-0.10181437805294989,0.004132786865237147,-0.2907132878899574,0.024765599401095562,0.25166550278663635,0.1300010708764887,0.1408621072769165,0.09864962434666054,-2.699865041514734,97.31134985487259,0.32427732962886635,0.0992095459331462,27.890909090909098,1421.564297520661,0.0,1.0,1
01aa5949ac6851f3,0.1734042465686798,0.2585627436637878,0.2204392403364181,0.2795132100582123,0.3634978830814361,0.3132839202880859,0.2426586151123047,0.1486401110887527,16.37302805345306,10.71330008312552,0.2012814175314938,0.2165419783873649,41.66666666666666,29.83333333333333,0.6,0.6,-0.08515849709510798,0.04483587775574981,-0.059073969721794184,0.061615679689225974,0.05021396279335022,0.11387804182817259,0.094018504023552,0.03606880350693585,5.659727970327539,175.4091628060751,-0.015260560855871075,0.0435858763648829,11.833333333333329,1243.055555555555,0.0,0.36,0
01c9acf719298187,0.2392034977674484,0.3282137513160705,0.2060327380895614,0.2302911877632141,0.2900339365005493,0.304775208234787,0.2647298574447632,0.1367198377847671,7.228282828282828,8.467758907758908,0.1915518824609733,0.1721878121878122,29.444444444444443,24.173333333333336,0.9,1.0,-0.0890102535486221,0.07850987733017953,-0.024258449673652704,0.0474475239727523,-0.014741271734237671,0.0883951533921099,0.1280100196599961,0.03619382316663254,-1.2394760794760797,61.20735630699267,0.019364070273161088,0.03298289956141195,5.271111111111107,711.7703703703704,-0.09999999999999998,0.9,0
01e8868086004dd8,0.1051560938358306,0.2726011574268341,0.626689612865448,0.2051475942134857,0.090604081749916,0.2893721461296081,0.177550196647644,0.2328790873289108,6.666666666666667,6.999999999999999,0.0333333333333333,0.08,5.133333333333333,22.56,0.6,0.5,-0.1674450635910035,0.028665672890132197,0.4215420186519623,0.12856386639792736,-0.1987680643796921,0.02621829758407565,-0.05532889068126681,0.04134772775037197,-0.33333333333333215,46.666666666666664,-0.046666666666666703,0.002666666666666664,-17.426666666666666,115.80799999999998,0.09999999999999998,0.3,1
01f7c28804746979,0.1816077083349228,0.0985797196626663,0.1308382302522659,0.1535785049200058,0.1706581115722656,0.5422816276550293,0.5168960094451904,0.2055601477622985,5.1131059628796285,8.723283461231247,0.1974424435081287,0.3558325969437591,19.14375,38.14,1.0,1.0,0.08302798867225648,0.017902836976235955,-0.022740274667739896,0.02009393978852247,-0.37162351608276367,0.09254475851594178,0.31133586168289196,0.10625322007929579,-3.610177498351619,44.60307268151074,-0.15839015343563043,0.07025645742041889,-18.99625,730.1426250000001,0.0,1.0,0
0221982930283140,0.1685259640216827,0.2625375688076019,0.2651464343070984,0.1660193502902984,0.3386974036693573,0.3140079081058502,0.2276302278041839,0.2574351727962494,11.131915688695006,11.10421854326613,0.2001423360915206,0.2976184435513274,30.10769230769231,25.866666666666667,1.0,1.0,-0.09401160478591916,0.044244396875209965,0.09912708401679998,0.04401943875545376,0.02468949556350708,0.1063536632070976,-0.029804944992065485,0.058600027028419696,0.027697145428875913,123.61122461248225,-0.09747610745980678,0.05956605055628502,4.241025641025644,778.7856410256411,0.0,1.0,0
022bdd58cc6e571d,0.2019262313842773,0.1346112042665481,0.4229097068309784,0.1076773777604103,0.1523818224668502,0.141626700758934,0.2227821946144104,0.6160846948623657,14.133333333333333,5.5363270777479885,0.1222222222222222,0.1451072386058981,12.433333333333334,21.675,1.0,0.8,0.06731502711772919,0.027181533179643207,0.3152323290705681,0.04553780826098363,0.010755121707916204,0.021581334771613597,-0.3933025002479553,0.1372527003897872,8.597006255585345,78.24675603217156,-0.022885016383675905,0.0177353291629431,-9.241666666666667,269.4925,0.19999999999999996,0.8,1
0230a9dd2739add4,0.1550828516483307,0.0732628554105758,0.6100121736526489,0.2745470702648163,0.0761510133743286,0.3188025951385498,0.1587539762258529,0.3333875238895416,4.75,10.99194169050946,0.0,0.2425239774531145,1.7000000000000002,36.05,0.4,1.0,0.08181999623775489,0.011361812536971428,0.33546510338783264,0.16747705510220712,-0.2426515817642212,0.024277140686166373,-0.17463354766368872,0.05292659504155626,-6.24194169050946,52.21172302991994,-0.2425239774531145,0.0,-34.349999999999994,61.285000000000004,-0.6,0.4,1
024beecfd3f0ed7a,0.180864006280899,0.1849609911441803,0.4227826297283172,0.1182427182793617,0.1159005612134933,0.4981816709041595,0.2804527580738067,0.1986146569252014,6.9,12.123907455012851,0.0666666666666666,0.3771208226221079,4.4,38.9,1.0,0.2,-0.0040969848632813055,0.03345278586402233,0.30453991144895554,0.0499909673803731,-0.3822811096906662,0.05773953524406791,0.08183810114860532,0.05570202832855562,-5.223907455012851,83.65496143958867,-0.3104541559554413,0.025141388174807166,-34.5,171.16,0.8,0.2,0
0261adcfc6e49150,0.0411806814372539,0.1803266853094101,0.1538493186235427,0.5608029365539551,0.4213747978210449,0.0855623632669448,0.3835951685905456,0.1733079999685287,4.306319977219057,6.366666666666666,0.4470465417724278,0.0166666666666666,45.08,6.716666666666668,0.5,1.0,-0.1391460038721562,0.0074259757823627506,-0.4069536179304124,0.08627914967090784,0.33581243455410015,0.03605382352269967,0.2102871686220169,0.06648011146601804,-2.0603466894476092,27.416903854961326,0.4303798751057612,0.0074507756962071,38.36333333333333,302.7873333333334,-0.5,0.5,1
026bb9fd1b3f239d,0.284821093082428,0.5790282487869263,0.4560645520687103,0.1909193247556686,0.1138849183917045,0.110701136291027,0.1452294290065765,0.1193512231111526,6.171428571428572,11.266666666666667,0.0,0.0222222222222222,4.028571428571429,4.911111111111111,0.7,0.9,-0.2942071557044983,0.1649194587450964,0.2651452273130417,0.08707153632595464,0.003183782100677504,0.012607189872372568,0.025878205895423917,0.01733330998366921,-5.095238095238096,69.53142857142858,-0.0222222222222222,0.0,-0.8825396825396821,19.78476190476191,-0.20000000000000007,0.63,1
02713b2d25f74d43,0.1587888747453689,0.1963641047477722,0.4929516911506653,0.1623735129833221,0.0963891223073005,0.4188412129878998,0.2518704235553741,0.2224211990833282,7.633333333333333,6.949530201342283,0.0333333333333333,0.1873825503355704,8.0,27.48,0.6,0.5,-0.03757523000240329,0.0311804352332805,0.3305781781673432,0.08004229782320313,-0.32245209068059927,0.04037173690602877,0.0294492244720459,0.05602132162081205,0.6838031319910503,53.04808053691276,-0.15404921700223712,0.006246085011185674,-19.48,219.84,0.09999999999999998,0.3,0
02732ebb104793d2,0.1560073792934417,0.2260473221540451,0.0606070943176746,0.1067647114396095,0.6111620664596558,0.4453920423984527,0.1722235381603241,0.2217959761619568,7.546924243178015,6.0,0.3895679677049872,0.3333333333333333,46.42,14.933333333333335,1.0,0.3,-0.07003994286060342,0.03526505032555292,-0.0461576171219349,0.006470698936019726,0.16577002406120306,0.27220672101692495,-0.04957243800163269,0.0381984877643351,1.5469242431780152,45.28154545906809,0.05623463437165388,0.12985598923499572,31.486666666666665,693.2053333333334,0.7,0.3,1
0273dbd5dedbdbe0,0.1924456655979156,0.2075913995504379,0.2098791003227234,0.2426428943872451,0.1982259601354599,0.0861063152551651,0.3994492292404175,0.4636594355106354,6.078934624697337,3.95,0.1583535108958838,0.0,18.257142857142856,0.85,0.7,0.4,-0.015145733952522306,0.03995006505888686,-0.032763794064521706,0.050925672373696586,0.1121196448802948,0.0170685070151817,-0.0642102062702179,0.18520840414477036,2.1289346246973366,24.01179176755448,0.1583535108958838,0.0,17.407142857142855,15.518571428571427,0.29999999999999993,0.27999999999999997,0
02822c35ffef5a50,0.2224596291780471,0.1002006828784942,0.064368650317192,0.1562970876693725,0.618742048740387,0.3863475620746612,0.0944296196103096,0.3571546077728271,12.514008676200492,10.067974203197627,0.5677406842842169,0.4736236401234753,37.05714285714284,27.3,1.0,0.6,0.1222589462995529,0.02229060675653691,-0.09192843735218051,0.010060632581785339,0.23239448666572576,0.2390494820839297,-0.2627249881625175,0.033725973754057385,2.4460344730028645,125.99071653057784,0.09411704416074157,0.2688954095368835,9.757142857142842,1011.6599999999996,0.4,0.6,1
0292b9c31c0089ac,0.0705023854970932,0.1925854831933975,0.0730706453323364,0.4651673138141632,0.4164226353168487,0.1570936888456344,0.4400043785572052,0.1851534098386764,4.608631477621031,8.266666666666667,0.325647378861649,0.0666666666666666,41.17777777777778,8.066666666666668,0.9,0.3,-0.1220830976963043,0.013577735977244874,-0.3920966684818268,0.033990075807910344,0.2593289464712143,0.06541736790074412,0.2548509687185288,0.08146831103381433,-3.658035189045637,38.098020215000524,0.2589807121949824,0.021709825257443246,33.11111111111111,332.16740740740744,0.6000000000000001,0.27,1
029a12d36a4687e1,0.2141197621822357,0.1392983198165893,0.2333564013242721,0.2054580897092819,0.1865932494401931,0.4419869780540466,0.3659305870532989,0.2132565677165985,5.594067796610169,5.92702023783505,0.1385593220338983,0.3407969659757196,15.975,30.940000000000005,0.8,1.0,0.07482144236564639,0.02982652311151311,0.027898311614990207,0.04794496043751748,-0.25539372861385345,0.08247178644535587,0.15267401933670038,0.07803710101750648,-0.3329524412248812,33.1561530423298,-0.2022376439418213,0.047220596556805224,-14.965000000000005,494.26650000000006,-0.19999999999999996,0.8,1
029f5c36820fdc09,0.076936736702919,0.0855388715863227,0.2226839959621429,0.6020383834838867,0.3014810681343078,0.0847320184111595,0.3988982439041137,0.2276906371116638,5.767010458378064,6.52,0.2678357269281323,0.04,42.08,1.6799999999999995,1.0,0.5,-0.008602134883403695,0.00658108164110171,-0.37935438752174383,0.13406431295678087,0.2167490497231483,0.0255450994157722,0.17120760679244992,0.0908253952972515,-0.7529895416219352,37.60090818862498,0.22783572692813228,0.010713429077125292,40.4,70.69439999999997,0.5,0.5,1
02b39d683f027517,0.4230105876922607,0.1447982192039489,0.3094192445278168,0.0953467488288879,0.1045581251382827,0.5661979913711548,0.1630119830369949,0.193657100200653,4.8500000000000005,4.986682808716707,0.0,0.4025423728813559,0.35,29.285714285714285,0.4,1.0,0.27821236848831177,0.06125117980225521,0.2140724956989289,0.02950211899081799,-0.46163986623287206,0.05920060043482951,-0.030645117163658087,0.03156842793290247,-0.13668280871670646,24.185411622276032,-0.4025423728813559,0.0,-28.935714285714283,10.249999999999998,-0.6,0.4,1
02ec66f311dce539,0.193926602602005,0.1484064161777496,0.4585108458995819,0.5247811079025269,0.1457236558198928,0.1000822782516479,0.2018389701843261,0.2267301082611084,9.354923717059638,9.885714285714286,0.0710124826629681,0.0857142857142857,14.185714285714283,5.714285714285714,1.0,0.7,0.0455201864242554,0.028779952093690213,-0.06627026200294495,0.24061782969650736,0.045641377568244906,0.014584355469613881,-0.02489113807678231,0.04576297156120288,-0.5307905686546484,92.48010303150384,-0.014701803051317602,0.006086784228254407,8.471428571428568,81.0612244897959,0.30000000000000004,0.7,0
02f5621f480ad1d4,0.1807957291603088,0.1101250648498535,0.3134933114051819,0.6192982196807861,0.2185416370630264,0.09715536236763,0.2871693670749664,0.1734213531017303,7.265108206528035,11.1,0.1476999689536391,0.0666666666666666,21.38125,1.9,1.0,0.6,0.07067066431045531,0.019910141398355556,-0.30580490827560425,0.19414584963506343,0.1213862746953964,0.02123249194127341,0.11374801397323608,0.04980130020750814,-3.8348917934719644,80.6427010924612,0.0810333022869725,0.009846664596909263,19.481250000000003,40.624375,0.4,0.6,0
0308bcdd00cc72e2,0.092880330979824,0.546476423740387,0.5238219499588013,0.2380501627922058,0.1803058236837387,0.0941280946135521,0.2029918581247329,0.1213452666997909,14.812934595235694,11.9,0.1943888560768666,0.0,18.09333333333333,8.1,1.0,0.2,-0.45359609276056295,0.05075691110967769,0.28577178716659546,0.12469590046182333,0.08617772907018661,0.0169718436310774,0.08164659142494199,0.02463210116203183,2.9129345952356935,176.27392168330476,0.1943888560768666,0.0,9.99333333333333,146.55599999999995,0.8,0.2,0
0344687c9852b1d2,0.0617831461131572,0.1850268989801406,0.0904505476355552,0.3273853063583374,0.4114713668823242,0.1395254284143448,0.4362949430942535,0.3480623662471771,9.288099888099886,3.914285714285714,0.4304938304938304,0.0857142857142857,42.654545454545456,11.22857142857143,1.0,0.7,-0.1232437528669834,0.011431543934554405,-0.2369347587227822,0.029612180247945628,0.27194593846797943,0.05741071874449233,0.08823257684707636,0.15185785027506335,5.373814173814171,36.35627670484812,0.3447795447795447,0.03689947118518545,31.42597402597403,478.9496103896104,0.30000000000000004,0.7,1
034cbbec91f67852,0.1321491599082946,0.1589355021715164,0.1041590720415115,0.30131396651268,0.4266204833984375,0.3316501677036285,0.3370712101459503,0.2081003338098526,4.255133548193371,6.054424548125087,0.3202292519817677,0.3271488730914393,37.72631578947369,35.95,1.0,0.8,-0.026786342263221796,0.021003193091568822,-0.19715489447116852,0.031384583145107815,0.09497031569480902,0.14148875486489484,0.12897087633609772,0.07014463134906324,-1.7992909999317153,25.76238500973255,-0.006919621109671592,0.10476263891674986,1.776315789473685,1356.261052631579,0.19999999999999996,0.8,0
0366e183296fea07,0.3306929767131805,0.1535988748073578,0.2499832808971405,0.5969336032867432,0.1709906309843063,0.1224446892738342,0.248333141207695,0.1270227581262588,16.45,16.925,0.05,0.0,11.05,13.35,0.4,0.8,0.1770941019058227,0.050794069129840295,-0.34695032238960266,0.14922342062737215,0.04854594171047211,0.020936894679610234,0.12131038308143621,0.031543960530359114,-0.4750000000000014,278.41625,0.05,0.0,-2.299999999999999,147.5175,-0.4,0.32000000000000006,1
037c68d03c970609,0.1294864416122436,0.3511931300163269,0.4259552657604217,0.3618275225162506,0.1133875176310539,0.1368347406387329,0.3311706781387329,0.1501446515321731,6.4,13.033333333333331,0.04,0.0333333333333333,10.760000000000002,16.23333333333333,0.5,0.6,-0.2217066884040833,0.045474748724480187,0.06412774324417109,0.1541223385128445,-0.023447223007679013,0.015515351566715015,0.1810260266065598,0.04972350606681351,-6.633333333333331,83.41333333333333,0.006666666666666703,0.001333333333333332,-5.473333333333329,174.67066666666668,-0.09999999999999998,0.3,0
037d2f426c916ffc,0.0549779646098613,0.2067249566316604,0.0734829008579254,0.5115212798118591,0.6392743587493896,0.0952628552913665,0.2322647720575332,0.1864908635616302,6.925317394149026,10.77,0.6748152559236196,0.05,44.92,4.5600000000000005,1.0,1.0,-0.15174699202179912,0.011365317349670537,-0.4380383789539337,0.03758806749113396,0.5440115034580232,0.060899100729024214,0.045773908495903015,0.043315257915954565,-3.8446826058509735,74.585668334985,0.6248152559236195,0.03374076279618098,40.36,204.83520000000004,0.0,1.0,1
039c645e8f3ac00f,0.2462473213672638,0.2433688640594482,0.3248887062072754,0.336435317993164,0.1435993760824203,0.0937951505184173,0.2852645814418793,0.3264007568359375,6.386666666666666,6.525,0.0933333333333333,0.025,9.226666666666665,6.65,1.0,1.0,0.0028784573078156073,0.05992893087883287,-0.011546611785888616,0.10930403518523234,0.04980422556400299,0.013468925094001424,-0.04113617539405823,0.09311057528111633,-0.13833333333333453,41.672999999999995,0.0683333333333333,0.0023333333333333327,2.5766666666666644,61.35733333333332,0.0,1.0,1
03aec9073946907f,0.1374686360359192,0.0789712071418762,0.3420478403568268,0.0825583115220069,0.102412462234497,0.3921844065189361,0.4180710315704345,0.4462861120700836,10.430769230769233,7.044881406727503,0.0923076923076923,0.3711743237012429,6.815384615384615,41.52727272727272,1.0,1.0,0.05849742889404298,0.010856064131903763,0.2594895288348199,0.028238892159608592,-0.2897719442844391,0.04016457072157916,-0.028215080499649103,0.1865792952486984,3.3858878240417294,73.4835322117115,-0.2788666313935506,0.03426224526473011,-34.7118881118881,283.0243356643356,0.0,1.0,1
03b9922d777e430c,0.0798457637429237,0.0714753121137619,0.7143197655677795,0.2153932452201843,0.0779553279280662,0.1800382584333419,0.1278790682554245,0.5330932140350342,7.633333333333333,4.223668639053255,0.0333333333333333,0.1935756551141166,5.433333333333333,26.91428571428571,0.6,0.7,0.008370451629161793,0.005707000884487165,0.4989265203475952,0.1538596524305653,-0.1020829305052757,0.014034941475769096,-0.4052141457796097,0.06817146350408976,3.409664694280078,32.240670611439846,-0.1602423217807833,0.006452521837137213,-21.480952380952377,146.23428571428568,-0.09999999999999998,0.42,0
03bc32bdb5a33496,0.2962590456008911,0.1819888353347778,0.4032313823699951,0.5748660564422607,0.1007867455482482,0.0809036865830421,0.199722871184349,0.162241443991661,12.16,6.4,0.0,0.0,7.360000000000001,2.3625,1.0,1.0,0.11427021026611331,0.053915838666299,-0.17163467407226562,0.23180403461680044,0.01988305896520609,0.008154019273560286,0.037481427192688016,0.03240332701910928,5.76,77.82400000000001,0.0,0.0,4.997500000000001,17.388,0.0,1.0,0
03c2707563915d7d,0.1818174123764038,0.1655927747488021,0.3804738223552704,0.4730346798896789,0.3035492599010467,0.0915470346808433,0.134159430861473,0.2698255777359009,3.489108910891089,8.25,0.1782178217821782,0.0,30.000000000000004,2.4,0.2,0.4,0.016224637627601707,0.0301076498130559,-0.09256085753440851,0.17997731276422788,0.2120022252202034,0.02778903462350544,-0.13566614687442788,0.036199645940916604,-4.760891089108911,28.785148514851485,0.1782178217821782,0.0,27.600000000000005,72.0,-0.2,0.08000000000000002,0
03c2a836d033be8f,0.1141092404723167,0.1352314800024032,0.1175259053707122,0.0453755781054496,0.3042650818824768,0.382829874753952,0.4640997648239136,0.436563104391098,12.925409134469378,5.238844373951479,0.3130445097547974,0.4921940513945918,29.69090909090909,46.34285714285714,1.0,0.7,-0.021122239530086503,0.015431161471021514,0.0721503272652626,0.00533280589856243,-0.07856479287147522,0.11648176318906955,0.027536660432815552,0.20260883407870622,7.686564760517899,67.71420692513595,-0.1791495416397944,0.15407864552304756,-16.65194805194805,1375.9615584415585,0.30000000000000004,0.7,1
03eecf1926d9c77c,0.1653864234685897,0.2243351191282272,0.3465729653835296,0.280743807554245,0.1075404956936836,0.2241136133670807,0.3805001080036163,0.2708075046539306,8.48,14.62232719560397,0.08,0.1622674250457919,13.14,19.686956521739127,1.0,1.0,-0.05894869565963751,0.037101983011017504,0.06582915782928461,0.09729821389713765,-0.11657311767339709,0.02410128907319841,0.10969260334968567,0.10304228476901041,-6.14232719560397,123.99733461872168,-0.08226742504579189,0.012981394003663351,-6.546956521739126,258.6866086956521,0.0,1.0,1
0408a452fb5c3e14,0.0825175121426582,0.03559285774827,0.0917291790246963,0.099319539964199,0.3842504322528839,0.6348717212677002,0.4415028095245361,0.2302159368991851,3.765660877532628,6.713588501782832,0.3526382314771499,0.4662120941828377,38.72,60.0,1.0,0.3,0.046924654394388206,0.002937034071434776,-0.007590360939502702,0.009110499862026488,-0.2506212890148163,0.24394973332224623,0.21128687262535098,0.10164098293831353,-2.947927624250204,25.2810975690165,-0.11357386270568781,0.16440420838589434,-21.28,2323.2,0.7,0.3,1
040f227553de7838,0.2036557644605636,0.2452486306428909,0.3773472011089325,0.5258503556251526,0.0865214541554451,0.1262525171041488,0.3324755728244781,0.1026484444737434,10.977777777777776,6.9,0.0888888888888888,0.1,6.777777777777777,6.9,0.9,0.2,-0.0415928661823273,0.04994629735648435,-0.1485031545162201,0.19842815989728813,-0.03973106294870371,0.010923551370636159,0.2298271283507347,0.03412810037594947,4.077777777777776,75.74666666666666,-0.01111111111111121,0.00888888888888888,-0.12222222222222356,46.766666666666666,0.7,0.18000000000000002,1
044d210d7b1eb519,0.4797450006008148,0.076087974011898,0.2404569834470749,0.1560734808444976,0.1292866170406341,0.3597359359264374,0.1505114585161209,0.4081026017665863,10.628571428571428,6.5456777996070725,0.0285714285714285,0.3442043222003929,13.571428571428571,30.65,0.7,0.8,0.40365702658891683,0.03650282513805279,0.08438350260257729,0.03752895839995272,-0.23044931888580328,0.046509042183875395,-0.2575911432504654,0.06142411781611257,4.082893628964356,69.57120404153802,-0.31563289362896435,0.009834409205725486,-17.07857142857143,415.96428571428567,-0.10000000000000009,0.5599999999999999,0
0459297e86a14981,0.108209304511547,0.105680339038372,0.1199196502566337,0.6450849771499634,0.2389405518770218,0.1014615520834922,0.5329304933547974,0.1477730870246887,4.150879783080647,10.46,0.200269585726921,0.08,32.25,12.240000000000002,0.8,1.0,0.002528965473175007,0.011435595987886724,-0.5251653268933296,0.07735836484563215,0.1374789997935296,0.024243279249128814,0.38515740633010864,0.07875278417262875,-6.309120216919354,43.418202531023574,0.120269585726921,0.01602156685815368,20.009999999999998,394.74000000000007,-0.19999999999999996,0.8,0
0462bcc27498f7c4,0.0774327367544174,0.0945789590477943,0.208799734711647,0.282792866230011,0.1192469596862793,0.3526442050933838,0.5945205092430115,0.2699839770793915,8.111888111888112,10.989535945852865,0.2254291163382072,0.3130586757995751,23.41538461538461,32.184615384615384,1.0,1.0,-0.017146222293376895,0.0073235076384546806,-0.07399313151836398,0.059047075447172574,-0.2333972454071045,0.042051749308370745,0.32453653216362,0.16051101154069336,-2.877647833964753,89.14588599433092,-0.08762955946136788,0.0705725406475075,-8.769230769230774,753.6151479289939,0.0,1.0,0
047d6739aa1d5c1e,0.2484364360570907,0.2061116397380828,0.2546027302742004,0.2748130559921264,0.3154526650905609,0.156139075756073,0.1815082132816314,0.3629362285137176,8.238466453674121,6.967735541044776,0.0958466453674121,0.05859375,18.98,23.450000000000003,1.0,0.8,0.0423247963190079,0.05120564120641232,-0.020210325717926025,0.06996815437059209,0.15931358933448792,0.049254487572030214,-0.1814280152320862,0.06587590637269876,1.270730912629345,57.40345551297029,0.037252895367412095,0.005616014376996803,-4.470000000000002,445.0810000000001,0.19999999999999996,0.8,1
049ad6d87b42eba8,0.1160829216241836,0.1151882335543632,0.1123119220137596,0.1534657776355743,0.5080774426460266,0.270734578371048,0.2635276615619659,0.4606113731861114,9.52229299859393,6.232432280920224,0.4832628378589779,0.3067188683538018,44.9076923076923,45.72,1.0,0.5,0.000894688069820404,0.013371386687719299,-0.041153855621814714,0.017236036449587593,0.23734286427497864,0.13755413221461232,-0.1970837116241455,0.12138383806458193,3.2898607176737054,59.347046272817444,0.1765439695051761,0.1482258307455525,-0.812307692307698,2053.1796923076918,0.5,0.5,1
04a1c5b7993fe4d5,0.2275151759386062,0.2687350511550903,0.282529205083847,0.299006313085556,0.1226385906338691,0.2466067969799041,0.3673170804977417,0.1856517493724823,3.65,11.675,0.05,0.125,14.425,18.95,0.8,0.8,-0.04121987521648407,0.0611413024444207,-0.016477108001708984,0.08447801595111401,-0.12396820634603499,0.030243510022348125,0.1816653311252594,0.06819305856879865,-8.025,42.61375,-0.075,0.00625,-4.524999999999999,273.35375,0.0,0.6400000000000001,0
04a788abbbd1f256,0.2409618943929672,0.2166762501001358,0.2646948397159576,0.2407113015651703,0.1225837990641594,0.2111368775367736,0.3717595040798187,0.3314756155014038,6.653103448275862,7.5196883293421,0.0655172413793103,0.0737101839389861,12.47,27.933333333333334,1.0,0.6,0.024285644292831393,0.05221071969409307,0.023983538150787298,0.06371503938561228,-0.0885530784726142,0.025881960571001884,0.04028388857841492,0.12322921043335455,-0.8665848810662373,50.02926435390568,-0.0081929425596758,0.004829287913243913,-15.463333333333333,348.32866666666666,0.4,0.6,0
04e2d50c24a88dbd,0.2664918899536133,0.1356634050607681,0.455863356590271,0.6762281656265259,0.1461164355278015,0.0850853621959686,0.1315282434225082,0.1030230447649955,6.720000000000001,4.622222222222223,0.08,0.0444444444444444,10.52,5.377777777777777,0.5,0.9,0.13082848489284518,0.036153197212186676,-0.22036480903625488,0.3082676414033898,0.061031073331832913,0.012432369839666887,0.028505198657512706,0.013550440109978289,2.097777777777778,31.06133333333334,0.035555555555555604,0.003555555555555552,5.142222222222222,56.57422222222222,-0.4,0.45,1
04f27a78e4ffce47,0.0994419902563095,0.2162362933158874,0.1217744424939155,0.2260841429233551,0.6628691554069519,0.3898091912269592,0.1159143969416618,0.1678703725337982,7.8308581724020225,6.312094933820173,0.3952769109267664,0.136923779096303,40.3,22.37142857142857,0.6,0.7,-0.1167943030595779,0.021502967372978958,-0.1043097004294396,0.027531270461206278,0.27305996417999273,0.2583924893584814,-0.0519559755921364,0.019458592996627323,1.5187632385818493,49.42912019748311,0.25835313183046343,0.0541228084336056,17.928571428571427,901.5685714285713,-0.09999999999999998,0.42,1
04f32bb0c0d3a8cc,0.2073968946933746,0.5025857090950012,0.5651407241821289,0.286227285861969,0.0840370580554008,0.0915308967232704,0.1434253305196762,0.1196561604738235,14.307692307692308,9.6,0.0,0.0,3.2153846153846155,5.6000000000000005,1.0,0.3,-0.2951888144016266,0.10423471538357097,0.2789134383201599,0.16175869561271838,-0.007493838667869596,0.00769198728179637,0.023769170045852703,0.01716172436467355,4.707692307692309,137.35384615384615,0.0,0.0,-2.384615384615385,18.006153846153847,0.7,0.3,0
052f53e006b28132,0.2236113101243972,0.0834908485412597,0.4388938546180725,0.1325307339429855,0.1379252672195434,0.1584072858095169,0.1995696127414703,0.6255711913108826,12.2375,14.275,0.075,0.175,10.15,30.675,1.0,0.8,0.1401204615831375,0.0186694980257087,0.306363120675087,0.05816692467559913,-0.020482018589973505,0.021848367224800203,-0.42600157856941223,0.12484500039213307,-2.0374999999999996,174.6903125,-0.09999999999999999,0.013125,-20.525,311.35125,0.19999999999999996,0.8,0
054794810817c1cc,0.1879069060087204,0.2496946156024933,0.1631388366222381,0.1191305592656135,0.1865564286708831,0.3802944421768188,0.4623979032039642,0.2508803904056549,5.531474738986924,6.016232576451299,0.1668066156266607,0.3385556713944237,20.194285714285712,27.2,1.0,0.7,-0.06178770959377289,0.046919342664901276,0.0440082773566246,0.019434820844748773,-0.1937380135059357,0.07094637297589297,0.21151751279830927,0.11600656647856676,-0.4847578374643744,33.278638520510576,-0.17174905576776303,0.05647332574651568,-7.005714285714287,549.2845714285713,0.30000000000000004,0.7,0
0548a24a9bf8d7a0,0.1425205767154693,0.059719793498516,0.3957338631153106,0.6769663095474243,0.2763472199440002,0.0622568018734455,0.1853983253240585,0.2010571360588073,11.204142455227288,11.1,0.2666634876734538,0.0,25.91428571428571,7.7,1.0,0.2,0.0828007832169533,0.008511299410737234,-0.2812324464321137,0.2678984928761174,0.21409041807055468,0.017204494120331086,-0.015658810734748785,0.03727565631975425,0.10414245522728827,124.3659812530229,0.2666634876734538,0.0,18.21428571428571,199.54,0.8,0.2,0
0549b655619774c5,0.1039375886321067,0.2145562916994094,0.315550684928894,0.1952919512987136,0.2232820242643356,0.1896070092916488,0.3572297692298889,0.4005447626113891,8.843201754385964,7.073715415019763,0.2162280701754386,0.1685770750988142,16.166666666666668,17.9,1.0,0.4,-0.1106187030673027,0.022300463585083502,0.12025873363018039,0.06162450899340929,0.033675014972686795,0.04233583684934603,-0.04331499338150019,0.14308651311390716,1.7694863393662006,62.55429256812981,0.0476509950766244,0.03645109562443658,-1.7333333333333307,289.3833333333333,0.6,0.4,1
054f1423ba7c121e,0.1205663681030273,0.2028160542249679,0.0630303844809532,0.1434402614831924,0.3296827971935272,0.2635684609413147,0.486720472574234,0.3901752233505249,2.427560280573301,6.432170029197146,0.3214159594417041,0.1513425514046501,41.62857142857143,31.075000000000003,0.7,0.8,-0.0822496861219406,0.024452795050891027,-0.08040987700223919,0.00904109483133408,0.06611433625221252,0.08689398745512555,0.0965452492237091,0.18990626909592478,-4.004609748623845,15.614480480773004,0.17007340803705398,0.048643911364081034,10.55357142857143,1293.6078571428575,-0.10000000000000009,0.5599999999999999,1
058c2724dec1add1,0.1401265263557434,0.1767047941684723,0.3868432641029358,0.4265464842319488,0.2568756639957428,0.130459189414978,0.2161545008420944,0.266289621591568,7.756410650112392,6.752941176470589,0.1392719188140544,0.0705882352941176,33.93333333333333,9.011764705882351,0.9,1.0,-0.03657826781272888,0.024761028997234646,-0.039703220129013006,0.1650066342519185,0.1264164745807648,0.033511790905318854,-0.0501351207494736,0.05755970023455558,1.003469473641803,52.378584860758984,0.0686836835199368,0.009830958975109716,24.92156862745098,305.7992156862744,-0.09999999999999998,0.9,1
0599f35e6679de02,0.1059677004814148,0.1575106680393219,0.1426162421703338,0.1497397571802139,0.4448293447494507,0.2545829713344574,0.3065866827964782,0.4381665885448456,7.644703347027701,5.612160500115537,0.306973021330289,0.1801216000318038,33.47857142857143,25.8,1.0,1.0,-0.051542967557907104,0.016691043293418417,-0.007123515009880094,0.021355321472540365,0.1902463734149933,0.11324597632307487,-0.13157990574836737,0.13433604089421355,2.032542846912164,42.9033021592899,0.12685142129848517,0.055292471768608686,7.678571428571427,863.7471428571429,0.0,1.0,1
059f5cf0e9e37627,0.0302795823663473,0.2088515758514404,0.0751214027404785,0.405595451593399,0.8593799471855164,0.1829797774553299,0.0352190360426902,0.202573224902153,9.044691967294186,9.911580543411334,0.7500244704266565,0.0881160964250548,32.95555555555556,20.78095238095238,0.9,1.0,-0.17857199348509312,0.0063239384933351205,-0.3304740488529205,0.030468899268853978,0.6764001697301865,0.15724915148557894,-0.1673541888594628,0.007134433709112914,-0.8668885761171481,89.64719292418184,0.6619083740016017,0.06608922855726593,12.174603174603181,684.8478306878309,-0.09999999999999998,0.9,0
05c8aeb2806be99c,0.1427563577890396,0.1898945420980453,0.0919047743082046,0.2660506963729858,0.355261743068695,0.1803425699472427,0.410077154636383,0.3637121617794037,10.916606375151742,4.49678510998308,0.3773290211983053,0.1280315848843767,37.087500000000006,16.311111111111114,1.0,0.9,-0.04713818430900568,0.0271086531939344,-0.1741459220647812,0.024451329204699924,0.1749191731214523,0.0640688157489455,0.046364992856979315,0.14915004840914567,6.419821265168663,49.089632999328714,0.24929743631392862,0.0483100326068896,20.776388888888892,604.9383333333335,0.09999999999999998,0.9,1
05cceae674c81b86,0.167148157954216,0.2242669910192489,0.1245283931493759,0.4858024418354034,0.4276069700717926,0.1314276307821273,0.2807165086269378,0.158502921462059,8.906408809867983,13.45,0.3565873881589422,0.0,41.400000000000006,2.1,0.9,0.8,-0.057118833065032903,0.03748581443880216,-0.36127404868602747,0.06049619746980593,0.29617933928966533,0.056199370982459716,0.12221358716487882,0.04449438671999893,-4.543591190132016,119.79119849272436,0.3565873881589422,0.0,39.300000000000004,86.94000000000001,0.09999999999999998,0.7200000000000001,1
060987bb3025a0a8,0.3407598435878753,0.1653600633144378,0.3407240211963653,0.5669100880622864,0.1494717746973037,0.1256370693445205,0.1690444052219391,0.1420928239822387,15.18,20.65,0.02,0.05,13.12,5.65,1.0,0.4,0.1753997802734375,0.05634806931070899,-0.22618606686592108,0.1931598848613678,0.023834705352783175,0.01877919572269369,0.0269515812397004,0.02401999691638322,-5.469999999999999,313.467,-0.030000000000000002,0.001,7.469999999999999,74.128,0.6,0.4,0
060dfbc982c6c4ef,0.2285673171281814,0.0205858275294303,0.2291515469551086,0.0337214022874832,0.377051293849945,0.0555345155298709,0.1652298271656036,0.8901582360267639,8.692020373514433,5.576271186440678,0.2546689303904924,0.2542372881355932,30.0,30.0,0.2,0.2,0.2079814895987511,0.004705247369265342,0.19543014466762537,0.007727311499672313,0.32151677832007414,0.020939360933867685,-0.7249284088611603,0.14708069148874078,3.115749187073755,48.46906276078388,0.0004316422548991672,0.06474633823487094,0.0,900.0,0.0,0.04000000000000001,1
061990783b9bdb36,0.1440512835979461,0.1322456300258636,0.5992832779884338,0.5981236100196838,0.1043701842427253,0.1024629101157188,0.1522952020168304,0.1671678721904754,15.23076923076923,17.25,0.0461538461538461,0.1,5.615384615384615,5.45,1.0,0.4,0.01180565357208252,0.019050152755444735,0.00115966796875,0.3584454776548718,0.001907274127006503,0.010694072806823373,-0.01487267017364502,0.025458864865972135,-2.01923076923077,262.7307692307692,-0.053846153846153905,0.004615384615384611,0.1653846153846148,30.603846153846153,0.6,0.4,1
06287b822837a616,0.2496231794357299,0.2656596302986145,0.2995683252811432,0.2209465652704239,0.2894814014434814,0.3210189640522003,0.1613270789384842,0.1923748105764389,11.718175895765471,7.584079283887468,0.12,0.2709079283887468,27.6,20.4,0.5,0.8,-0.016036450862884605,0.06631480156286071,0.0786217600107193,0.06618859253468168,-0.03153756260871893,0.09292901960376553,-0.031047731637954712,0.031035266251641103,4.134096611878003,88.87157505602438,-0.15090792838874678,0.03250895140664961,7.200000000000003,563.04,-0.30000000000000004,0.4,0
063e7ce759c52f81,0.0981389284133911,0.0978999286890029,0.6424011588096619,0.2529056370258331,0.0897916257381439,0.3230633437633514,0.1696683019399643,0.3261311650276184,3.2,13.745459729151817,0.0,0.2853701252418287,0.2,30.2,0.2,1.0,0.00023899972438820583,0.009607794093286149,0.3894955217838288,0.1624668742948909,-0.2332717180252075,0.02900838285291217,-0.1564628630876541,0.055334120979938284,-10.545459729151816,43.98547113328581,-0.2853701252418287,0.0,-30.0,6.04,-0.8,0.2,0
06641a8c62e45661,0.1929014772176742,0.1601557284593582,0.4884385764598846,0.3628433644771576,0.1504305154085159,0.1170862019062042,0.1682294160127639,0.3599147498607635,16.12727272727273,4.05,0.1272727272727272,0.1,12.781818181818185,8.6,1.0,0.4,0.03274574875831601,0.0308942766046829,0.125595211982727,0.1772266964231379,0.03334431350231171,0.017613337699975855,-0.1916853338479996,0.060548248183456235,12.077272727272728,65.31545454545454,0.0272727272727272,0.01272727272727272,4.181818181818185,109.92363636363639,0.6,0.4,0
066756ea40b134a7,0.0606174021959304,0.2460374534130096,0.0768098607659339,0.2856764793395996,0.6532233953475952,0.2906229496002197,0.2093493342399597,0.1776631027460098,7.151318843740462,6.495238095238096,0.6592150186590942,0.1619047619047619,43.24444444444445,16.685714285714287,0.9,0.7,-0.1854200512170792,0.01491415126879889,-0.20886661857366573,0.021942770602176837,0.3626004457473755,0.18984170990378857,0.03168623149394989,0.0371936522788827,0.6560807485023661,46.449518585057106,0.49731025675433227,0.10673005064004382,26.55873015873016,721.5644444444446,0.20000000000000007,0.63,1
0673d8ab0add7a05,0.2308977842330932,0.1494988650083542,0.3694216310977936,0.2122518271207809,0.1527103185653686,0.3672242760658264,0.2469701915979385,0.271025002002716,7.4,9.18423236514523,0.1,0.2489626556016597,12.3,32.6,0.4,0.2,0.08139891922473902,0.034518956675791294,0.1571698039770127,0.07841041617844578,-0.21451395750045782,0.056078936182949214,-0.0240548104047775,0.06693509667244243,-1.784232365145229,67.9633195020747,-0.1489626556016597,0.02489626556016597,-20.3,400.98,0.2,0.08000000000000002,1
06910bddb0745856,0.2386615723371505,0.1138678863644599,0.223724216222763,0.1853980720043182,0.2935729324817657,0.5012124180793762,0.2440413236618042,0.1995216906070709,14.4,4.522106592628402,0.2153846153846153,0.3048604505334755,25.476923076923075,31.11428571428571,1.0,0.7,0.1247936859726906,0.02717588879844998,0.038326144218444796,0.041478038348377474,-0.20763948559761053,0.14714239937183923,0.044519633054733304,0.04869153747499055,9.877893407371598,65.118334933849,-0.08947583514886018,0.06566225088413316,-5.637362637362635,792.6962637362636,0.30000000000000004,0.7,1
0697d5520b74a8df,0.1305137425661087,0.1844393014907837,0.540708601474762,0.4937265813350677,0.1774281412363052,0.1241284981369972,0.1513496339321136,0.1977055668830871,11.800000000000002,7.371375807940907,0.123076923076923,0.0471837488457987,10.153846153846152,13.583333333333334,1.0,1.0,-0.05392555892467499,0.024071863513841052,0.04698202013969427,0.26696220930459974,0.053299643099308014,0.022023888698901588,-0.04635593295097351,0.02992266517409623,4.428624192059096,86.98223453370272,0.0758931742311243,0.005807230627175221,-3.4294871794871824,137.9230769230769,0.0,1.0,0
069df63733dcf697,0.2520048022270202,0.2506707012653351,0.1915937811136245,0.4772922992706299,0.2556331157684326,0.139021098613739,0.3007682859897613,0.1330158710479736,9.765066109951288,21.15,0.0750869867780097,0.05,23.633333333333336,0.7000000000000001,0.6,0.4,0.0013341009616851252,0.06317022049647923,-0.2856985181570054,0.09144623631367561,0.1166120171546936,0.03553839659618063,0.1677524149417877,0.04000695554453414,-11.38493389004871,206.53114822546974,0.025086986778009704,0.0037543493389004855,22.933333333333337,16.543333333333337,0.19999999999999996,0.24,1
069e3e704cbf6337,0.1103591322898864,0.0401987172663211,0.0896568298339843,0.0283776503056287,0.3772823512554168,0.9074249267578124,0.4227016866207123,0.0239987317472696,3.922090993929033,8.129850746268657,0.3410415089343183,0.826865671641791,35.946666666666665,46.5,1.0,0.2,0.0701604150235653,0.004436295556677671,0.061279179528355605,0.0025442501645400652,-0.5301425755023956,0.34235540995496183,0.3987029548734427,0.010144304386328892,-4.207759752339624,31.88601439392753,-0.48582416270747275,0.281995516342705,-10.553333333333335,1671.52,0.8,0.2,0
06c0c7dda5a5909d,0.1189779043197631,0.1714771538972854,0.2272980660200119,0.585366427898407,0.3481146693229675,0.1165806353092193,0.3056094348430633,0.1265757083892822,15.133333333333333,12.766666666666667,0.3,0.0,14.8,12.466666666666669,0.6,0.6,-0.052499249577522306,0.020401992409416515,-0.3580683618783951,0.13305265697435065,0.23153403401374817,0.04058342931013034,0.1790337264537811,0.03868273070570892,2.3666666666666654,193.20222222222222,0.3,0.0,2.333333333333332,184.50666666666672,0.0,0.36,1
06cd9812e2b9b747,0.176684021949768,0.101886935532093,0.302177757024765,0.643951952457428,0.2581404447555542,0.0970464497804641,0.2629978060722351,0.1571146845817566,7.865441176470588,10.509090909090908,0.2786764705882353,0.0727272727272727,19.15,11.581818181818184,0.8,1.0,0.074797086417675,0.018001793553946918,-0.34177419543266296,0.1945879566253037,0.16109399497509008,0.02505161370827656,0.10588312149047852,0.04132081734673321,-2.64364973262032,82.65863636363635,0.2059491978609626,0.020267379679144378,7.568181818181815,221.7918181818182,-0.19999999999999996,0.8,0
06d9fb9c995f1e4f,0.050418559461832,0.1252462118864059,0.2732616364955902,0.5009787678718567,0.1704677641391754,0.1674191504716873,0.5058519840240479,0.2063558101654052,3.4,10.171428571428573,0.0666666666666666,0.1999999999999999,31.933333333333337,25.142857142857142,0.3,0.7,-0.0748276524245739,0.006314733581363965,-0.22771713137626648,0.13689827795820797,0.003048613667488098,0.0285395682549887,0.2994961738586427,0.10438549598706,-6.771428571428572,34.582857142857144,-0.1333333333333333,0.013333333333333313,6.790476190476195,802.8952380952381,-0.39999999999999997,0.21,1
06f37329b223b451,0.0750850066542625,0.079976886510849,0.1264137625694275,0.3581227958202362,0.5986583828926086,0.1408248394727707,0.1998429149389267,0.4210755527019501,12.16565884968052,8.499526963103122,0.3985908294367173,0.1421002838221381,30.312,15.914285714285713,1.0,0.7,-0.004891879856586498,0.006005065055854294,-0.23170903325080872,0.0452716500815189,0.45783354341983795,0.0843059706698801,-0.22123263776302338,0.08414896586147735,3.666131886577398,103.4023454167737,0.2564905456145792,0.056639869991858965,14.397714285714288,482.39382857142857,0.30000000000000004,0.7,0
0716a38768a34789,0.3955732583999634,0.158636525273323,0.3307120203971863,0.3369886577129364,0.1001180484890937,0.2879479527473449,0.1735966652631759,0.2164268940687179,10.04,3.5536636499917447,0.0,0.1755404132793218,0.2799999999999999,18.16923076923077,0.5,1.0,0.23693673312664038,0.06275236720361652,-0.006276637315750122,0.11144619984318105,-0.18782990425825122,0.028828787095493937,-0.04283022880554199,0.037570987083596054,6.486336350008255,35.678783045917115,-0.1755404132793218,0.0,-17.889230769230767,5.087384615384614,-0.5,0.5,0
0730c4e6fb247fa1,0.2520714104175567,0.1417671591043472,0.4655837118625641,0.1942370980978012,0.1093818619847297,0.1663371920585632,0.1729629188776016,0.4976585507392883,6.699999999999999,7.814243323442136,0.009090909090909,0.1142857142857143,7.081818181818182,26.88571428571429,1.0,0.7,0.1103042513132095,0.035735447746322965,0.2713466137647629,0.09043362911378727,-0.05695533007383351,0.018194271784677238,-0.3246956318616867,0.08607647554026429,-1.1142433234421363,52.3554302670623,-0.1051948051948053,0.0010389610389610288,-19.803896103896108,190.3997402597403,0.30000000000000004,0.7,0
07468b6347ac5e3d,0.2942130863666534,0.1647952198982238,0.2317419052124023,0.2340893894433975,0.1289610564708709,0.2566111087799072,0.3450839221477508,0.3445043265819549,5.424439461883408,4.469294605809129,0.0336322869955156,0.3112033195020747,15.35,30.3,0.4,0.2,0.1294178664684296,0.04848491026472775,-0.002347484230995206,0.054248321099620946,-0.12765005230903634,0.03309283969041841,0.0005795955657958984,0.11888290421377064,0.9551448560742797,24.24341802653369,-0.2775710325065591,0.010466479355450913,-14.950000000000001,465.105,0.2,0.08000000000000002,0
0769ab47fcf0bf6b,0.1783584952354431,0.3428955078125,0.4305199980735779,0.1664223372936248,0.1023778989911079,0.2172611504793167,0.2887436151504516,0.2734209895133972,4.6,5.12173579109063,0.0,0.1831797235023041,5.6000000000000005,21.166666666666668,0.3,0.6,-0.1645370125770569,0.06115832679643062,0.2640976607799531,0.07164814433105167,-0.11488325148820881,0.02224274011846338,0.015322625637054388,0.07894856497011203,-0.52173579109063,23.559984639016893,-0.1831797235023041,0.0,-15.566666666666666,118.53333333333335,-0.3,0.18,1
076c98ac0561521f,0.0766305476427078,0.0357497967779636,0.1720102280378341,0.1002852544188499,0.5574448704719543,0.1000876501202583,0.1939143538475036,0.7638772130012512,11.57857142857143,3.062162162162162,0.4528571428571429,0.2216216216216216,30.48,26.5,0.5,0.4,0.0408807508647442,0.002739526505210861,0.07172497361898421,0.017250089481418582,0.457357220351696,0.05579334715712968,-0.5699628591537476,0.1481267561779695,8.516409266409267,35.45546332046332,0.2312355212355213,0.10036293436293436,3.9800000000000004,807.72,0.09999999999999998,0.2,1
07a378b257aad5a9,0.3104645907878876,0.2267553657293319,0.3859117925167084,0.1994835436344146,0.1577437818050384,0.305934190750122,0.145879790186882,0.2678269147872925,5.1000000000000005,6.858585858585859,0.1,0.1696969696969697,7.2,22.844444444444445,0.2,0.9,0.08370922505855569,0.07039951183011481,0.18642824888229378,0.07698305190154195,-0.14819040894508362,0.04825921623238824,-0.12194712460041049,0.03907053413557015,-1.7585858585858585,34.978787878787884,-0.0696969696969697,0.01696969696969697,-15.644444444444446,164.48000000000002,-0.7,0.18000000000000002,0
07b98dbf5d2c62a2,0.2426272332668304,0.2022836953401565,0.1897841244935989,0.3366270661354065,0.3400148451328277,0.2547284364700317,0.2275738269090652,0.2063607722520828,6.084888650459268,9.95614713842894,0.1848847250935545,0.1710956882659062,30.15,26.577777777777776,0.4,0.9,0.04034353792667389,0.0490795333353726,-0.14684294164180758,0.06388647302735694,0.08528640866279602,0.08661144987728517,0.021213054656982394,0.04696231066531651,-3.8712584879696728,60.58204672492878,0.013789036827648288,0.03163297928973457,3.572222222222223,801.3199999999999,-0.5,0.36000000000000004,0
07c00213ec388e07,0.1110653281211853,0.1745533347129821,0.3100774884223938,0.1390776187181472,0.2573701441287994,0.3829439282417297,0.3214870095252991,0.3034251630306244,9.0275,13.4563278148992,0.26,0.3749990938984195,24.425,34.32857142857143,0.8,1.0,-0.06348800659179679,0.01938682339454444,0.1709998697042466,0.043124838707890384,-0.1255737841129303,0.09855833400482257,0.018061846494674683,0.09754724827744177,-4.428827814899201,121.47699934900253,-0.1149990938984195,0.09749976441358908,-9.903571428571428,838.4753571428572,-0.19999999999999996,0.8,0
07cb64236ae7aaea,0.158759519457817,0.2692880630493164,0.1641660928726196,0.2204477488994598,0.3836539685726166,0.2897291183471679,0.2934204339981079,0.2205350399017334,9.761486486486486,9.257142857142856,0.2968918918918919,0.1714285714285714,39.95,26.022222222222226,0.8,0.9,-0.11052854359149941,0.0427520434854358,-0.05628165602684021,0.03619004561938864,0.09392485022544866,0.11115572606493626,0.07288539409637451,0.06470948711975666,0.5043436293436301,90.3634749034749,0.1254633204633205,0.05089575289575289,13.927777777777777,1039.587777777778,-0.09999999999999998,0.7200000000000001,0
07e39fd5f4f23270,0.1254561394453048,0.0422717556357383,0.3399786651134491,0.0898160263895988,0.2347155511379242,0.1633043587207794,0.2998495697975158,0.7046079039573669,6.844664723032069,7.892307692307692,0.2074635568513119,0.2564102564102564,25.340000000000003,31.5,1.0,0.2,0.08318438380956648,0.005303251269635033,0.2501626387238503,0.03053553275773012,0.0714111924171448,0.03833007256037301,-0.40475833415985113,0.21127637687754583,-1.047642969275623,54.02020004485309,-0.048946699558944484,0.05319578380802869,-6.159999999999997,798.2100000000002,0.8,0.2,1
07f234a488661125,0.0196321010589599,0.2494646608829498,0.0429508388042449,0.2592002749443054,0.2499593943357467,0.1524651050567627,0.6874577403068542,0.3388698995113373,16.201098901098902,5.880000000000001,0.5648351648351648,0.04,58.0,15.760000000000002,0.2,0.5,-0.2298325598239899,0.00489751543309323,-0.21624943614006054,0.011132869227148819,0.09749428927898401,0.0381100853173244,0.34858784079551697,0.2329587353760747,10.321098901098901,95.26246153846155,0.5248351648351648,0.022593406593406595,42.239999999999995,914.08,-0.3,0.1,0
0810cdbeb9dd4d02,0.0618034377694129,0.0770754143595695,0.2306454330682754,0.3851910531520843,0.5550296902656555,0.1372070461511612,0.1525214314460754,0.4005264639854431,4.822037990014296,4.5478873239436615,0.3163561959128052,0.1767605633802816,46.65,18.25,0.4,0.4,-0.015271976590156597,0.004763525574923366,-0.1545456200838089,0.08884255726828758,0.4178226441144943,0.0761539843275445,-0.2480050325393677,0.06108886961909475,0.27415066607063476,21.93008545036079,0.13959563253252363,0.05591929941839019,28.4,851.3625,0.0,0.16000000000000003,0
0823f97be9c3a62e,0.1024337410926818,0.1398820281028747,0.4101803302764892,0.5520422458648682,0.1093737035989761,0.1025585681200027,0.3780122399330139,0.2055171132087707,5.000000000000001,7.6,0.04,0.0,1.4,4.88,0.5,0.5,-0.0374482870101929,0.014328639450209107,-0.14186191558837896,0.22643687073542648,0.006815135478973389,0.011217210431092575,0.17249512672424322,0.0776879843086142,-2.5999999999999988,38.00000000000001,0.04,0.0,-3.48,6.832,0.0,0.25,0
08244974cf39ae38,0.0539217814803123,0.1186419874429702,0.0561975948512554,0.1946386992931366,0.2367875427007675,0.4487119615077972,0.6530930995941162,0.2380073517560959,5.0,9.848809523809525,0.2666666666666666,0.3773809523809524,37.6,25.4,0.3,0.6,-0.0647202059626579,0.006397387321289795,-0.13844110444188118,0.010938226765251021,-0.2119244188070297,0.10624940274587266,0.4150857478380203,0.15544095908457578,-4.848809523809525,49.24404761904762,-0.11071428571428577,0.1006349206349206,12.200000000000003,955.04,-0.3,0.18,1
083a0283b7bc503b,0.1981293857097625,0.1004784926772117,0.2058730125427246,0.1144041270017623,0.2135248780250549,0.4347138106822967,0.3824727535247803,0.3504036068916321,6.458907975142614,7.516626013343855,0.1521353909264894,0.3703852500179352,28.072727272727267,40.06666666666667,1.0,0.6,0.09765089303255078,0.019907742031178823,0.0914688855409623,0.02355272227317327,-0.2211889326572418,0.09282221340174421,0.03206914663314819,0.1340198323728572,-1.0577180382012417,48.54919570375106,-0.2182498590914458,0.05634870480488408,-11.993939393939403,1124.780606060606,0.4,0.6,0
08426f06239d903c,0.2389507889747619,0.1506972163915634,0.4665044248104095,0.1815840154886245,0.1683079600334167,0.1816750466823578,0.1262367963790893,0.4860437214374542,9.519999999999998,6.875822050290135,0.1466666666666666,0.2107027724049,7.546666666666667,27.6,1.0,0.3,0.08825357258319852,0.036009218753064495,0.284920409321785,0.08470974670028525,-0.013367086648941096,0.030577356496083386,-0.3598069250583649,0.06135660229443471,2.6441779497098628,65.45782591876207,-0.0640361057382334,0.03090307328605199,-20.053333333333335,208.288,0.7,0.3,1
08489fdfb56ee19c,0.2130566090345382,0.1383115202188491,0.4386361837387085,0.3839053213596344,0.1484968662261963,0.2988964915275574,0.1998102962970733,0.178886666893959,12.8,8.530574285049989,0.1217391304347826,0.2894210648686352,11.53913043478261,19.06363636363637,1.0,1.0,0.07474508881568911,0.02946818348823996,0.0547308623790741,0.16839476507817253,-0.15039962530136108,0.0443851923178471,0.02092362940311432,0.0357433979156778,4.269425714950012,109.19135084863986,-0.16768193443385263,0.03523386876661646,-7.52450592885376,219.9777865612649,0.0,1.0,0
08763e87e10b9709,0.1384491920471191,0.0953598544001579,0.2396755218505859,0.7223703265190125,0.3778700232505798,0.0753555819392204,0.2440052777528762,0.1069142520427703,7.3786096256684495,10.2,0.3946524064171123,0.0,18.529411764705884,0.2,1.0,0.2,0.04308933764696121,0.013202494795432777,-0.4826948046684265,0.17313448497782244,0.3025144413113594,0.028474615499434183,0.1370910257101059,0.02608764176543718,-2.82139037433155,75.26181818181819,0.3946524064171123,0.0,18.329411764705885,3.705882352941177,0.8,0.2,1
088b47d890b389e9,0.063720628619194,0.1513918191194534,0.2650757133960724,0.2583419382572174,0.5007928609848022,0.3384462893009186,0.1704107820987701,0.2518200278282165,9.698787176429532,10.514362994129383,0.2051786826211719,0.175231296148721,44.457142857142856,35.525,0.7,0.8,-0.0876711905002594,0.009646781882094885,0.0067337751388549805,0.06848017358365599,0.16234657168388367,0.16949148550869708,-0.08140924572944638,0.04291284789034043,-0.8155758176998518,101.97656897578727,0.029947386472450904,0.035953726497795005,8.932142857142857,1579.34,-0.10000000000000009,0.5599999999999999,0
089388c9f00ce9c6,0.1953703314065933,0.1364299952983856,0.3471162617206573,0.4229528307914734,0.1718185395002365,0.1234706714749336,0.2856948673725128,0.3171464204788208,11.961065573770492,6.8500000000000005,0.1237704918032786,0.075,16.075,12.125,0.8,0.8,0.0589403361082077,0.026654373395245557,-0.0758365690708161,0.14681380550850595,0.048347868025302915,0.021214550443936605,-0.03145155310630798,0.09060710453636389,5.1110655737704915,81.93329918032788,0.04877049180327861,0.009282786885245895,3.9499999999999993,194.90937499999998,0.0,0.6400000000000001,0
089a17e450cc98aa,0.0698251947760582,0.1192468032240867,0.1179147884249687,0.6549044847488403,0.4611921906471252,0.08879966288805,0.3510677814483642,0.1370490342378616,8.013878880603752,16.666666666666668,0.3822773022014832,0.0333333333333333,44.4,2.8000000000000003,1.0,0.6,-0.04942160844802851,0.00832643126154414,-0.5369896963238716,0.07722292375772265,0.37239252775907516,0.040953711056066,0.2140187472105026,0.04811350039952698,-8.652787786062916,133.56464801006254,0.34894396886814993,0.012742576740049427,41.6,124.32000000000001,0.4,0.6,0
08c04f18b0f58d71,0.0778427124023437,0.1737999320030212,0.208894744515419,0.2895053029060364,0.1029563620686531,0.1973814666271209,0.6103061437606812,0.339313268661499,6.1,2.690909090909091,0.1,0.1636363636363636,12.2,12.418181818181818,0.2,1.0,-0.09595721960067752,0.01352905812245807,-0.08061055839061737,0.06047613628641546,-0.09442510455846778,0.02032167774370363,0.27099287509918213,0.20708497252363145,3.4090909090909087,16.414545454545454,-0.0636363636363636,0.01636363636363636,-0.2181818181818187,151.50181818181818,-0.8,0.2,1
08c6b88ac22717ed,0.0886682048439979,0.2063643038272857,0.5212978720664978,0.3454922437667846,0.107332170009613,0.0926415398716926,0.2827017307281494,0.3555019497871399,5.275,11.52,0.15,0.1,10.5,9.16,0.8,1.0,-0.11769609898328781,0.018297952364246788,0.1758056282997132,0.18010437149110456,0.014690630137920394,0.00994341750746085,-0.07280021905899048,0.10050101648205612,-6.244999999999999,60.768,0.04999999999999999,0.015,1.3399999999999999,96.18,-0.19999999999999996,0.8,0
08e7a39eb7482ebf,0.1023631691932678,0.2628653347492218,0.1408732086420059,0.3033012747764587,0.4635652005672455,0.205337256193161,0.2931984066963196,0.2284960895776748,7.649584595129667,9.906666666666668,0.3121813746352987,0.1866666666666666,34.39310344827586,13.813333333333333,1.0,1.0,-0.160502165555954,0.026907728735979568,-0.1624280661344528,0.042727023762970426,0.2582279443740845,0.09518720635111055,0.06470231711864477,0.06699468940051377,-2.257082071537001,75.78188472241791,0.12551470796863212,0.05827385659858907,20.579770114942527,475.0834022988505,0.0,1.0,0
08ef2ed7393efd24,0.280453473329544,0.1160503178834915,0.3482173383235931,0.1139369681477546,0.1393536776304245,0.2944296002388,0.2319755554199218,0.4755831658840179,11.088164665523156,10.809912343448032,0.0257289879931389,0.3115389884463185,7.436363636363636,37.5,1.0,0.8,0.1644031554460525,0.03254671473142289,0.23428037017583847,0.039674827785071115,-0.1550759226083755,0.04102984759653249,-0.2436076104640961,0.11032366905430985,0.27825232207512407,119.86208808402307,-0.2858100004531796,0.008015582893129966,-30.063636363636363,278.8636363636363,0.19999999999999996,0.8,1
08f7a60bd84a6b3c,0.1387631595134735,0.0486509278416633,0.3961139917373657,0.1666998416185379,0.2897671163082123,0.2734691798686981,0.175355777144432,0.51118004322052,11.04386629154547,3.3490610802624934,0.2488859218285569,0.2107470974255426,25.92,43.16,1.0,0.5,0.0901122316718102,0.006750956460571214,0.22941415011882782,0.0660321396855057,0.01629793643951416,0.07924237564972447,-0.335824266076088,0.08963837373965863,7.694805211282977,36.98658277263781,0.038138824403014304,0.05245198561544886,-17.239999999999995,1118.7072,0.5,0.5,1
093ebd3375591101,0.4645999670028686,0.2621599435806274,0.1434876024723053,0.4853469133377075,0.1031094118952751,0.1062867045402526,0.2888030111789703,0.1462063640356063,5.76043956043956,7.979999999999999,0.0307692307692307,0.06,13.384615384615383,8.459999999999999,1.0,1.0,0.2024400234222412,0.12179950113703338,-0.3418593108654022,0.06964126496216139,-0.0031772926449775,0.010959159597432312,0.14259664714336398,0.0422248381870118,-2.2195604395604382,45.96830769230768,-0.029230769230769296,0.001846153846153842,4.924615384615384,113.23384615384613,0.0,1.0,0
095a351dd6f09f7e,0.1789944767951965,0.1401637345552444,0.3462126851081848,0.1949867010116577,0.1860906034708023,0.1968370825052261,0.2887022197246551,0.4680124819278717,4.586934673366834,11.533333333333331,0.1673366834170854,0.1333333333333333,15.1,24.6,0.6,0.3,0.038830742239952115,0.025088534332376775,0.15122598409652713,0.06750686931763282,-0.0107464790344238,0.03662953146882963,-0.1793102622032166,0.1351162423914216,-6.946398659966498,52.90264656616414,0.034003350083752104,0.022311557788944718,-9.500000000000002,371.46000000000004,0.3,0.18,0
0976778a6e6cf8a8,0.2217144519090652,0.1029213294386863,0.3406962752342224,0.7286868691444397,0.0962589904665947,0.0719905868172645,0.3413303196430206,0.0964013040065765,8.771428571428572,4.4,0.0285714285714285,0.0,4.785714285714286,0.0666666666666666,1.0,0.3,0.11879312247037889,0.02281914614625067,-0.3879905939102173,0.24826090212959784,0.024268403649330195,0.006929741210127622,0.2449290156364441,0.032904687910568754,4.371428571428572,38.59428571428572,0.0285714285714285,0.0,4.719047619047619,0.3190476190476187,0.7,0.3,0
0987b3f785e26d1c,0.0509358495473861,0.2551339864730835,0.1077872961759567,0.3068297803401947,0.7935906648635864,0.1345542520284652,0.0476862303912639,0.3034819960594177,10.80831578030268,8.7,0.674497624575268,0.1,41.400000000000006,7.25,0.3,0.4,-0.20419813692569738,0.012995466349417822,-0.199042484164238,0.033072352409132304,0.6590364128351213,0.10678099832749226,-0.2557957656681538,0.014471912383690036,2.1083157803026804,94.0323472886333,0.574497624575268,0.0674497624575268,34.150000000000006,300.15000000000003,-0.10000000000000003,0.12,1
0990ac7065412e76,0.1611260920763015,0.1370506882667541,0.0809453427791595,0.2246287614107132,0.5545644164085388,0.2720605731010437,0.2033641338348388,0.3662599921226501,7.006294766525469,16.0,0.3541526979136247,0.2,42.23636363636364,49.400000000000006,1.0,0.2,0.024075403809547397,0.022082441816789512,-0.1436834186315537,0.018182652090448215,0.2825038433074951,0.15087511294955291,-0.16289585828781128,0.07448414605637763,-8.99370523347453,112.10071626440751,0.15415269791362468,0.07083053958272494,-7.163636363636364,2086.476363636364,0.8,0.2,1
0992795fd0fa06d0,0.2876770496368408,0.1032940670847892,0.2744904160499573,0.1865312606096267,0.1450209468603134,0.1281788647174835,0.292811632156372,0.5819957852363586,13.821917808219178,6.931908831908832,0.0453452613922281,0.0284900284900284,18.82857142857143,19.0,0.7,0.6,0.1843829825520516,0.02971533246394207,0.08795915544033059,0.05120104333105944,0.016842082142829895,0.018588620328809473,-0.28918415307998663,0.17041513578318754,6.890008976310346,95.81227412871247,0.0168552329021997,0.0012918877889523635,-0.17142857142857082,357.74285714285713,0.09999999999999998,0.42,0
09a29fb09fe07559,0.2003205716609954,0.249856412410736,0.4431623220443725,0.1155905723571777,0.1363288164138794,0.4516416788101196,0.2201882302761078,0.1829113513231277,7.557142857142857,7.2470122065343,0.0714285714285714,0.2825403633187545,8.4,35.78,1.0,1.0,-0.0495358407497406,0.050051379367284064,0.3275717496871948,0.05122538645224493,-0.3153128623962402,0.061571775515361075,0.0372768789529801,0.04027492674525089,0.31013065060855727,54.76670653223778,-0.2111117918901831,0.020181454522768167,-27.380000000000003,300.552,0.0,1.0,1
09ab925c4cfe0cc5,0.1358040869235992,0.0706929489970207,0.0690217167139053,0.3470976650714874,0.6260120868682861,0.1873063594102859,0.1691620349884033,0.3949029743671417,7.222436869315013,11.385558354324097,0.441306639754156,0.3511335012594458,43.56666666666666,40.13333333333333,1.0,0.3,0.0651111379265785,0.009600391390476963,-0.2780759483575821,0.02395727671062219,0.43870572745800024,0.11725604493813431,-0.22574093937873843,0.06680259076691895,-4.163121485009084,82.23147643600792,0.0901731384947102,0.15495754554591773,3.43333333333333,1748.4755555555553,0.7,0.3,1
09afa6ce4747a1a2,0.0821760222315788,0.3198008239269256,0.1452102214097976,0.3738895654678345,0.5766273736953735,0.1364917308092117,0.1959864050149917,0.1698178946971893,12.273843835931483,12.075,0.3780955426178598,0.075,28.993103448275864,10.775,1.0,0.8,-0.2376248016953468,0.026279959616696255,-0.22867934405803686,0.054292586584397264,0.4401356428861618,0.07870486826765165,0.0261685103178024,0.033281998688916556,0.19884383593148414,148.20666431887264,0.3030955426178598,0.028357165696339486,18.218103448275862,312.40068965517247,0.19999999999999996,0.8,0
09f5fb0bec3c948a,0.0874268934130668,0.2328778505325317,0.4446828663349151,0.5004435181617737,0.1930737793445587,0.0999028012156486,0.2748163640499115,0.1667757481336593,10.729544072948327,5.028571428571429,0.2147112462006079,0.0,19.26,0.4571428571428572,1.0,0.7,-0.14545095711946493,0.02035978701677175,-0.055760651826858576,0.22253865809490667,0.09317097812891009,0.019288611397813446,0.10804061591625219,0.045832704713796066,5.700972644376898,53.95427876682588,0.2147112462006079,0.0,18.802857142857146,8.80457142857143,0.30000000000000004,0.7,1
0a3df9b1918cfc2f,0.1140112876892089,0.6216492056846619,0.1298094540834427,0.0574642904102802,0.1162618994712829,0.1697538942098617,0.6399173736572266,0.15113265812397,6.346022155085598,7.757749252865147,0.0,0.0712741668867496,35.0,36.8,0.3,0.6,-0.507637917995453,0.07087502643108218,0.07234516367316249,0.007459408167450884,-0.053491994738578796,0.019735910183485732,0.48878471553325653,0.0967124136605264,-1.4117270977795489,49.23084863228097,-0.0712741668867496,0.0,-1.7999999999999972,1288.0,-0.3,0.18,0
0a4247ba4ae1cca5,0.1780762374401092,0.1767069101333618,0.2308080643415451,0.2255043387413025,0.4363000392913818,0.3014652729034424,0.1548156440258026,0.2963235080242157,9.04296675191816,4.422298431657632,0.3970239479190887,0.251336073830426,24.25454545454545,29.30909090909091,1.0,1.0,0.0013693273067474088,0.03146730168621657,0.005303725600242615,0.05204821992550013,0.1348347663879394,0.13152931041275903,-0.14150786399841309,0.04587551473475404,4.620668320260528,39.99069768453979,0.14568787408866268,0.09978644028663929,-5.054545454545458,710.8786776859503,0.0,1.0,1
0a444f30cae13d8f,0.023572601377964,0.2124200612306594,0.071523830294609,0.2428838461637497,0.0825060606002807,0.0733743086457252,0.8223975300788879,0.4713217914104461,9.433333333333334,7.359999999999999,0.3,0.0,21.566666666666663,3.96,0.6,0.5,-0.1888474598526954,0.005007293428073039,-0.17136001586914068,0.017371982994317952,0.009131751954555511,0.0060538251556279035,0.35107573866844183,0.3876138771283077,2.073333333333334,69.42933333333333,0.3,0.0,17.606666666666662,85.40399999999998,0.09999999999999998,0.3,0
0a46cb2887890502,0.1595696210861206,0.2278868854045868,0.218532845377922,0.3324138820171356,0.4691370725631714,0.0929907038807869,0.1527605503797531,0.3467085361480713,7.939417178625066,6.6,0.3912077674690067,0.0,31.529999999999998,2.0,1.0,0.2,-0.06831726431846619,0.0363638239545061,-0.11388103663921362,0.07264335148032551,0.3761463686823845,0.043625386594221105,-0.19394798576831818,0.0529633868033379,1.339417178625066,52.40015337892543,0.3912077674690067,0.0,29.529999999999998,63.059999999999995,0.8,0.2,0
0a667143584a2d96,0.2434379756450653,0.5761323571205139,0.123645469546318,0.1911740005016327,0.3067767322063446,0.1138893589377403,0.326139748096466,0.1188042908906936,10.706877369172451,7.16,0.2375093424273752,0.0,31.95555555555556,12.32,0.9,0.5,-0.3326943814754486,0.14025249472103773,-0.06752853095531469,0.023637799057072407,0.1928873732686043,0.034938605367995416,0.2073354572057724,0.03874680150387008,3.546877369172451,76.66124196327475,0.2375093424273752,0.0,19.63555555555556,393.6924444444445,0.4,0.45,0
0a7517a16d2d9db6,0.1553705334663391,0.2594915330410003,0.4064733982086181,0.2876466810703277,0.3161136209964752,0.1907472014427185,0.1220424622297287,0.2621145844459533,8.342857142857143,5.911068702290076,0.3142857142857143,0.1048346055979643,18.4,18.7,0.7,1.0,-0.1041209995746612,0.04031733791857838,0.1188267171382904,0.11692072393808668,0.1253664195537567,0.06029778854300183,-0.14007212221622461,0.03198910927210629,2.4317884405670673,49.315201744820065,0.20945110868774997,0.03294801890221735,-0.3000000000000007,344.08,-0.30000000000000004,0.7,0
0a9f22de8600c762,0.1943361759185791,0.2943721115589142,0.5589256882667542,0.2688899338245392,0.1195787191390991,0.11534433811903,0.1271594613790512,0.321393609046936,12.6,13.7,0.0,0.0333333333333333,13.12,12.366666666666667,0.5,0.6,-0.10003593564033508,0.05720715045743674,0.29003575444221497,0.15028949133088254,0.0042343810200690946,0.01379272821222077,-0.19423414766788477,0.04086823821707774,-1.0999999999999996,172.61999999999998,-0.0333333333333333,0.0,0.7533333333333321,162.25066666666666,-0.09999999999999998,0.3,0
0aa335dbc4cb3473,0.2240152657032013,0.2071692794561386,0.3419242203235626,0.5656582713127136,0.1198996677994728,0.1003393083810806,0.3141608536243438,0.1268331110477447,10.04,9.22222222222222,0.12,0.0,3.3599999999999994,0.8444444444444446,0.5,0.9,0.016845986247062683,0.04640908118290765,-0.223734050989151,0.19341226338817386,0.019560359418392195,0.01203064974212042,0.18732774257659912,0.03984599843459066,0.8177777777777795,92.59111111111108,0.12,0.0,2.515555555555555,2.837333333333333,-0.4,0.45,1
0aad210fbaa1db6c,0.0476420298218727,0.2486191987991333,0.1174015402793884,0.149186223745346,0.1177143156528472,0.1855159997940063,0.7172420620918274,0.4166786670684814,5.171428571428573,3.0823529411764707,0.1714285714285714,0.1781512605042017,22.714285714285715,16.77142857142857,0.7,0.7,-0.2009771689772606,0.011844723283478405,-0.031784683465957614,0.01751469245616909,-0.06780168414115909,0.021837888958405195,0.300563395023346,0.2988594663978716,2.089075630252102,15.940168067226896,-0.006722689075630284,0.03054021608643457,5.942857142857147,380.95102040816323,0.0,0.48999999999999994,1
0aae15358d8606b9,0.1694360971450805,0.3096621632575989,0.2015329450368881,0.42568039894104,0.5000138282775879,0.1041528508067131,0.1290170699357986,0.1605044901371002,9.55889423076923,13.263157894736842,0.3651442307692307,0.0,27.4,2.4,0.8,1.0,-0.14022606611251837,0.05246794837587031,-0.2241474539041519,0.0857886244430652,0.3958609774708748,0.05207786565788908,-0.0314874202013016,0.02070781902902795,-3.7042636639676125,126.78112348178136,0.3651442307692307,0.0,25.0,65.75999999999999,-0.19999999999999996,0.8,1
0ad57af26ddc7930,0.2590188682079315,0.1444671005010604,0.2449968010187149,0.2114304453134536,0.2059350311756134,0.4956326782703399,0.2900493144989013,0.1484697461128235,5.614040091910308,8.252018082763227,0.1666112035496394,0.4117976499673755,15.095238095238091,33.18947368421052,1.0,1.0,0.11455176770687112,0.03741970486506616,0.033566355705261314,0.05179978273975847,-0.2896976470947265,0.10206813105125521,0.14157956838607783,0.04306354808385037,-2.637977990852919,46.32716035580159,-0.2451864464177361,0.06861010207997756,-18.094235588972428,501.0030075187968,0.0,1.0,1
0af90a49f0ca1879,0.2854949831962585,0.1020833626389503,0.1834301501512527,0.159697026014328,0.1144794449210167,0.3874447345733642,0.4165953993797302,0.3507748246192932,6.375,7.533333333333333,0.0,0.4666666666666666,17.475,25.133333333333336,0.8,0.3,0.1834116205573082,0.02914428790122468,0.023733124136924688,0.02929324946051669,-0.2729652896523475,0.04435445815152938,0.06582057476043701,0.14613117815462928,-1.1583333333333332,48.025,-0.4666666666666666,0.0,-7.658333333333335,439.2050000000001,0.5,0.24,0
0b21755eb0897396,0.2484583109617233,0.2536201477050781,0.3390352725982666,0.216367021203041,0.1865847557783126,0.2816286087036133,0.2259217202663421,0.2483841627836227,11.4,13.633333333333336,0.1777777777777777,0.1833333333333333,10.0,24.516666666666666,0.9,1.0,-0.005161836743354825,0.06301403352466649,0.12266825139522561,0.07335605201484793,-0.09504385292530068,0.05254760517514965,-0.02246244251728058,0.056115377342991185,-2.233333333333336,155.42000000000004,-0.005555555555555591,0.03259259259259257,-14.516666666666666,245.16666666666666,-0.09999999999999998,0.9,0
0b2ae6c368369d1b,0.3610706031322479,0.2236163765192031,0.3521873354911804,0.2469518631696701,0.1411541402339935,0.3701063692569732,0.1455879360437393,0.1593254506587982,24.16,13.214653361344537,0.04,0.1525735294117647,14.3,34.45,1.0,0.8,0.13745422661304482,0.08074129994003651,0.10523547232151031,0.08697331868430869,-0.2289522290229797,0.052242046347592976,-0.013737514615058899,0.023195863520653053,10.945346638655463,319.266025210084,-0.11257352941176468,0.006102941176470588,-20.150000000000002,492.63500000000005,0.19999999999999996,0.8,1
0b2c3c4306620d6d,0.1062759160995483,0.3379431366920471,0.090665727853775,0.2074216604232788,0.5549744963645935,0.2952796518802643,0.2480839043855667,0.1593555361032486,6.273192008850796,14.223547400611622,0.2645701133054414,0.1972477064220183,60.0,21.33333333333333,0.2,0.6,-0.23166722059249883,0.03591521644150218,-0.11675593256950381,0.018806035814915127,0.2596948444843292,0.16387267608896217,0.08872836828231812,0.03953354358194905,-7.950355391760826,89.22704389102735,0.06732240688342309,0.05218584803731182,38.66666666666667,1279.9999999999998,-0.39999999999999997,0.12,1
0b47788da6de735e,0.1505409777164459,0.1727490723133087,0.3319462537765503,0.3710804283618927,0.2122948318719864,0.1023964062333107,0.3052179515361786,0.3537740707397461,9.913972602739728,4.866666666666666,0.1336986301369863,0.0666666666666666,24.500000000000004,14.333333333333334,1.0,0.3,-0.022208094596862793,0.026005814245654502,-0.03913417458534241,0.12317875804452783,0.10989842563867569,0.021738227845596314,-0.048556119203567505,0.10797819717780044,5.047305936073061,48.248000000000005,0.0670319634703197,0.00891324200913241,10.16666666666667,351.16666666666674,0.7,0.3,1
0b557aeb2169b59f,0.2366591840982437,0.1544477939605713,0.2505722939968109,0.3507060706615448,0.2189954668283462,0.1685222387313842,0.2937730252742767,0.3263238966464996,7.371428571428571,8.52,0.1714285714285714,0.16,6.142857142857143,13.04,0.7,0.5,0.08221139013767242,0.036551488904482454,-0.10013377666473389,0.08787722464427095,0.050473228096962,0.036905606341937486,-0.0325508713722229,0.09586515833713258,-1.1485714285714286,62.80457142857142,0.011428571428571399,0.027428571428571424,-6.897142857142856,80.10285714285715,0.19999999999999996,0.35,1
0b633295d9e017a3,0.088042214512825,0.1042734757065773,0.2125798314809799,0.0558047592639923,0.1984058618545532,0.3228262066841125,0.5009721517562866,0.5170955061912537,7.800680527930301,6.445374341595354,0.2254175407286318,0.3354087523392489,24.85333333333333,52.175,1.0,0.8,-0.016231261193752303,0.009180467716156325,0.15677507221698758,0.011862966320176135,-0.1244203448295593,0.06405061176639747,-0.01612335443496704,0.2590504484001386,1.3553061863349471,50.27830612170446,-0.10999121161061709,0.07560701609117221,-27.321666666666665,1296.7226666666666,0.19999999999999996,0.8,0
0b88d0c76f9cd7e4,0.1436101198196411,0.1519106328487396,0.3025090396404266,0.3484585285186767,0.3277561664581299,0.2332718819379806,0.2261247783899307,0.2663590013980865,5.48583171226794,3.1304020100502514,0.1948011375650188,0.2510050251256281,21.7125,16.95,1.0,0.4,-0.008300513029098483,0.021815904185285003,-0.04594948887825012,0.10541185481670108,0.09448428452014929,0.076456297766466,-0.040234223008155795,0.06023037016330555,2.3554297022176884,17.172858618880973,-0.05620388756060932,0.04889606442900848,4.762499999999999,368.02687499999996,0.6,0.4,1
0b89c88d506da083,0.0483983866870403,0.0886131003499031,0.1523015648126602,0.2778365612030029,0.3883116543292999,0.253462940454483,0.410988450050354,0.3800873756408691,7.266666666666666,1.9333333333333331,0.6,0.2481481481481481,41.13333333333333,31.7,0.3,0.2,-0.040214713662862805,0.004288731096272117,-0.12553499639034268,0.042314943033385774,0.13484871387481695,0.09842261371904912,0.03090107440948492,0.15621152139834746,5.333333333333332,14.048888888888886,0.35185185185185186,0.14888888888888885,9.433333333333334,1303.9266666666667,0.09999999999999998,0.06,1
0b9cd718d7e329e8,0.1781462877988815,0.1224266961216926,0.1794941127300262,0.574186384677887,0.4709399342536926,0.1198486164212226,0.1714197099208831,0.1835383176803589,12.248739305307014,11.894736842105262,0.2618874161321661,0.0526315789473684,28.923809523809524,9.29473684210526,1.0,1.0,0.0557195916771889,0.02180986144156126,-0.3946922719478608,0.10306307565941883,0.35109131783247005,0.0564414995378066,-0.012118607759475791,0.03146208517613401,0.354002463201752,145.69553068417815,0.2092558371847977,0.01378354821748242,19.629072681704265,268.8391979949874,0.0,1.0,0
0bc7e4852f75a06d,0.1571465879678726,0.2440478801727295,0.1783038675785064,0.2469291538000106,0.2818092703819275,0.3183657824993133,0.3827402591705322,0.1906571239233017,9.590125676388196,6.277777777777779,0.231679489313218,0.1888888888888888,34.0,19.466666666666665,0.7,0.6,-0.0869012922048569,0.038351291669936664,-0.06862528622150421,0.04402842314042973,-0.03655651211738581,0.0897184288807029,0.19208313524723053,0.07297215702311277,3.312347898610417,60.204677857325905,0.042790600424329195,0.043761681314718935,14.533333333333335,661.8666666666666,0.09999999999999998,0.42,0
0be6540982a5b0cd,0.0562785118818283,0.1497782617807388,0.1378926932811737,0.2097894698381424,0.2450637966394424,0.4360115230083465,0.5607650876045227,0.2044207155704498,7.8,6.670199634257848,0.3333333333333333,0.4406430966168851,28.6,28.425,0.3,0.8,-0.0934997498989105,0.0084292976852669,-0.07189677655696869,0.02892843501801101,-0.1909477263689041,0.10685063920697098,0.3563443720340729,0.1146320004750425,1.1298003657421516,52.02755714721121,-0.1073097632835518,0.14688103220562837,0.1750000000000007,812.955,-0.5,0.24,1
0bf8bb9b4ef329f9,0.2293661385774612,0.218053326010704,0.0668550953269004,0.2407601624727249,0.3225082457065582,0.2561372220516205,0.381270557641983,0.2850492894649505,7.294904196988718,11.431346578366444,0.2506042213853259,0.0662251655629139,46.3,32.93333333333333,0.4,0.3,0.011312812566757174,0.050014049391047456,-0.1739050671458245,0.01609604361303405,0.06637102365493774,0.08260636614401928,0.09622126817703247,0.1086809015497527,-4.1364423813777265,83.39057813175799,0.18437905582241199,0.016596306052008337,13.366666666666667,1524.813333333333,0.10000000000000003,0.12,1
0bfb221a0944f8e0,0.1133816540241241,0.1587479710578918,0.1824489384889602,0.3517880141735077,0.2001237273216247,0.1951168179512024,0.5040456652641296,0.294347196817398,3.1333333333333333,15.26233766233766,0.0666666666666666,0.0,13.533333333333331,36.7,0.3,0.2,-0.045366317033767686,0.017999107531517552,-0.16933907568454748,0.06418334975909577,0.005006909370422308,0.03904750487152951,0.20969846844673162,0.14836442863845709,-12.129004329004328,47.821991341991335,0.0666666666666666,0.0,-23.16666666666667,496.6733333333333,0.09999999999999998,0.06,0
0c27552ea7bc8c8a,0.0868480801582336,0.124020367860794,0.4958703517913818,0.2866549789905548,0.0865291059017181,0.4062090814113617,0.3307523727416992,0.1831156611442566,16.4,9.1,0.1,0.2,22.0,25.0,0.2,0.2,-0.0371722877025604,0.010770930849227856,0.20921537280082697,0.14214370527479755,-0.3196799755096436,0.03514890862368335,0.14763671159744263,0.060565939409627845,7.299999999999999,149.23999999999998,-0.1,0.020000000000000004,-3.0,550.0,0.0,0.04000000000000001,0
0c2e3988793b418c,0.5078208446502686,0.1471511125564575,0.1268959641456604,0.2284219563007354,0.1187118291854858,0.2249007374048233,0.2465714216232299,0.3995262086391449,1.2999999999999998,2.425,0.1,0.225,15.2,15.725,0.2,0.8,0.36066973209381104,0.07472640226964698,-0.10152599215507499,0.028985824376819725,-0.1061889082193375,0.02669837792249118,-0.152954787015915,0.09851174523989312,-1.125,3.1524999999999994,-0.125,0.022500000000000003,-0.5250000000000004,239.01999999999998,-0.6000000000000001,0.16000000000000003,1
0c3622569cd8062a,0.0636870637536048,0.1837265342473983,0.0836150646209716,0.4334245026111603,0.6280031204223633,0.1873165369033813,0.2246948182582855,0.19553242623806,6.913924903771841,18.83333333333333,0.6134684144760177,0.1999999999999999,41.18181818181819,17.366666666666667,1.0,0.6,-0.12003947049379349,0.011701003499842912,-0.3498094379901887,0.03624081779414464,0.440686583518982,0.11763536968203421,0.029162392020225497,0.043935122977162504,-11.919408429561487,130.21225235436964,0.41346841447601784,0.12269368289520349,23.81515151515152,715.1909090909091,0.4,0.6,1
0c6e3c1f03cd4061,0.1716084629297256,0.2767388820648193,0.4444052577018738,0.360906571149826,0.1741183400154113,0.1075837537646293,0.2098679840564727,0.2547707557678222,9.2,15.239999999999998,0.1,0.02,7.800000000000001,14.060000000000002,0.2,1.0,-0.10513041913509369,0.04749073418403424,0.08349868655204779,0.16038877775813806,0.066534586250782,0.01873230461812401,-0.044902771711349515,0.05346822490953681,-6.039999999999999,140.20799999999997,0.08,0.002,-6.260000000000002,109.66800000000003,-0.8,0.2,0
0c703bf17c04fee4,0.1444280743598938,0.3395147621631622,0.4370515346527099,0.1967952102422714,0.2459080666303634,0.3035776019096374,0.1726122945547104,0.1601124256849289,3.176096591119824,6.7,0.1704382400174474,0.2,26.225,24.0,0.8,0.2,-0.19508668780326838,0.049035463315982845,0.2402563244104385,0.0860096486486874,-0.05766953527927399,0.07465218115788105,0.012499868869781494,0.027637373184196123,-3.523903408880176,21.279847160502822,-0.029561759982552616,0.03408764800348948,2.2250000000000014,629.4000000000001,0.6000000000000001,0.16000000000000003,1
0c80eef2f4570543,0.2901711761951446,0.1825568377971649,0.3282265663146972,0.2411896288394928,0.2362312227487564,0.2626382708549499,0.1453710347414016,0.3136152327060699,9.160655344655344,5.812917037923638,0.1113126873126873,0.2012465818933861,18.144,19.37272727272727,1.0,1.0,0.10761433839797971,0.05297273234606956,0.08703693747520441,0.07916484370470299,-0.026407048106193487,0.062043359864683886,-0.1682441979646683,0.04559057088914683,3.3477383067317064,53.250129531493286,-0.0899338945806988,0.022401297843045603,-1.228727272727273,351.4987636363636,0.0,1.0,1
0ccd16201ac41ef8,0.0779890418052673,0.1033597290515899,0.3370207548141479,0.1375626176595688,0.1466396152973175,0.1373906582593917,0.4383505880832672,0.6216869354248047,6.019337748344371,10.8,0.1989403973509934,0.2285714285714285,18.92,16.82857142857143,0.5,0.7,-0.02537068724632259,0.008060926229985546,0.1994581371545791,0.046361457237837904,0.009248957037925803,0.020146913272602415,-0.18333634734153748,0.2725168337471473,-4.78066225165563,65.00884768211921,-0.029631031220435117,0.04547209082308419,2.0914285714285725,318.39657142857146,-0.19999999999999996,0.35,0
0ccd2593c88209e4,0.1087255477905273,0.029712539166212,0.3276520073413849,0.0276000257581472,0.2935955226421356,0.8925973176956177,0.2700268626213074,0.0500901453197002,17.483850663078993,12.1178304691486,0.386046511627907,0.9214254403131024,30.163636363636364,51.78,1.0,1.0,0.0790130086243153,0.0032305120970938968,0.3000519815832377,0.00904320384233086,-0.5990017950534821,0.26206257599781324,0.2199367173016072,0.013525684788924009,5.366020193930392,211.86633828310258,-0.5353789286851953,0.3557130769580814,-21.616363636363637,1561.873090909091,0.0,1.0,0
0cdca4c22b8d3ab5,0.1303391605615615,0.0381394140422344,0.1941310465335846,0.065726600587368,0.2611142992973327,0.4966616928577423,0.414415568113327,0.3994723856449127,7.9115205297022,7.436960672004719,0.2000854547464749,0.5478534730335872,35.12,40.888888888888886,1.0,0.9,0.09219974651932711,0.004971059210574663,0.12840444594621658,0.012759573757120665,-0.2355473935604096,0.12968546991837646,0.014943182468414307,0.16554757564262257,0.4745598576974803,58.8376670351532,-0.34776801828711235,0.10961751128636092,-5.768888888888888,1436.0177777777776,0.09999999999999998,0.9,0
0cf7a4593fd44e59,0.2286825478076934,0.0869862511754036,0.3060628175735473,0.2024895995855331,0.2056501805782318,0.4194424748420715,0.2596043944358825,0.2910817265510559,6.258313253012049,11.135234972956196,0.1289156626506024,0.2752575321537985,14.779999999999998,41.36,1.0,1.0,0.1416962966322898,0.01989223754303126,0.10357321798801422,0.061974537378487654,-0.21379229426383967,0.08625842069345245,-0.031477332115173395,0.07556609535263802,-4.876921719944147,69.68778860665502,-0.1463418695031961,0.03548500715717643,-26.580000000000002,611.3007999999999,0.0,1.0,0
0d077813b6164fe1,0.1632877141237259,0.0885718539357185,0.1940881311893463,0.1032847240567207,0.3496087193489074,0.4822510778903961,0.2930154204368591,0.3258923590183258,8.757551188826943,7.674632864411616,0.2701864817912882,0.3946662534082038,30.616,51.575,1.0,0.8,0.0747158601880074,0.014462695564864007,0.09080340713262561,0.02004633907257624,-0.1326423585414887,0.16859918174589159,-0.03287693858146673,0.09549148659491456,1.0829183244153269,67.21099016553828,-0.12447977161691565,0.10663348649011159,-20.959000000000003,1579.0202000000002,0.19999999999999996,0.8,0
0d1d7cfb2a48d5ec,0.2380654215812683,0.0752662941813469,0.3429352641105652,0.1491747945547104,0.1200540736317634,0.4408261477947235,0.2989453077316284,0.3347327709197998,7.7200000000000015,7.11826923076923,0.04,0.4666208791208791,8.84,36.75714285714286,0.5,1.0,0.16279912739992142,0.01791830205514211,0.1937604695558548,0.05115729756925891,-0.3207720741629601,0.05292297480615435,-0.03578746318817139,0.10006679121048023,0.6017307692307714,54.95303846153847,-0.4266208791208791,0.018664835164835164,-27.91714285714286,324.93314285714285,-0.5,0.5,1
0d33d43bee65d98f,0.0870540812611579,0.3369776308536529,0.1873789131641388,0.0777794867753982,0.2062703371047973,0.1000800356268882,0.5192967057228088,0.4851628243923187,5.683113858661134,2.5,0.1599610450099504,0.0,27.33333333333333,20.3,0.6,0.2,-0.249923549592495,0.029335278059526373,0.1095994263887406,0.01457423569843862,0.1061903014779091,0.020643542686218354,0.03413388133049011,0.2519434564461047,3.183113858661134,14.207784646652835,0.1599610450099504,0.0,7.033333333333328,554.8666666666666,0.39999999999999997,0.12,0
0d6d212fcdf47f2e,0.2135633826255798,0.0935192331671714,0.4042212069034576,0.7325649261474609,0.1535244882106781,0.0684718266129493,0.228690892457962,0.1054439768195152,12.323740556863877,9.4,0.0778220580129017,0.0,21.883333333333336,0.5333333333333333,1.0,0.6,0.12004414945840841,0.019972283775731438,-0.32834371924400335,0.2961182785824689,0.0850526615977288,0.01051210213760333,0.12324691563844681,0.02411407716317159,2.9237405568638763,115.84316123452045,0.0778220580129017,0.0,21.35,11.671111111111113,0.4,0.6,1
0d7dc1ed5eb995e4,0.0923008620738983,0.1300306022167205,0.1877382099628448,0.3714346289634704,0.3370975255966186,0.2178653180599212,0.3828634321689605,0.2806694507598877,5.397168512196108,9.575,0.261091934412082,0.2,35.5,11.975,0.8,0.8,-0.037729740142822196,0.012001936680591454,-0.1836964190006256,0.06973247235981536,0.11923220753669739,0.07344185963131974,0.10219398140907282,0.10745806922290767,-4.177831487803891,51.67788850427773,0.061091934412081994,0.0522183868824164,23.525,425.1125,0.0,0.6400000000000001,1
0d9e9127c62811f9,0.26711305975914,0.1889028549194336,0.2618963420391083,0.1327430456876754,0.1414672881364822,0.1463359892368316,0.3295232951641083,0.5320180654525757,1.4,4.971428571428572,0.2,0.1428571428571428,13.2,16.2,0.2,0.7,0.07821020483970642,0.05045841957476682,0.12915329635143288,0.03476491809673241,-0.0048687011003493985,0.02070175555410402,-0.2024947702884674,0.17531234601476697,-3.5714285714285725,6.960000000000001,0.05714285714285722,0.02857142857142856,-3.0,213.83999999999997,-0.49999999999999994,0.13999999999999999,0
0ddf834a47533d15,0.2484689354896545,0.0669658184051513,0.2670893669128418,0.7619210481643677,0.2827832102775574,0.07899060100317,0.2016585320234298,0.0921225771307945,9.4,6.5777777777777775,0.2266666666666666,0.1111111111111111,16.573333333333334,3.2222222222222228,1.0,0.9,0.18150311708450323,0.016638925613321455,-0.4948316812515259,0.2035010103917898,0.20379260927438736,0.022337215733430057,0.10953595489263529,0.018577303670411202,2.822222222222223,61.83111111111111,0.1155555555555555,0.025185185185185175,13.351111111111111,53.402962962962974,0.09999999999999998,0.9,0
